{"learner":{"attributes":{"scikit_learn":"{\"_estimator_type\": \"classifier\"}"},"feature_names":[],"feature_types":[],"gradient_booster":{"model":{"gbtree_model_param":{"num_parallel_tree":"1","num_trees":"100"},"iteration_indptr":[0,1,2,3,4,5,6,7,8,9,10,11,12,13,14,15,16,17,18,19,20,21,22,23,24,25,26,27,28,29,30,31,32,33,34,35,36,37,38,39,40,41,42,43,44,45,46,47,48,49,50,51,52,53,54,55,56,57,58,59,60,61,62,63,64,65,66,67,68,69,70,71,72,73,74,75,76,77,78,79,80,81,82,83,84,85,86,87,88,89,90,91,92,93,94,95,96,97,98,99,100],"tree_info":[0,0,0,0,0,0,0,0,0,0,0,0,0,0,0,0,0,0,0,0,0,0,0,0,0,0,0,0,0,0,0,0,0,0,0,0,0,0,0,0,0,0,0,0,0,0,0,0,0,0,0,0,0,0,0,0,0,0,0,0,0,0,0,0,0,0,0,0,0,0,0,0,0,0,0,0,0,0,0,0,0,0,0,0,0,0,0,0,0,0,0,0,0,0,0,0,0,0,0,0],"trees":[{"base_weights":[1.0233046E-7,-1.4518825E0,5.480717E-1,2.5102898E-1,-6.0908055E-1,-8.277301E-1,8.75302E-1,-2.606957E-1,3.2297668E-1,1.6358104E-1,-4.901058E-1,-3.06339E-1,1.029419E0,1.2401824E0,-7.302517E-2,-1.2519732E-1,1.3650757E0,6.993507E-1,-3.9619404E-1,-1.2519732E-1,4.519786E-1,1.0301063E-2,3.041968E-1],"categories":[],"categories_nodes":[],"categories_segments":[],"categories_sizes":[],"default_left":[0,0,0,0,0,0,0,0,0,0,0,0,0,0,0,0,0,0,0,0,0,0,0],"id":0,"left_children":[1,3,5,7,-1,9,11,-1,-1,-1,-1,-1,13,15,17,-1,19,21,-1,-1,-1,-1,-1],"loss_changes":[3.4630783E1,1.2256483E1,1.49482765E1,4.554316E0,0E0,8.1771965E0,8.653E0,0E0,0E0,0E0,0E0,0E0,5.7954674E0,4.84811E0,5.6309E0,0E0,5.5357895E0,7.332797E-1,0E0,0E0,0E0,0E0,0E0],"parents":[2147483647,0,0,1,1,2,2,3,3,5,5,6,6,12,12,13,13,14,14,16,16,17,17],"right_children":[2,4,6,8,-1,10,12,-1,-1,-1,-1,-1,14,16,18,-1,20,22,-1,-1,-1,-1,-1],"split_conditions":[-7.3474926E-1,-5.6404287E-1,-8.485858E-1,8.453367E-2,-6.0908055E-1,-6.7232937E-1,-1.5649048E0,-2.606957E-1,3.2297668E-1,1.6358104E-1,-4.901058E-1,-3.06339E-1,1.2691556E0,-6.2569296E-1,2.564265E-1,-1.2519732E-1,-1.0968751E0,1.7080735E0,-3.9619404E-1,-1.2519732E-1,4.519786E-1,1.0301063E-2,3.041968E-1],"split_indices":[54,63,18,96,0,34,186,0,0,0,0,0,3,54,93,0,147,3,0,0,0,0,0],"split_type":[0,0,0,0,0,0,0,0,0,0,0,0,0,0,0,0,0,0,0,0,0,0,0],"sum_hessian":[4.152047E1,1.0926439E1,3.059403E1,2.913717E0,8.012722E0,5.5846243E0,2.5009405E1,1.2140487E0,1.6996683E0,2.1852877E0,3.3993366E0,1.4568585E0,2.3552546E1,1.9667591E1,3.8849561E0,1.2140487E0,1.845354E1,2.6709073E0,1.2140487E0,1.2140487E0,1.7239492E1,1.2140487E0,1.4568585E0],"tree_param":{"num_deleted":"0","num_feature":"197","num_nodes":"23","size_leaf_vector":"1"}},{"base_weights":[-1.0976592E-2,-7.4857086E-1,5.8406967E-1,-1.1521208E0,2.816129E-1,-9.54187E-1,8.3466625E-1,-1.414626E0,1.0408609E-1,-3.5591492E-1,-7.854835E-2,1.0053645E0,-1.6328259E-1,-1.6100644E0,4.922848E-2,1.1620171E0,-1.4566626E-1,-8.970773E-2,-5.1765966E-1,3.3757606E-1,1.3409941E0,2.8908002E-1,-1.6864586E-1,4.197476E-1,1.0795036E-1],"categories":[],"categories_nodes":[],"categories_segments":[],"categories_sizes":[],"default_left":[0,0,0,0,0,0,0,0,0,0,0,0,0,0,0,0,0,0,0,0,0,0,0,0,0],"id":1,"left_children":[1,3,5,7,-1,9,11,13,-1,-1,-1,15,-1,17,-1,19,-1,-1,-1,21,23,-1,-1,-1,-1],"loss_changes":[1.8221462E1,1.3699333E1,9.658169E0,6.552252E0,0E0,2.8211117E-1,5.3258686E0,4.369341E0,0E0,0E0,0E0,4.8655434E0,0E0,1.2902889E0,0E0,2.049902E0,0E0,0E0,0E0,2.9983618E0,2.7259064E-1,0E0,0E0,0E0,0E0],"parents":[2147483647,0,0,1,1,2,2,3,3,5,5,6,6,7,7,11,11,13,13,15,15,19,19,20,20],"right_children":[2,4,6,8,-1,10,12,14,-1,-1,-1,16,-1,18,-1,20,-1,-1,-1,22,24,-1,-1,-1,-1],"split_conditions":[-3.1190947E-1,1.187831E0,-8.4858584E-1,1.0466496E0,2.816129E-1,-4.5315003E-1,1.1381478E0,1.2665997E0,1.0408609E-1,-3.5591492E-1,-7.854835E-2,1.4159552E0,-1.6328259E-1,-2.1150818E0,4.922848E-2,-1.027219E0,-1.4566626E-1,-8.970773E-2,-5.1765966E-1,-1.1436486E0,1.6388322E0,2.8908002E-1,-1.6864586E-1,4.197476E-1,1.0795036E-1],"split_indices":[97,111,18,185,0,27,35,191,0,0,0,94,0,10,0,192,0,0,0,192,58,0,0,0,0],"split_type":[0,0,0,0,0,0,0,0,0,0,0,0,0,0,0,0,0,0,0,0,0,0,0,0,0],"sum_hessian":[3.9519787E1,1.7531042E1,2.1988745E1,1.4403341E1,3.1277013E0,2.687036E0,1.9301708E1,1.2304939E1,2.0984025E0,1.4778676E0,1.2091684E0,1.7416632E1,1.8850777E0,1.0931782E1,1.3731575E0,1.596027E1,1.456361E0,1.1754327E0,9.756349E0,3.3615851E0,1.2598685E1,1.9404482E0,1.4211371E0,1.1491432E1,1.1072531E0],"tree_param":{"num_deleted":"0","num_feature":"197","num_nodes":"25","size_leaf_vector":"1"}},{"base_weights":[-7.3418776E-3,-9.0306926E-1,3.561069E-1,1.3230442E-1,-1.198078E0,6.637527E-1,-4.2641228E-1,-1.1110213E-2,-4.1462865E-1,9.193276E-1,-1.6625522E-1,6.2571836E-1,-1.0405016E0,1.2045461E0,-8.4037706E-2,-7.643952E-1,2.6350778E-1,2.7237603E-1,-1.6591536E-2,-4.0959394E-1,-2.8343027E-2,7.8675956E-2,3.7994066E-1,-2.2689116E-1,1.7267409E-1,-3.5643187E-1,5.4569446E-2],"categories":[],"categories_nodes":[],"categories_segments":[],"categories_sizes":[],"default_left":[0,0,0,0,0,0,0,0,0,0,0,0,0,0,0,0,0,0,0,0,0,0,0,0,0,0,0],"id":2,"left_children":[1,3,5,-1,7,9,11,-1,-1,13,15,17,19,21,23,25,-1,-1,-1,-1,-1,-1,-1,-1,-1,-1,-1],"loss_changes":[1.2497856E1,4.921193E0,6.860853E0,0E0,1.9472437E0,4.3962584E0,6.0263557E0,0E0,0E0,4.5219994E0,4.143134E0,7.595073E-1,1.6006584E0,3.73518E-1,2.366045E0,1.8471568E0,0E0,0E0,0E0,0E0,0E0,0E0,0E0,0E0,0E0,0E0,0E0],"parents":[2147483647,0,0,1,1,2,2,4,4,5,5,6,6,9,9,10,10,11,11,12,12,13,13,14,14,15,15],"right_children":[2,4,6,-1,8,10,12,-1,-1,14,16,18,20,22,24,26,-1,-1,-1,-1,-1,-1,-1,-1,-1,-1,-1],"split_conditions":[-7.3474926E-1,-6.678773E-1,2.2583164E-1,1.3230442E-1,-1.1540128E0,7.487255E-1,-7.741977E-1,-1.1110213E-2,-4.1462865E-1,9.7035605E-1,7.659724E-1,4.9427173E-1,6.2794095E-1,-1.1956491E0,1.7059336E0,-4.260353E-1,2.6350778E-1,2.7237603E-1,-1.6591536E-2,-4.0959394E-1,-2.8343027E-2,7.8675956E-2,3.7994066E-1,-2.2689116E-1,1.7267409E-1,-3.5643187E-1,5.4569446E-2],"split_indices":[54,151,113,0,160,17,5,0,0,7,54,107,30,161,7,120,0,0,0,0,0,0,0,0,0,0,0],"split_type":[0,0,0,0,0,0,0,0,0,0,0,0,0,0,0,0,0,0,0,0,0,0,0,0,0,0,0],"sum_hessian":[3.6402023E1,1.0078534E1,2.6323488E1,1.7248875E0,8.353646E0,1.9003914E1,7.319574E0,1.3072028E0,7.046444E0,1.4447611E1,4.556303E0,2.6906672E0,4.6289067E0,1.1093614E1,3.3539968E0,3.067896E0,1.4884074E0,1.6668073E0,1.0238597E0,3.1158795E0,1.5130274E0,1.0068772E0,1.0086737E1,1.5884798E0,1.7655172E0,1.9425606E0,1.1253352E0],"tree_param":{"num_deleted":"0","num_feature":"197","num_nodes":"27","size_leaf_vector":"1"}},{"base_weights":[-4.898472E-3,-7.454605E-1,2.971476E-1,2.7633443E-1,-1.1138538E0,-2.9925328E-1,5.867247E-1,2.500268E-1,-1.1919691E-1,-7.5555705E-2,-3.619762E-1,3.7393743E-1,-3.4951016E-1,8.880063E-1,-1.6599302E-1,-2.2540188E-1,2.7342063E-1,1.0475739E0,-1.318346E-1,2.233073E-1,-6.2877035E-1,3.5163108E-1,-2.9911142E-2,-3.0140513E-1,4.749603E-2],"categories":[],"categories_nodes":[],"categories_segments":[],"categories_sizes":[],"default_left":[0,0,0,0,0,0,0,0,0,0,0,0,0,0,0,0,0,0,0,0,0,0,0,0,0],"id":3,"left_children":[1,3,5,7,9,11,13,-1,-1,-1,-1,15,-1,17,19,-1,-1,21,-1,-1,23,-1,-1,-1,-1],"loss_changes":[7.7570434E0,4.088804E0,4.43165E0,1.6307528E0,3.0216408E-1,5.516169E0,3.9860678E0,0E0,0E0,0E0,0E0,4.108464E0,0E0,3.0542536E0,2.861367E0,0E0,0E0,1.720911E0,0E0,0E0,1.4338335E0,0E0,0E0,0E0,0E0],"parents":[2147483647,0,0,1,1,2,2,3,3,4,4,5,5,6,6,11,11,13,13,14,14,17,17,20,20],"right_children":[2,4,6,8,10,12,14,-1,-1,-1,-1,16,-1,18,20,-1,-1,22,-1,-1,24,-1,-1,-1,-1],"split_conditions":[-7.3474926E-1,-5.6404287E-1,-4.9834946E-1,-4.2270002E-1,-7.0616937E-1,-8.470221E-2,3.0457398E-1,2.500268E-1,-1.1919691E-1,-7.5555705E-2,-3.619762E-1,-1.07155E-2,-3.4951016E-1,1.2607026E0,-4.0452766E-1,-2.2540188E-1,2.7342063E-1,1.9776772E0,-1.318346E-1,2.233073E-1,5.9361714E-1,3.5163108E-1,-2.9911142E-2,-3.0140513E-1,4.749603E-2],"split_indices":[54,63,67,34,7,132,68,0,0,0,0,171,0,122,67,0,0,106,0,0,72,0,0,0,0],"split_type":[0,0,0,0,0,0,0,0,0,0,0,0,0,0,0,0,0,0,0,0,0,0,0,0,0],"sum_hessian":[3.2688313E1,9.044588E0,2.3643723E1,2.4629934E0,6.5815954E0,7.7169023E0,1.5926822E1,1.2183255E0,1.2446679E0,1.0001942E0,5.581401E0,4.6608973E0,3.056005E0,1.1245844E1,4.6809773E0,1.3779607E0,3.2829363E0,1.0227305E1,1.0185391E0,1.3725376E0,3.3084395E0,9.206373E0,1.0209316E0,2.051969E0,1.2564704E0],"tree_param":{"num_deleted":"0","num_feature":"197","num_nodes":"25","size_leaf_vector":"1"}},{"base_weights":[-1.3877949E-2,-4.7433722E-1,3.769038E-1,-7.588875E-1,4.7760913E-1,-6.2315065E-1,5.642559E-1,6.1667074E-2,-9.2073387E-1,2.604446E-1,-9.0799905E-2,-2.2633512E-1,-5.8076046E-2,7.1775794E-1,-1.3500379E-1,-3.5939896E-1,-2.7080876E-1,8.6623853E-1,-3.891583E-2,1.036416E-1,-2.1822132E-1,1.0334111E0,-3.589379E-2,3.267628E-1,8.4637985E-2],"categories":[],"categories_nodes":[],"categories_segments":[],"categories_sizes":[],"default_left":[0,0,0,0,0,0,0,0,0,0,0,0,0,0,0,0,0,0,0,0,0,0,0,0,0],"id":4,"left_children":[1,3,5,7,9,11,13,-1,15,-1,-1,-1,-1,17,-1,-1,19,21,-1,-1,-1,23,-1,-1,-1],"loss_changes":[5.5396504E0,4.187174E0,3.4754903E0,1.946343E0,1.439948E0,2.9125929E-2,2.590971E0,0E0,1.4454327E0,0E0,0E0,0E0,0E0,1.7529354E0,0E0,0E0,1.4413301E0,1.9735231E0,0E0,0E0,0E0,9.9357605E-2,0E0,0E0,0E0],"parents":[2147483647,0,0,1,1,2,2,3,3,4,4,5,5,6,6,8,8,13,13,16,16,17,17,21,21],"right_children":[2,4,6,8,10,12,14,-1,16,-1,-1,-1,-1,18,-1,-1,20,22,-1,-1,-1,24,-1,-1,-1],"split_conditions":[-3.1190947E-1,1.0989333E0,-8.4858584E-1,-6.6663533E-1,1.2200757E0,1.4283018E-1,1.5710331E0,6.1667074E-2,2.4119674E-1,2.604446E-1,-9.0799905E-2,-2.2633512E-1,-5.8076046E-2,1.102634E0,-1.3500379E-1,-3.5939896E-1,3.2361853E-1,8.122587E-1,-3.891583E-2,1.036416E-1,-2.1822132E-1,8.3738977E-1,-3.589379E-2,3.267628E-1,8.4637985E-2],"split_indices":[97,111,18,109,53,54,87,0,187,0,0,0,0,94,0,0,164,17,0,0,0,125,0,0,0],"split_type":[0,0,0,0,0,0,0,0,0,0,0,0,0,0,0,0,0,0,0,0,0,0,0,0,0],"sum_hessian":[2.8792698E1,1.3119793E1,1.5672905E1,1.0256718E1,2.8630748E0,2.1058946E0,1.3567011E1,1.435066E0,8.821652E0,1.8330084E0,1.0300663E0,1.0336375E0,1.0722569E0,1.2037556E1,1.5294557E0,5.592548E0,3.2291043E0,1.0224121E1,1.8134344E0,1.4778202E0,1.7512841E0,8.700589E0,1.5235319E0,7.680369E0,1.0202204E0],"tree_param":{"num_deleted":"0","num_feature":"197","num_nodes":"25","size_leaf_vector":"1"}},{"base_weights":[-1.929793E-2,-4.2479864E-1,3.9474213E-1,2.3568846E-1,-7.337697E-1,-4.1775075E-1,6.9864744E-1,2.4896945E-1,-1.4379492E-1,1.6722463E-2,-8.5723436E-1,1.0074175E-1,-2.3922084E-1,8.820584E-1,-1.3787027E-1,-9.883891E-1,1.3322434E-2,3.2876936E-1,-1.8089505E-2,-3.214906E-1,-9.395284E-2],"categories":[],"categories_nodes":[],"categories_segments":[],"categories_sizes":[],"default_left":[0,0,0,0,0,0,0,0,0,0,0,0,0,0,0,0,0,0,0,0,0],"id":5,"left_children":[1,3,5,7,9,11,13,-1,-1,-1,15,-1,-1,17,-1,19,-1,-1,-1,-1,-1],"loss_changes":[4.659303E0,3.0294151E0,3.688343E0,2.6146898E0,1.0010567E0,1.5180626E0,2.6114583E0,0E0,0E0,0E0,1.0511899E0,0E0,0E0,1.9417424E0,0E0,8.4794044E-2,0E0,0E0,0E0,0E0,0E0],"parents":[2147483647,0,0,1,1,2,2,3,3,4,4,5,5,6,6,10,10,13,13,15,15],"right_children":[2,4,6,8,10,12,14,-1,-1,-1,16,-1,-1,18,-1,20,-1,-1,-1,-1,-1],"split_conditions":[7.55357E-2,-6.165389E-1,-8.094915E-1,-2.2210503E-2,-1.042474E0,-7.040952E-1,1.4548686E0,2.4896945E-1,-1.4379492E-1,1.6722463E-2,9.7051007E-1,1.0074175E-1,-2.3922084E-1,8.911846E-1,-1.3787027E-1,5.146598E-1,1.3322434E-2,3.2876936E-1,-1.8089505E-2,-3.214906E-1,-9.395284E-2],"split_indices":[175,129,96,35,163,149,87,0,0,0,188,0,0,35,0,146,0,0,0,0,0],"split_type":[0,0,0,0,0,0,0,0,0,0,0,0,0,0,0,0,0,0,0,0,0],"sum_hessian":[2.5752771E1,1.2997426E1,1.2755345E1,4.217935E0,8.779491E0,3.3702776E0,9.385068E0,2.2157948E0,2.00214E0,1.2614573E0,7.518034E0,1.1678159E0,2.2024617E0,8.307892E0,1.0771761E0,6.4793286E0,1.0387053E0,6.6385417E0,1.6693501E0,5.245509E0,1.2338197E0],"tree_param":{"num_deleted":"0","num_feature":"197","num_nodes":"21","size_leaf_vector":"1"}},{"base_weights":[-2.0329002E-2,-5.743927E-1,2.1103135E-1,1.06857345E-1,-8.030001E-1,4.3106994E-1,-2.8968415E-1,1.3289257E-2,-2.9708242E-1,-3.0337378E-1,6.2954646E-1,1.1908849E-1,-6.6773194E-1,-1.9580576E-1,7.036542E-2,-4.293902E-2,8.0625546E-1,-2.6555344E-1,-1.0982504E-2,-1.6699387E-1,1.4028434E-1,-3.0488612E-2,9.505681E-1,8.544116E-2,3.0367732E-1],"categories":[],"categories_nodes":[],"categories_segments":[],"categories_sizes":[],"default_left":[0,0,0,0,0,0,0,0,0,0,0,0,0,0,0,0,0,0,0,0,0,0,0,0,0],"id":6,"left_children":[1,3,5,-1,7,9,11,-1,-1,13,15,-1,17,-1,-1,19,21,-1,-1,-1,-1,-1,23,-1,-1],"loss_changes":[3.2040386E0,1.8502414E0,2.0746036E0,0E0,1.0292525E0,2.0416498E0,1.8227293E0,0E0,0E0,7.8741556E-1,1.2609859E0,0E0,5.498537E-1,0E0,0E0,1.0725405E0,1.1739826E0,0E0,0E0,0E0,0E0,0E0,7.0786476E-3,0E0,0E0],"parents":[2147483647,0,0,1,1,2,2,4,4,5,5,6,6,9,9,10,10,12,12,15,15,16,16,22,22],"right_children":[2,4,6,-1,8,10,12,-1,-1,14,16,-1,18,-1,-1,20,22,-1,-1,-1,-1,-1,24,-1,-1],"split_conditions":[-7.3474926E-1,-7.3053014E-1,2.2583164E-1,1.06857345E-1,-7.5877446E-1,-1.0395689E0,-7.741977E-1,1.3289257E-2,-2.9708242E-1,-6.912702E-1,-7.4327266E-1,1.1908849E-1,6.2794095E-1,-1.9580576E-1,7.036542E-2,6.85178E-2,-9.76868E-1,-2.6555344E-1,-1.0982504E-2,-1.6699387E-1,1.4028434E-1,-3.0488612E-2,-5.7315737E-1,8.544116E-2,3.0367732E-1],"split_indices":[54,80,113,0,71,192,5,0,0,47,124,0,30,0,0,88,87,0,0,0,0,0,186,0,0],"split_type":[0,0,0,0,0,0,0,0,0,0,0,0,0,0,0,0,0,0,0,0,0,0,0,0,0],"sum_hessian":[2.304917E1,6.3527875E0,1.6696383E1,1.1427888E0,5.2099986E0,1.1695783E1,5.0006003E0,1.0812944E0,4.128704E0,2.3758097E0,9.319973E0,1.7578317E0,3.2427685E0,1.3110893E0,1.0647203E0,2.09692E0,7.223053E0,2.1124167E0,1.1303518E0,1.0002308E0,1.0966892E0,1.0312349E0,6.191818E0,1.001389E0,5.190429E0],"tree_param":{"num_deleted":"0","num_feature":"197","num_nodes":"25","size_leaf_vector":"1"}},{"base_weights":[-2.1370705E-2,-3.8031E-1,2.876434E-1,-7.722697E-1,7.150226E-2,-4.3640876E-1,5.805331E-1,-2.9141657E-2,-2.861223E-1,1.8831696E-1,-3.1028715E-1,-2.1427332E-1,4.834947E-2,-8.592895E-2,7.778154E-1,-5.723399E-1,7.241164E-2,2.868594E-1,-1.9439079E-2,-4.4659708E-2,-2.1335866E-1],"categories":[],"categories_nodes":[],"categories_segments":[],"categories_sizes":[],"default_left":[0,0,0,0,0,0,0,0,0,0,0,0,0,0,0,0,0,0,0,0,0],"id":7,"left_children":[1,3,5,7,9,11,13,-1,-1,-1,15,-1,-1,-1,17,19,-1,-1,-1,-1,-1],"loss_changes":[2.5086484E0,1.9036647E0,2.8391442E0,6.0249233E-1,1.4188002E0,7.929419E-1,1.7810369E0,0E0,0E0,0E0,7.2899425E-1,0E0,0E0,0E0,1.217957E0,7.450175E-2,0E0,0E0,0E0,0E0,0E0],"parents":[2147483647,0,0,1,1,2,2,3,3,4,4,5,5,6,6,10,10,14,14,15,15],"right_children":[2,4,6,8,10,12,14,-1,-1,-1,16,-1,-1,-1,18,20,-1,-1,-1,-1,-1],"split_conditions":[-1.14585064E-1,-3.287497E-1,-8.094915E-1,-4.9677804E-1,-5.164646E-1,5.588961E-1,-9.2430973E-1,-2.9141657E-2,-2.861223E-1,1.8831696E-1,-2.573641E-1,-2.1427332E-1,4.834947E-2,-8.592895E-2,8.911846E-1,-3.6025554E-1,7.241164E-2,2.868594E-1,-1.9439079E-2,-4.4659708E-2,-2.1335866E-1],"split_indices":[175,97,96,81,178,175,17,0,0,0,4,0,0,0,35,132,0,0,0,0,0],"split_type":[0,0,0,0,0,0,0,0,0,0,0,0,0,0,0,0,0,0,0,0,0],"sum_hessian":[2.0631021E1,9.437756E0,1.1193267E1,4.673817E0,4.7639384E0,3.0826476E0,8.110619E0,1.3153985E0,3.358419E0,1.676834E0,3.0871046E0,1.9710075E0,1.1116401E0,1.4197235E0,6.6908956E0,2.0674996E0,1.0196049E0,5.4106493E0,1.280246E0,1.0221852E0,1.0453144E0],"tree_param":{"num_deleted":"0","num_feature":"197","num_nodes":"21","size_leaf_vector":"1"}},{"base_weights":[-2.9267285E-2,-5.0254864E-1,1.6827315E-1,9.483498E-2,-7.3466384E-1,2.9919717E-1,-1.5731235E-1,-2.6053843E-1,-3.5003416E-2,4.997138E-1,-2.3787236E-1,-4.1901175E-2,6.79697E-1,-1.7760698E-1,1.0804272E-1,2.674544E-1,-5.351992E-2],"categories":[],"categories_nodes":[],"categories_segments":[],"categories_sizes":[],"default_left":[0,0,0,0,0,0,0,0,0,0,0,0,0,0,0,0,0],"id":8,"left_children":[1,3,5,-1,7,9,-1,-1,-1,11,13,-1,15,-1,-1,-1,-1],"loss_changes":[1.9159696E0,1.3760506E0,1.4781208E0,0E0,3.1130672E-1,1.5070245E0,0E0,0E0,0E0,1.2121596E0,1.0988547E0,0E0,1.5670123E0,0E0,0E0,0E0,0E0],"parents":[2147483647,0,0,1,1,2,2,4,4,5,5,9,9,10,10,12,12],"right_children":[2,4,6,-1,8,10,-1,-1,-1,12,14,-1,16,-1,-1,-1,-1],"split_conditions":[-7.3474926E-1,-6.678773E-1,1.1131208E0,9.483498E-2,-7.378637E-2,7.487255E-1,-1.5731235E-1,-2.6053843E-1,-3.5003416E-2,-8.079015E-1,1.0143156E-2,-4.1901175E-2,1.1311228E0,-1.7760698E-1,1.0804272E-1,2.674544E-1,-5.351992E-2],"split_indices":[54,151,133,0,148,17,0,0,0,87,39,0,187,0,0,0,0],"split_type":[0,0,0,0,0,0,0,0,0,0,0,0,0,0,0,0,0],"sum_hessian":[1.8588844E1,5.0192766E0,1.3569567E1,1.028806E0,3.9904706E0,1.1890136E1,1.6794307E0,2.9470973E0,1.0433735E0,8.708386E0,3.1817496E0,1.9620936E0,6.746293E0,2.004614E0,1.1771355E0,5.379453E0,1.3668396E0],"tree_param":{"num_deleted":"0","num_feature":"197","num_nodes":"17","size_leaf_vector":"1"}},{"base_weights":[-3.4217678E-2,-1.9259048E-1,4.7442976E-1,-5.210393E-1,1.3823739E-1,2.2058883E-1,-5.7361882E-2,-2.4550511E-1,-2.5892831E-2,-1.5580638E-1,4.00006E-1,1.3590895E-1,-1.2465752E-1,6.0329914E-1,-9.88405E-2,-3.6634997E-2,2.4130054E-1],"categories":[],"categories_nodes":[],"categories_segments":[],"categories_sizes":[],"default_left":[0,0,0,0,0,0,0,0,0,0,0,0,0,0,0,0,0],"id":9,"left_children":[1,3,5,7,9,-1,-1,-1,11,-1,13,-1,-1,15,-1,-1,-1],"loss_changes":[1.5269744E0,1.6259885E0,9.254693E-1,1.066129E0,1.5702227E0,0E0,0E0,0E0,8.980374E-1,0E0,1.1221156E0,0E0,0E0,8.598509E-1,0E0,0E0,0E0],"parents":[2147483647,0,0,1,1,2,2,3,3,4,4,8,8,10,10,13,13],"right_children":[2,4,6,8,10,-1,-1,-1,12,-1,14,-1,-1,16,-1,-1,-1],"split_conditions":[8.639798E-1,-8.7876655E-2,1.2791237E0,7.686859E-3,-1.0270362E0,2.2058883E-1,-5.7361882E-2,-2.4550511E-1,-5.18532E-1,-1.5580638E-1,1.6065888E0,1.3590895E-1,-1.2465752E-1,-9.2430973E-1,-9.88405E-2,-3.6634997E-2,2.4130054E-1],"split_indices":[88,175,190,87,96,0,0,0,135,0,113,0,0,17,0,0,0],"split_type":[0,0,0,0,0,0,0,0,0,0,0,0,0,0,0,0,0],"sum_hessian":[1.6821209E1,1.3301128E1,3.5200806E0,6.3860474E0,6.915081E0,2.4537792E0,1.0663011E0,3.5823061E0,2.8037415E0,1.6887445E0,5.2263365E0,1.1847615E0,1.6189799E0,4.222546E0,1.0037905E0,1.0014586E0,3.2210875E0],"tree_param":{"num_deleted":"0","num_feature":"197","num_nodes":"17","size_leaf_vector":"1"}},{"base_weights":[-3.201729E-2,-3.5741544E-1,1.861037E-1,-5.7626224E-1,1.2683907E-1,3.603563E-1,-1.7197393E-1,3.12778E-2,-2.2365424E-1,5.560933E-1,-7.8982726E-2,-9.0941355E-2,7.545365E-1,2.540405E-1,4.3190718E-2],"categories":[],"categories_nodes":[],"categories_segments":[],"categories_sizes":[],"default_left":[0,0,0,0,0,0,0,0,0,0,0,0,0,0,0],"id":10,"left_children":[1,3,5,7,-1,9,-1,-1,-1,11,-1,-1,13,-1,-1],"loss_changes":[1.2141702E0,1.4100919E0,1.5744994E0,7.4095356E-1,0E0,1.2477711E0,0E0,0E0,0E0,1.4544306E0,0E0,0E0,2.2321153E-1,0E0,0E0],"parents":[2147483647,0,0,1,1,2,2,3,3,5,5,9,9,12,12],"right_children":[2,4,6,8,-1,10,-1,-1,-1,12,-1,-1,14,-1,-1],"split_conditions":[-5.383293E-1,4.7109783E-1,1.7423621E0,-4.369498E-1,1.2683907E-1,8.472321E-1,-1.7197393E-1,3.12778E-2,-2.2365424E-1,-1.0732297E0,-7.8982726E-2,-9.0941355E-2,1.0397561E0,2.540405E-1,4.3190718E-2],"split_indices":[148,48,48,152,0,28,0,0,0,174,0,0,176,0,0],"split_type":[0,0,0,0,0,0,0,0,0,0,0,0,0,0,0],"sum_hessian":[1.5169568E1,5.8314543E0,9.338114E0,4.758199E0,1.0732547E0,8.022569E0,1.3155454E0,1.0241868E0,3.7340126E0,6.1885056E0,1.8340628E0,1.0621157E0,5.12639E0,4.1173E0,1.0090901E0],"tree_param":{"num_deleted":"0","num_feature":"197","num_nodes":"15","size_leaf_vector":"1"}},{"base_weights":[-2.944612E-2,-3.934165E-1,1.5750486E-1,4.691278E-2,-6.114522E-1,-1.3398129E-1,4.7913966E-1,-2.2141628E-1,-3.6137775E-2,1.1701257E-1,-3.2286358E-1,-6.938886E-2,2.1938027E-1,-1.783207E-1,3.1463694E-2],"categories":[],"categories_nodes":[],"categories_segments":[],"categories_sizes":[],"default_left":[0,0,0,0,0,0,0,0,0,0,0,0,0,0,0],"id":11,"left_children":[1,3,5,-1,7,9,11,-1,-1,-1,13,-1,-1,-1,-1],"loss_changes":[1.0691849E0,7.320243E-1,1.0479727E0,0E0,1.6005218E-1,7.4812657E-1,1.1018616E0,0E0,0E0,0E0,6.6257083E-1,0E0,0E0,0E0,0E0],"parents":[2147483647,0,0,1,1,2,2,4,4,5,5,6,6,10,10],"right_children":[2,4,6,-1,8,10,12,-1,-1,-1,14,-1,-1,-1,-1],"split_conditions":[-6.880966E-1,-7.4025065E-1,-2.2071424E-1,4.691278E-2,-8.986557E-2,-5.3196067E-1,-7.2087294E-1,-2.2141628E-1,-3.6137775E-2,1.1701257E-1,2.991499E-1,-6.938886E-2,2.1938027E-1,-1.783207E-1,3.1463694E-2],"split_indices":[18,172,47,0,93,173,29,0,0,0,177,0,0,0,0],"split_type":[0,0,0,0,0,0,0,0,0,0,0,0,0,0,0],"sum_hessian":[1.3802346E1,4.3089576E0,9.493389E0,1.3038939E0,3.0050635E0,5.286164E0,4.2072253E0,1.9890118E0,1.0160517E0,1.1183854E0,4.1677785E0,1.1236562E0,3.083569E0,2.3110535E0,1.8567251E0],"tree_param":{"num_deleted":"0","num_feature":"197","num_nodes":"15","size_leaf_vector":"1"}},{"base_weights":[-2.8450571E-2,1.1372969E-1,-4.702705E-1,3.2061362E-1,-3.1860542E-1,-2.0250393E-1,7.807051E-3,-4.8883103E-2,5.521268E-1,-1.7331633E-1,6.7697205E-2,-1.4424819E-1,8.9609295E-2,2.0419528E-1,6.561011E-3],"categories":[],"categories_nodes":[],"categories_segments":[],"categories_sizes":[],"default_left":[0,0,0,0,0,0,0,0,0,0,0,0,0,0,0],"id":12,"left_children":[1,3,5,7,9,-1,-1,11,13,-1,-1,-1,-1,-1,-1],"loss_changes":[9.205962E-1,1.1082246E0,3.788337E-1,7.204161E-1,7.1450996E-1,0E0,0E0,7.503505E-1,3.3029342E-1,0E0,0E0,0E0,0E0,0E0,0E0],"parents":[2147483647,0,0,1,1,2,2,3,3,4,4,7,7,8,8],"right_children":[2,4,6,8,10,-1,-1,12,14,-1,-1,-1,-1,-1,-1],"split_conditions":[8.7181246E-1,4.0584236E-1,2.3915847E-1,-4.3933147E-1,-1.4911816E-1,-2.0250393E-1,7.807051E-3,-3.1844246E-1,1.0013425E0,-1.7331633E-1,6.7697205E-2,-1.4424819E-1,8.9609295E-2,2.0419528E-1,6.561011E-3],"split_indices":[74,118,189,134,93,0,0,10,42,0,0,0,0,0,0],"split_type":[0,0,0,0,0,0,0,0,0,0,0,0,0,0,0],"sum_hessian":[1.280355E1,1.0248205E1,2.5553446E0,7.1061406E0,3.1420646E0,1.5541033E0,1.0012413E0,3.0412066E0,4.064934E0,2.0869997E0,1.0550649E0,1.1851043E0,1.8561023E0,3.0435987E0,1.0213352E0],"tree_param":{"num_deleted":"0","num_feature":"197","num_nodes":"15","size_leaf_vector":"1"}},{"base_weights":[-3.287222E-2,-3.0365458E-1,2.1381968E-1,6.778241E-2,-5.0985914E-1,-9.746236E-2,4.6446076E-1,-2.7149505E-4,-2.1206598E-1,-3.7499085E-2,6.287733E-1,2.3113109E-1,2.3613771E-2],"categories":[],"categories_nodes":[],"categories_segments":[],"categories_sizes":[],"default_left":[0,0,0,0,0,0,0,0,0,0,0,0,0],"id":13,"left_children":[1,3,5,-1,7,-1,9,-1,-1,-1,11,-1,-1],"loss_changes":[9.22804E-1,8.289098E-1,1.1374724E0,0E0,5.018567E-1,0E0,6.014534E-1,0E0,0E0,0E0,2.8123915E-1,0E0,0E0],"parents":[2147483647,0,0,1,1,2,2,4,4,6,6,10,10],"right_children":[2,4,6,-1,8,-1,10,-1,-1,-1,12,-1,-1],"split_conditions":[-8.7876655E-2,-6.5049154E-1,-8.094915E-1,6.778241E-2,-4.5688543E-1,-9.746236E-2,-9.0313196E-1,-2.7149505E-4,-2.1206598E-1,-3.7499085E-2,6.7002356E-1,2.3113109E-1,2.3613771E-2],"split_indices":[175,178,96,0,74,0,17,0,0,0,35,0,0],"split_type":[0,0,0,0,0,0,0,0,0,0,0,0,0],"sum_hessian":[1.1842501E1,5.5355144E0,6.306986E0,1.5244778E0,4.0110364E0,1.9086391E0,4.398347E0,1.3997769E0,2.6112597E0,1.0109437E0,3.3874032E0,2.3750808E0,1.0123223E0],"tree_param":{"num_deleted":"0","num_feature":"197","num_nodes":"13","size_leaf_vector":"1"}},{"base_weights":[-2.560638E-2,-3.9771986E-1,1.2526974E-1,9.791885E-3,-1.8062548E-1,-2.9838926E-1,3.3366024E-1,-1.7075674E-1,4.2546593E-2,-1.0749033E-1,5.70565E-1,-1.054445E-1,5.700761E-2,1.0643087E-3,2.1967466E-1],"categories":[],"categories_nodes":[],"categories_segments":[],"categories_sizes":[],"default_left":[0,0,0,0,0,0,0,0,0,0,0,0,0,0,0],"id":14,"left_children":[1,3,5,-1,-1,7,9,-1,-1,11,13,-1,-1,-1,-1],"loss_changes":[7.2423923E-1,3.4550643E-1,9.212872E-1,0E0,0E0,5.0947595E-1,7.626865E-1,0E0,0E0,2.9807842E-1,4.1221452E-1,0E0,0E0,0E0,0E0],"parents":[2147483647,0,0,1,1,2,2,5,5,6,6,9,9,10,10],"right_children":[2,4,6,-1,-1,8,10,-1,-1,12,14,-1,-1,-1,-1],"split_conditions":[-8.485858E-1,-6.7232937E-1,-6.2569296E-1,9.791885E-3,-1.8062548E-1,2.902787E-1,-7.096958E-1,-1.7075674E-1,4.2546593E-2,-9.282895E-1,-6.523456E-1,-1.054445E-1,5.700761E-2,1.0643087E-3,2.1967466E-1],"split_indices":[18,34,54,0,0,171,176,0,0,192,125,0,0,0,0],"split_type":[0,0,0,0,0,0,0,0,0,0,0,0,0,0,0],"sum_hessian":[1.1012478E1,2.7049797E0,8.307498E0,1.1414855E0,1.5634941E0,2.59664E0,5.7108583E0,1.4262677E0,1.1703724E0,2.1861696E0,3.5246887E0,1.1014702E0,1.0846994E0,1.0088042E0,2.5158844E0],"tree_param":{"num_deleted":"0","num_feature":"197","num_nodes":"15","size_leaf_vector":"1"}},{"base_weights":[-2.9305845E-2,1.7015062E-1,-2.7945185E-1,4.4303283E-1,-1.2929553E-1,-1.6848354E-1,3.6813058E-2,7.2011678E-3,1.8673661E-1,-1.17438026E-1,6.510252E-2,-9.317841E-2,1.0647218E-1],"categories":[],"categories_nodes":[],"categories_segments":[],"categories_sizes":[],"default_left":[0,0,0,0,0,0,0,0,0,0,0,0,0],"id":15,"left_children":[1,3,5,7,9,-1,11,-1,-1,-1,-1,-1,-1],"loss_changes":[6.063294E-1,6.1723626E-1,4.978152E-1,2.7160192E-1,4.518617E-1,0E0,4.9254245E-1,0E0,0E0,0E0,0E0,0E0,0E0],"parents":[2147483647,0,0,1,1,2,2,3,3,4,4,6,6],"right_children":[2,4,6,8,10,-1,12,-1,-1,-1,-1,-1,-1],"split_conditions":[3.0457398E-1,-1.776384E-2,-8.7876655E-2,-7.271626E-1,-5.3423405E-1,-1.6848354E-1,-2.4646115E-1,7.2011678E-3,1.8673661E-1,-1.17438026E-1,6.510252E-2,-9.317841E-2,1.0647218E-1],"split_indices":[68,178,175,37,111,0,185,0,0,0,0,0,0],"split_type":[0,0,0,0,0,0,0,0,0,0,0,0,0],"sum_hessian":[1.0199524E1,5.852649E0,4.3468747E0,2.8112648E0,3.0413842E0,1.8873165E0,2.459558E0,1.1827705E0,1.6284944E0,1.6567615E0,1.3846228E0,1.1868795E0,1.2726785E0],"tree_param":{"num_deleted":"0","num_feature":"197","num_nodes":"13","size_leaf_vector":"1"}},{"base_weights":[-2.2589711E-2,-3.5895103E-1,1.2953533E-1,1.43826185E-2,-1.6220923E-1,-1.6386954E-1,3.2059258E-1,-1.2322664E-1,6.2612966E-2,4.6813402E-1,-3.544977E-2,4.7500693E-4,1.8775408E-1],"categories":[],"categories_nodes":[],"categories_segments":[],"categories_sizes":[],"default_left":[0,0,0,0,0,0,0,0,0,0,0,0,0],"id":16,"left_children":[1,3,5,-1,-1,7,9,-1,-1,11,-1,-1,-1],"loss_changes":[5.88581E-1,2.8951243E-1,5.0265306E-1,0E0,0E0,4.3788183E-1,3.920198E-1,0E0,0E0,3.0024236E-1,0E0,0E0,0E0],"parents":[2147483647,0,0,1,1,2,2,5,5,6,6,9,9],"right_children":[2,4,6,-1,-1,8,10,-1,-1,12,-1,-1,-1],"split_conditions":[-7.3474926E-1,-4.5784816E-1,-3.0368587E-1,1.43826185E-2,-1.6220923E-1,-2.4199453E-1,5.742187E-1,-1.2322664E-1,6.2612966E-2,-1.2360868E0,-3.544977E-2,4.7500693E-4,1.8775408E-1],"split_indices":[54,41,110,0,0,102,118,0,0,68,0,0,0],"split_type":[0,0,0,0,0,0,0,0,0,0,0,0,0],"sum_hessian":[9.594E0,2.5643737E0,7.029626E0,1.0190787E0,1.5452951E0,2.8283918E0,4.2012343E0,1.639518E0,1.1888738E0,3.0938969E0,1.1073371E0,1.0368116E0,2.0570853E0],"tree_param":{"num_deleted":"0","num_feature":"197","num_nodes":"13","size_leaf_vector":"1"}},{"base_weights":[-2.1493735E-2,9.905467E-2,-1.2125188E-1,-9.549145E-2,2.3913056E-1,4.3169135E-1,-6.348532E-2,6.00593E-1,-3.8717676E-2,3.8295094E-2,2.1630512E-1],"categories":[],"categories_nodes":[],"categories_segments":[],"categories_sizes":[],"default_left":[0,0,0,0,0,0,0,0,0,0,0],"id":17,"left_children":[1,3,-1,-1,5,7,-1,9,-1,-1,-1],"loss_changes":[5.0354886E-1,5.69765E-1,0E0,0E0,6.8964976E-1,5.661052E-1,0E0,1.4383376E-1,0E0,0E0,0E0],"parents":[2147483647,0,0,1,1,4,4,5,5,7,7],"right_children":[2,4,-1,-1,6,8,-1,10,-1,-1,-1],"split_conditions":[1.203759E0,-9.3489856E-1,-1.2125188E-1,-9.549145E-2,7.487255E-1,9.1093117E-1,-6.348532E-2,-5.380523E-1,-3.8717676E-2,3.8295094E-2,2.1630512E-1],"split_indices":[35,17,0,0,17,46,0,88,0,0,0],"split_type":[0,0,0,0,0,0,0,0,0,0,0],"sum_hessian":[9.0476885E0,7.443921E0,1.6037673E0,1.5508254E0,5.893096E0,4.158747E0,1.7343489E0,3.141465E0,1.017282E0,1.0556414E0,2.0858235E0],"tree_param":{"num_deleted":"0","num_feature":"197","num_nodes":"11","size_leaf_vector":"1"}},{"base_weights":[-1.9276697E-2,-3.228571E-1,1.2839958E-1,-2.405045E-3,-1.465384E-1,-6.923763E-2,1.4025609E-1,9.832489E-2,-2.4392141E-1,-4.347568E-1,4.0213462E-2,-3.896969E-2,-1.5692121E-1],"categories":[],"categories_nodes":[],"categories_segments":[],"categories_sizes":[],"default_left":[0,0,0,0,0,0,0,0,0,0,0,0,0],"id":18,"left_children":[1,3,5,-1,-1,7,-1,-1,9,11,-1,-1,-1],"loss_changes":[4.680879E-1,1.7329451E-1,5.094072E-1,0E0,0E0,4.521889E-1,0E0,0E0,3.6849892E-1,1.534313E-2,0E0,0E0,0E0],"parents":[2147483647,0,0,1,1,2,2,5,5,8,8,9,9],"right_children":[2,4,6,-1,-1,8,-1,-1,10,12,-1,-1,-1],"split_conditions":[-4.467739E-1,9.6254224E-1,3.5450882E-1,-2.405045E-3,-1.465384E-1,-6.4224446E-1,1.4025609E-1,9.832489E-2,-2.8137192E-1,-6.1788815E-1,4.0213462E-2,-3.896969E-2,-1.5692121E-1],"split_indices":[10,115,175,0,0,180,0,0,47,135,0,0,0],"split_type":[0,0,0,0,0,0,0,0,0,0,0,0,0],"sum_hessian":[8.516345E0,2.3988152E0,6.11753E0,1.1882224E0,1.2105926E0,4.367824E0,1.749706E0,1.0669112E0,3.3009129E0,2.0936E0,1.2073127E0,1.0252692E0,1.068331E0],"tree_param":{"num_deleted":"0","num_feature":"197","num_nodes":"13","size_leaf_vector":"1"}},{"base_weights":[-2.1943245E-2,-2.5153932E-1,1.6536361E-1,-1.4265488E-1,3.4149315E-2,1.2850668E-1,-5.0507467E-2,7.3303916E-2,-7.782356E-2],"categories":[],"categories_nodes":[],"categories_segments":[],"categories_sizes":[],"default_left":[0,0,0,0,0,0,0,0,0],"id":19,"left_children":[1,3,5,-1,-1,-1,7,-1,-1],"loss_changes":[4.3238553E-1,4.2069125E-1,3.4000233E-1,0E0,0E0,0E0,3.0819E-1,0E0,0E0],"parents":[2147483647,0,0,1,1,2,2,6,6],"right_children":[2,4,6,-1,-1,-1,8,-1,-1],"split_conditions":[-3.1190947E-1,1.0219408E0,-1.079534E-1,-1.4265488E-1,3.4149315E-2,1.2850668E-1,-8.432698E-1,7.3303916E-2,-7.782356E-2],"split_indices":[97,92,178,0,0,0,83,0,0],"split_type":[0,0,0,0,0,0,0,0,0],"sum_hessian":[8.087101E0,3.4793158E0,4.607785E0,1.9701338E0,1.5091821E0,1.6334589E0,2.9743264E0,1.1630733E0,1.8112532E0],"tree_param":{"num_deleted":"0","num_feature":"197","num_nodes":"9","size_leaf_vector":"1"}},{"base_weights":[-1.4504307E-2,-2.849179E-1,1.305308E-1,1.4995432E-2,-1.4038952E-1,2.8142712E-1,-6.5157436E-2,-4.614657E-2,4.7674155E-1,1.7056774E-1,3.9967716E-2],"categories":[],"categories_nodes":[],"categories_segments":[],"categories_sizes":[],"default_left":[0,0,0,0,0,0,0,0,0,0,0],"id":20,"left_children":[1,3,5,-1,-1,7,-1,-1,9,-1,-1],"loss_changes":[3.8064688E-1,2.3006824E-1,3.961912E-1,0E0,0E0,4.8894247E-1,0E0,0E0,3.8384974E-2,0E0,0E0],"parents":[2147483647,0,0,1,1,2,2,5,5,8,8],"right_children":[2,4,6,-1,-1,8,-1,-1,10,-1,-1],"split_conditions":[-6.880966E-1,-2.776285E-1,1.0616966E0,1.4995432E-2,-1.4038952E-1,-6.866193E-1,-6.5157436E-2,-4.614657E-2,-2.764761E-1,1.7056774E-1,3.9967716E-2],"split_indices":[18,172,87,0,0,87,0,0,155,0,0],"split_type":[0,0,0,0,0,0,0,0,0,0,0],"sum_hessian":[7.7572927E0,2.371405E0,5.385888E0,1.0949734E0,1.2764314E0,3.888921E0,1.4969671E0,1.2703794E0,2.6185415E0,1.5493116E0,1.0692298E0],"tree_param":{"num_deleted":"0","num_feature":"197","num_nodes":"11","size_leaf_vector":"1"}},{"base_weights":[-1.2682019E-2,-2.1303107E-1,1.9164312E-1,4.9252395E-2,-3.8726982E-1,-6.4180516E-2,3.8102317E-1,-1.4467295E-1,-2.5456274E-2,6.6441046E-3,1.5422052E-1],"categories":[],"categories_nodes":[],"categories_segments":[],"categories_sizes":[],"default_left":[0,0,0,0,0,0,0,0,0,0,0],"id":21,"left_children":[1,3,5,-1,7,-1,9,-1,-1,-1,-1],"loss_changes":[3.8544726E-1,3.7407026E-1,4.420762E-1,0E0,6.0443223E-2,0E0,1.5857649E-1,0E0,0E0,0E0,0E0],"parents":[2147483647,0,0,1,1,2,2,4,4,6,6],"right_children":[2,4,6,-1,8,-1,10,-1,-1,-1,-1],"split_conditions":[7.55357E-2,-6.165389E-1,-8.094915E-1,4.9252395E-2,3.6458296E-1,-6.4180516E-2,-4.9834946E-1,-1.4467295E-1,-2.5456274E-2,6.6441046E-3,1.5422052E-1],"split_indices":[175,129,96,0,174,0,67,0,0,0,0],"split_type":[0,0,0,0,0,0,0,0,0,0,0],"sum_hessian":[7.418468E0,3.7241654E0,3.6943026E0,1.1949672E0,2.5291982E0,1.1346549E0,2.5596478E0,1.4722139E0,1.0569843E0,1.0077649E0,1.5518829E0],"tree_param":{"num_deleted":"0","num_feature":"197","num_nodes":"11","size_leaf_vector":"1"}},{"base_weights":[-1.1903837E-2,1.4548023E-1,-2.7423465E-1,3.1589133E-1,-5.9330326E-2,-1.201676E-1,3.9785276E-3,-1.8578269E-2,4.5901933E-1,4.13951E-2,1.6362251E-1],"categories":[],"categories_nodes":[],"categories_segments":[],"categories_sizes":[],"default_left":[0,0,0,0,0,0,0,0,0,0,0],"id":22,"left_children":[1,3,5,7,-1,-1,-1,-1,9,-1,-1],"loss_changes":[3.7451833E-1,3.9700148E-1,1.2827528E-1,2.5591198E-1,0E0,0E0,0E0,0E0,1.2654722E-2,0E0,0E0],"parents":[2147483647,0,0,1,1,2,2,3,3,8,8],"right_children":[2,4,6,8,-1,-1,-1,-1,10,-1,-1],"split_conditions":[4.031626E-1,3.6696908E-1,1.4683044E-1,-7.993753E-1,-5.9330326E-2,-1.201676E-1,3.9785276E-3,-1.8578269E-2,-4.62807E-1,4.13951E-2,1.6362251E-1],"split_indices":[74,118,189,192,0,0,0,0,22,0,0],"split_type":[0,0,0,0,0,0,0,0,0,0,0],"sum_hessian":[7.104855E0,4.7190914E0,2.3857634E0,3.2067482E0,1.5123434E0,1.3842626E0,1.0015007E0,1.0369117E0,2.1698365E0,1.0107949E0,1.1590416E0],"tree_param":{"num_deleted":"0","num_feature":"197","num_nodes":"11","size_leaf_vector":"1"}},{"base_weights":[-6.326966E-3,-8.214463E-2,1.1903798E-1,-8.860886E-2,3.1880212E-1,-8.8577695E-2,5.7941522E-2,1.3327378E-1,4.8745037E-3],"categories":[],"categories_nodes":[],"categories_segments":[],"categories_sizes":[],"default_left":[0,0,0,0,0,0,0,0,0],"id":23,"left_children":[1,-1,3,5,7,-1,-1,-1,-1],"loss_changes":[2.956103E-1,0E0,2.7868286E-1,2.7494362E-1,1.1782351E-1,0E0,0E0,0E0,0E0],"parents":[2147483647,0,0,2,2,3,3,4,4],"right_children":[2,-1,4,6,8,-1,-1,-1,-1],"split_conditions":[-7.3474926E-1,-8.214463E-2,6.685242E-2,1.1098905E-1,2.9253718E-1,-8.8577695E-2,5.7941522E-2,1.3327378E-1,4.8745037E-3],"split_indices":[54,0,9,160,46,0,0,0,0],"split_type":[0,0,0,0,0,0,0,0,0],"sum_hessian":[6.843336E0,1.8059255E0,5.0374107E0,2.742806E0,2.2946045E0,1.5546079E0,1.1881981E0,1.29101E0,1.0035945E0],"tree_param":{"num_deleted":"0","num_feature":"197","num_nodes":"9","size_leaf_vector":"1"}},{"base_weights":[-7.4094365E-4,-2.0343456E-1,1.8038695E-1,2.6604647E-2,-1.3097815E-1,-6.538269E-2,3.757734E-1,1.447696E-1,1.759043E-2],"categories":[],"categories_nodes":[],"categories_segments":[],"categories_sizes":[],"default_left":[0,0,0,0,0,0,0,0,0],"id":24,"left_children":[1,3,5,-1,-1,-1,7,-1,-1],"loss_changes":[3.1661868E-1,3.1579018E-1,4.365185E-1,0E0,0E0,0E0,8.7670356E-2,0E0,0E0],"parents":[2147483647,0,0,1,1,2,2,6,6],"right_children":[2,4,6,-1,-1,-1,8,-1,-1],"split_conditions":[-8.7876655E-2,-1.4963719E-1,-8.094915E-1,2.6604647E-2,-1.3097815E-1,-6.538269E-2,6.484972E-1,1.447696E-1,1.759043E-2],"split_indices":[175,74,96,0,0,0,35,0,0],"split_type":[0,0,0,0,0,0,0,0,0],"sum_hessian":[6.624497E0,3.0680263E0,3.5564709E0,1.636884E0,1.4311423E0,1.1324115E0,2.4240594E0,1.4231961E0,1.0008633E0],"tree_param":{"num_deleted":"0","num_feature":"197","num_nodes":"9","size_leaf_vector":"1"}},{"base_weights":[-1.2232792E-3,-8.134177E-2,1.14431374E-1,-5.186521E-2,2.744578E-1,1.3703975E-1,-2.3426155E-2],"categories":[],"categories_nodes":[],"categories_segments":[],"categories_sizes":[],"default_left":[0,0,0,0,0,0,0],"id":25,"left_children":[1,-1,3,-1,5,-1,-1],"loss_changes":[2.606087E-1,0E0,3.1649438E-1,0E0,3.0211174E-1,0E0,0E0],"parents":[2147483647,0,0,2,2,4,4],"right_children":[2,-1,4,-1,6,-1,-1],"split_conditions":[-8.485858E-1,-8.134177E-2,-3.1190947E-1,-5.186521E-2,7.838763E-1,1.3703975E-1,-2.3426155E-2],"split_indices":[18,0,97,0,85,0,0],"split_type":[0,0,0,0,0,0,0],"sum_hessian":[6.354378E0,1.5027827E0,4.8515954E0,1.7068065E0,3.144789E0,1.8778297E0,1.2669593E0],"tree_param":{"num_deleted":"0","num_feature":"197","num_nodes":"7","size_leaf_vector":"1"}},{"base_weights":[-2.4820182E-3,1.0338555E-1,-8.757001E-2,2.4945922E-1,-5.7018027E-2,-1.6448217E-2,1.4476342E-1],"categories":[],"categories_nodes":[],"categories_segments":[],"categories_sizes":[],"default_left":[0,0,0,0,0,0,0],"id":26,"left_children":[1,3,-1,5,-1,-1,-1],"loss_changes":[2.4892604E-1,3.0312842E-1,0E0,3.396186E-1,0E0,0E0,0E0],"parents":[2147483647,0,0,1,1,3,3],"right_children":[2,4,-1,6,-1,-1,-1],"split_conditions":[8.7181246E-1,6.309014E-1,-8.757001E-2,-6.255051E-1,-5.7018027E-2,-1.6448217E-2,1.4476342E-1],"split_indices":[74,45,0,15,0,0,0],"split_type":[0,0,0,0,0,0,0],"sum_hessian":[6.1392927E0,4.9656615E0,1.1736313E0,3.4154088E0,1.5502527E0,1.8131578E0,1.6022509E0],"tree_param":{"num_deleted":"0","num_feature":"197","num_nodes":"7","size_leaf_vector":"1"}},{"base_weights":[-2.9944067E-3,-1.7179629E-1,1.6694768E-1,-9.709826E-2,3.7305098E-2,-2.4801625E-2,1.1265365E-1],"categories":[],"categories_nodes":[],"categories_segments":[],"categories_sizes":[],"default_left":[0,0,0,0,0,0,0],"id":27,"left_children":[1,3,5,-1,-1,-1,-1],"loss_changes":[2.2771479E-1,2.1895826E-1,2.3744836E-1,0E0,0E0,0E0,0E0],"parents":[2147483647,0,0,1,1,2,2],"right_children":[2,4,6,-1,-1,-1,-1],"split_conditions":[7.55357E-2,6.6055244E-1,2.5189884E-2,-9.709826E-2,3.7305098E-2,-2.4801625E-2,1.1265365E-1],"split_indices":[175,108,189,0,0,0,0],"split_type":[0,0,0,0,0,0,0],"sum_hessian":[5.9382286E0,2.9736342E0,2.9645941E0,1.9042326E0,1.0694016E0,1.6242405E0,1.3403536E0],"tree_param":{"num_deleted":"0","num_feature":"197","num_nodes":"7","size_leaf_vector":"1"}},{"base_weights":[2.1711623E-3,1.5019073E-1,-1.9104728E-1,-4.8137344E-2,3.2378444E-1,-1.1175288E-1,2.4021186E-2,1.4821082E-1,4.158981E-3],"categories":[],"categories_nodes":[],"categories_segments":[],"categories_sizes":[],"default_left":[0,0,0,0,0,0,0,0,0],"id":28,"left_children":[1,3,5,-1,7,-1,-1,-1,-1],"loss_changes":[2.2263865E-1,2.892099E-1,1.9619699E-1,0E0,1.5955853E-1,0E0,0E0,0E0,0E0],"parents":[2147483647,0,0,1,1,2,2,4,4],"right_children":[2,4,6,-1,8,-1,-1,-1,-1],"split_conditions":[3.0457398E-1,-7.9695547E-1,1.0604846E0,-4.8137344E-2,-1.0993672E-1,-1.1175288E-1,2.4021186E-2,1.4821082E-1,4.158981E-3],"split_indices":[68,76,109,0,157,0,0,0,0],"split_type":[0,0,0,0,0,0,0,0,0],"sum_hessian":[5.781272E0,3.3996098E0,2.3816621E0,1.2458367E0,2.1537728E0,1.2027029E0,1.1789591E0,1.0066897E0,1.1470833E0],"tree_param":{"num_deleted":"0","num_feature":"197","num_nodes":"9","size_leaf_vector":"1"}},{"base_weights":[4.8027537E-3,-7.629427E-2,1.0504934E-1,-1.2781483E-1,3.0699798E-1,4.322277E-2,-1.0992684E-1,6.2382245E-3,1.345244E-1],"categories":[],"categories_nodes":[],"categories_segments":[],"categories_sizes":[],"default_left":[0,0,0,0,0,0,0,0,0],"id":29,"left_children":[1,-1,3,5,7,-1,-1,-1,-1],"loss_changes":[1.9757996E-1,0E0,2.9556316E-1,2.6283205E-1,1.2072009E-1,0E0,0E0,0E0,0E0],"parents":[2147483647,0,0,2,2,3,3,4,4],"right_children":[2,-1,4,6,8,-1,-1,-1,-1],"split_conditions":[-9.3489856E-1,-7.629427E-2,-8.7876655E-2,6.3967034E-2,-2.4565456E-2,4.322277E-2,-1.0992684E-1,6.2382245E-3,1.345244E-1],"split_indices":[17,0,175,109,96,0,0,0,0],"split_type":[0,0,0,0,0,0,0,0,0],"sum_hessian":[5.577882E0,1.1272594E0,4.4506226E0,2.2375858E0,2.2130368E0,1.2310275E0,1.0065583E0,1.111198E0,1.1018388E0],"tree_param":{"num_deleted":"0","num_feature":"197","num_nodes":"9","size_leaf_vector":"1"}},{"base_weights":[3.5276378E-3,9.973445E-2,-7.577307E-2,-4.1852996E-2,2.3582241E-1,1.2540545E-1,-2.3295313E-2],"categories":[],"categories_nodes":[],"categories_segments":[],"categories_sizes":[],"default_left":[0,0,0,0,0,0,0],"id":30,"left_children":[1,3,-1,-1,5,-1,-1],"loss_changes":[1.820396E-1,2.0690547E-1,0E0,0E0,2.4825463E-1,0E0,0E0],"parents":[2147483647,0,0,1,1,4,4],"right_children":[2,4,-1,-1,6,-1,-1],"split_conditions":[8.7181246E-1,-5.422413E-1,-7.577307E-2,-4.1852996E-2,-2.9385024E-1,1.2540545E-1,-2.3295313E-2],"split_indices":[74,148,0,0,132,0,0],"split_type":[0,0,0,0,0,0,0],"sum_hessian":[5.3658824E0,4.344444E0,1.0214386E0,1.5660905E0,2.7783535E0,1.5461831E0,1.2321702E0],"tree_param":{"num_deleted":"0","num_feature":"197","num_nodes":"7","size_leaf_vector":"1"}},{"base_weights":[9.0538146E-4,-7.125709E-2,1.127069E-1,-3.4117833E-2,2.567288E-1,-3.400529E-3,1.2269418E-1],"categories":[],"categories_nodes":[],"categories_segments":[],"categories_sizes":[],"default_left":[0,0,0,0,0,0,0],"id":31,"left_children":[1,-1,3,-1,5,-1,-1],"loss_changes":[1.9243172E-1,0E0,1.8928434E-1,0E0,1.396251E-1,0E0,0E0],"parents":[2147483647,0,0,2,2,4,4],"right_children":[2,-1,4,-1,6,-1,-1],"split_conditions":[-7.3474926E-1,-7.125709E-2,-3.0368587E-1,-3.4117833E-2,-7.271626E-1,-3.400529E-3,1.2269418E-1],"split_indices":[54,0,110,0,37,0,0],"split_type":[0,0,0,0,0,0,0],"sum_hessian":[5.2146106E0,1.3056521E0,3.9089582E0,1.6014673E0,2.307491E0,1.1711109E0,1.1363802E0],"tree_param":{"num_deleted":"0","num_feature":"197","num_nodes":"7","size_leaf_vector":"1"}},{"base_weights":[3.6360712E-3,-1.14108264E-1,6.011894E-2,-1.1119023E-1,8.753779E-2,-4.492594E-2,8.6335E-2],"categories":[],"categories_nodes":[],"categories_segments":[],"categories_sizes":[],"default_left":[0,0,0,0,0,0,0],"id":32,"left_children":[1,3,-1,-1,5,-1,-1],"loss_changes":[1.6384776E-1,2.6233506E-1,0E0,0E0,1.997697E-1,0E0,0E0],"parents":[2147483647,0,0,1,1,4,4],"right_children":[2,4,-1,-1,6,-1,-1],"split_conditions":[3.0642924E-1,-4.9834946E-1,6.011894E-2,-1.1119023E-1,7.55357E-2,-4.492594E-2,8.6335E-2],"split_indices":[171,67,0,0,175,0,0],"split_type":[0,0,0,0,0,0,0],"sum_hessian":[5.0853066E0,3.4442694E0,1.6410371E0,1.1470267E0,2.2972429E0,1.1667714E0,1.1304713E0],"tree_param":{"num_deleted":"0","num_feature":"197","num_nodes":"7","size_leaf_vector":"1"}},{"base_weights":[7.4672187E-4,-6.904494E-2,9.4516076E-2,2.2437343E-1,-4.8169415E-2,-2.3517665E-3,1.0716721E-1],"categories":[],"categories_nodes":[],"categories_segments":[],"categories_sizes":[],"default_left":[0,0,0,0,0,0,0],"id":33,"left_children":[1,-1,3,5,-1,-1,-1],"loss_changes":[1.5033422E-1,0E0,1.9940981E-1,1.16500586E-1,0E0,0E0,0E0],"parents":[2147483647,0,0,2,2,3,3],"right_children":[2,-1,4,6,-1,-1,-1],"split_conditions":[-9.3489856E-1,-6.904494E-2,7.487255E-1,-1.2594515E-1,-4.8169415E-2,-2.3517665E-3,1.0716721E-1],"split_indices":[17,0,17,10,0,0,0],"split_type":[0,0,0,0,0,0,0],"sum_hessian":[4.938814E0,1.0063546E0,3.9324596E0,2.6856322E0,1.2468275E0,1.319769E0,1.3658631E0],"tree_param":{"num_deleted":"0","num_feature":"197","num_nodes":"7","size_leaf_vector":"1"}},{"base_weights":[-1.0637065E-3,4.9822807E-2,-1.286544E-1,-8.3066605E-2,3.3114094E-2],"categories":[],"categories_nodes":[],"categories_segments":[],"categories_sizes":[],"default_left":[0,0,0,0,0],"id":34,"left_children":[1,-1,3,-1,-1],"loss_changes":[1.4551425E-1,0E0,1.675072E-1,0E0,0E0],"parents":[2147483647,0,0,2,2],"right_children":[2,-1,4,-1,-1],"split_conditions":[-3.9309564E-1,4.9822807E-2,3.907841E-2,-8.3066605E-2,3.3114094E-2],"split_indices":[150,0,32,0,0],"split_type":[0,0,0,0,0],"sum_hessian":[4.821574E0,1.9567125E0,2.8648615E0,1.6705376E0,1.1943239E0],"tree_param":{"num_deleted":"0","num_feature":"197","num_nodes":"5","size_leaf_vector":"1"}},{"base_weights":[-9.821624E-4,-6.0709637E-2,1.1028687E-1,-2.8151501E-2,9.40462E-2],"categories":[],"categories_nodes":[],"categories_segments":[],"categories_sizes":[],"default_left":[0,0,0,0,0],"id":35,"left_children":[1,-1,3,-1,-1],"loss_changes":[1.5126355E-1,0E0,2.1000555E-1,0E0,0E0],"parents":[2147483647,0,0,2,2],"right_children":[2,-1,4,-1,-1],"split_conditions":[-6.880966E-1,-6.0709637E-2,-2.2071424E-1,-2.8151501E-2,9.40462E-2],"split_indices":[18,0,47,0,0],"split_type":[0,0,0,0,0],"sum_hessian":[4.7545033E0,1.4007015E0,3.3538017E0,1.941582E0,1.4122198E0],"tree_param":{"num_deleted":"0","num_feature":"197","num_nodes":"5","size_leaf_vector":"1"}},{"base_weights":[5.7038205E-4,-6.062462E-2,9.80771E-2,-5.984585E-2,8.5642815E-2,5.4983187E-2,-8.0563E-2],"categories":[],"categories_nodes":[],"categories_segments":[],"categories_sizes":[],"default_left":[0,0,0,0,0,0,0],"id":36,"left_children":[1,-1,3,5,-1,-1,-1],"loss_changes":[1.3180086E-1,0E0,1.5024169E-1,2.150544E-1,0E0,0E0,0E0],"parents":[2147483647,0,0,2,2,3,3],"right_children":[2,-1,4,6,-1,-1,-1],"split_conditions":[-7.3474926E-1,-6.062462E-2,1.5996167E-1,-2.9565355E-1,8.5642815E-2,5.4983187E-2,-8.0563E-2],"split_indices":[54,0,33,132,0,0,0],"split_type":[0,0,0,0,0,0,0],"sum_hessian":[4.6670737E0,1.1676995E0,3.4993742E0,2.2684112E0,1.230963E0,1.1040485E0,1.1643625E0],"tree_param":{"num_deleted":"0","num_feature":"197","num_nodes":"7","size_leaf_vector":"1"}},{"base_weights":[3.8465348E-4,-1.0934886E-1,5.5645246E-2,-7.908138E-2,3.6945984E-2],"categories":[],"categories_nodes":[],"categories_segments":[],"categories_sizes":[],"default_left":[0,0,0,0,0],"id":37,"left_children":[1,3,-1,-1,-1],"loss_changes":[1.3293284E-1,1.7990471E-1,0E0,0E0,0E0],"parents":[2147483647,0,0,1,1],"right_children":[2,4,-1,-1,-1],"split_conditions":[3.5950425E-1,-1.8579027E-1,5.5645246E-2,-7.908138E-2,3.6945984E-2],"split_indices":[175,47,0,0,0],"split_type":[0,0,0,0,0],"sum_hessian":[4.546105E0,3.1110232E0,1.4350816E0,1.7897946E0,1.3212286E0],"tree_param":{"num_deleted":"0","num_feature":"197","num_nodes":"5","size_leaf_vector":"1"}},{"base_weights":[2.562695E-3,1.3576746E-1,-5.0173238E-2,-3.1098524E-2,8.022696E-2],"categories":[],"categories_nodes":[],"categories_segments":[],"categories_sizes":[],"default_left":[0,0,0,0,0],"id":38,"left_children":[1,3,-1,-1,-1],"loss_changes":[1.465241E-1,1.4181867E-1,0E0,0E0,0E0],"parents":[2147483647,0,0,1,1],"right_children":[2,4,-1,-1,-1],"split_conditions":[3.0457398E-1,-7.9695547E-1,-5.0173238E-2,-3.1098524E-2,8.022696E-2],"split_indices":[68,76,0,0,0],"split_type":[0,0,0,0,0],"sum_hessian":[4.474043E0,2.6195774E0,1.8544655E0,1.0048274E0,1.6147501E0],"tree_param":{"num_deleted":"0","num_feature":"197","num_nodes":"5","size_leaf_vector":"1"}},{"base_weights":[1.8902023E-3,-1.1652162E-1,5.205331E-2,3.7927613E-2,-8.825049E-2],"categories":[],"categories_nodes":[],"categories_segments":[],"categories_sizes":[],"default_left":[0,0,0,0,0],"id":39,"left_children":[1,3,-1,-1,-1],"loss_changes":[1.2998977E-1,2.0095877E-1,0E0,0E0,0E0],"parents":[2147483647,0,0,1,1],"right_children":[2,4,-1,-1,-1],"split_conditions":[2.505948E-1,-3.9835286E-1,5.205331E-2,3.7927613E-2,-8.825049E-2],"split_indices":[174,135,0,0,0],"split_type":[0,0,0,0,0],"sum_hessian":[4.401651E0,2.7945619E0,1.6070892E0,1.3021258E0,1.4924359E0],"tree_param":{"num_deleted":"0","num_feature":"197","num_nodes":"5","size_leaf_vector":"1"}},{"base_weights":[1.3716773E-3,-1.16710715E-1,5.033924E-2,-8.318943E-2,2.4269704E-2],"categories":[],"categories_nodes":[],"categories_segments":[],"categories_sizes":[],"default_left":[0,0,0,0,0],"id":40,"left_children":[1,3,-1,-1,-1],"loss_changes":[1.2416901E-1,1.3993841E-1,0E0,0E0,0E0],"parents":[2147483647,0,0,1,1],"right_children":[2,4,-1,-1,-1],"split_conditions":[-9.49969E-2,5.05105E-2,5.033924E-2,-8.318943E-2,2.4269704E-2],"split_indices":[126,10,0,0,0],"split_type":[0,0,0,0,0],"sum_hessian":[4.321875E0,2.7028627E0,1.6190125E0,1.2686411E0,1.4342216E0],"tree_param":{"num_deleted":"0","num_feature":"197","num_nodes":"5","size_leaf_vector":"1"}},{"base_weights":[-9.0857095E-4,-1.1139221E-1,5.2232366E-2,-7.845202E-2,3.592742E-2],"categories":[],"categories_nodes":[],"categories_segments":[],"categories_sizes":[],"default_left":[0,0,0,0,0],"id":41,"left_children":[1,3,-1,-1,-1],"loss_changes":[1.209719E-1,1.6421881E-1,0E0,0E0,0E0],"parents":[2147483647,0,0,1,1],"right_children":[2,4,-1,-1,-1],"split_conditions":[3.0642924E-1,3.7259963E-1,5.2232366E-2,-7.845202E-2,3.592742E-2],"split_indices":[171,49,0,0,0],"split_type":[0,0,0,0,0],"sum_hessian":[4.253168E0,2.830117E0,1.4230511E0,1.6362009E0,1.1939161E0],"tree_param":{"num_deleted":"0","num_feature":"197","num_nodes":"5","size_leaf_vector":"1"}},{"base_weights":[1.0166029E-3,-1.0955582E-1,5.198829E-2,-7.7587165E-2,3.762986E-2],"categories":[],"categories_nodes":[],"categories_segments":[],"categories_sizes":[],"default_left":[0,0,0,0,0],"id":42,"left_children":[1,3,-1,-1,-1],"loss_changes":[1.1768427E-1,1.6444676E-1,0E0,0E0,0E0],"parents":[2147483647,0,0,1,1],"right_children":[2,4,-1,-1,-1],"split_conditions":[3.5450882E-1,-1.8579027E-1,5.198829E-2,-7.7587165E-2,3.762986E-2],"split_indices":[175,47,0,0,0],"split_type":[0,0,0,0,0],"sum_hessian":[4.181271E0,2.7684684E0,1.4128027E0,1.6323723E0,1.1360961E0],"tree_param":{"num_deleted":"0","num_feature":"197","num_nodes":"5","size_leaf_vector":"1"}},{"base_weights":[2.8943608E-3,5.26265E-2,-9.8006E-2,-7.113212E-2,2.881499E-2],"categories":[],"categories_nodes":[],"categories_segments":[],"categories_sizes":[],"default_left":[0,0,0,0,0],"id":43,"left_children":[1,-1,3,-1,-1],"loss_changes":[1.0624629E-1,0E0,1.2722364E-1,0E0,0E0],"parents":[2147483647,0,0,2,2],"right_children":[2,-1,4,-1,-1],"split_conditions":[-7.3053014E-1,5.26265E-2,-1.563816E-1,-7.113212E-2,2.881499E-2],"split_indices":[80,0,185,0,0],"split_type":[0,0,0,0,0],"sum_hessian":[4.1156693E0,1.2462206E0,2.8694484E0,1.5421631E0,1.3272853E0],"tree_param":{"num_deleted":"0","num_feature":"197","num_nodes":"5","size_leaf_vector":"1"}},{"base_weights":[3.9640972E-3,-1.0551995E-1,4.788457E-2,3.206384E-2,-7.787292E-2],"categories":[],"categories_nodes":[],"categories_segments":[],"categories_sizes":[],"default_left":[0,0,0,0,0],"id":44,"left_children":[1,3,-1,-1,-1],"loss_changes":[1.0309294E-1,1.4466675E-1,0E0,0E0,0E0],"parents":[2147483647,0,0,1,1],"right_children":[2,4,-1,-1,-1],"split_conditions":[2.505948E-1,-3.9835286E-1,4.788457E-2,3.206384E-2,-7.787292E-2],"split_indices":[174,135,0,0,0],"split_type":[0,0,0,0,0],"sum_hessian":[4.06125E0,2.5732887E0,1.4879615E0,1.2105378E0,1.3627509E0],"tree_param":{"num_deleted":"0","num_feature":"197","num_nodes":"5","size_leaf_vector":"1"}},{"base_weights":[3.0228298E-3,-1.15916975E-1,4.33454E-2,3.4533143E-2,-8.186893E-2],"categories":[],"categories_nodes":[],"categories_segments":[],"categories_sizes":[],"default_left":[0,0,0,0,0],"id":45,"left_children":[1,3,-1,-1,-1],"loss_changes":[1.0087927E-1,1.5004846E-1,0E0,0E0,0E0],"parents":[2147483647,0,0,1,1],"right_children":[2,4,-1,-1,-1],"split_conditions":[2.5990313E-1,-4.4462812E-1,4.33454E-2,3.4533143E-2,-8.186893E-2],"split_indices":[175,35,0,0,0],"split_type":[0,0,0,0,0],"sum_hessian":[4.0002275E0,2.2712007E0,1.7290269E0,1.0267881E0,1.2444125E0],"tree_param":{"num_deleted":"0","num_feature":"197","num_nodes":"5","size_leaf_vector":"1"}},{"base_weights":[1.0853297E-3,1.1082959E-1,-4.1190382E-2,8.28734E-2,-2.7977584E-2],"categories":[],"categories_nodes":[],"categories_segments":[],"categories_sizes":[],"default_left":[0,0,0,0,0],"id":46,"left_children":[1,3,-1,-1,-1],"loss_changes":[9.020752E-2,1.3741124E-1,0E0,0E0,0E0],"parents":[2147483647,0,0,1,1],"right_children":[2,4,-1,-1,-1],"split_conditions":[3.0457398E-1,-1.776384E-2,-4.1190382E-2,8.28734E-2,-2.7977584E-2],"split_indices":[68,178,0,0,0],"split_type":[0,0,0,0,0],"sum_hessian":[3.9377632E0,2.3072128E0,1.6305505E0,1.0790662E0,1.2281466E0],"tree_param":{"num_deleted":"0","num_feature":"197","num_nodes":"5","size_leaf_vector":"1"}},{"base_weights":[3.8701133E-3,-3.9467417E-2,1.0879437E-1,6.8906076E-2,-2.4995677E-2],"categories":[],"categories_nodes":[],"categories_segments":[],"categories_sizes":[],"default_left":[0,0,0,0,0],"id":47,"left_children":[1,-1,3,-1,-1],"loss_changes":[8.366947E-2,0E0,9.572316E-2,0E0,0E0],"parents":[2147483647,0,0,2,2],"right_children":[2,-1,4,-1,-1],"split_conditions":[-3.1190947E-1,-3.9467417E-2,-2.5767067E-1,6.8906076E-2,-2.4995677E-2],"split_indices":[97,0,13,0,0],"split_type":[0,0,0,0,0],"sum_hessian":[3.8809407E0,1.5833876E0,2.297553E0,1.2901257E0,1.0074273E0],"tree_param":{"num_deleted":"0","num_feature":"197","num_nodes":"5","size_leaf_vector":"1"}},{"base_weights":[3.8267656E-3,-9.639327E-2,4.3786943E-2,2.5513297E-2,-6.786636E-2],"categories":[],"categories_nodes":[],"categories_segments":[],"categories_sizes":[],"default_left":[0,0,0,0,0],"id":48,"left_children":[1,3,-1,-1,-1],"loss_changes":[8.294963E-2,1.0022806E-1,0E0,0E0,0E0],"parents":[2147483647,0,0,1,1],"right_children":[2,4,-1,-1,-1],"split_conditions":[2.505948E-1,-3.9835286E-1,4.3786943E-2,2.5513297E-2,-6.786636E-2],"split_indices":[174,135,0,0,0],"split_type":[0,0,0,0,0],"sum_hessian":[3.8356657E0,2.4382055E0,1.3974602E0,1.1608442E0,1.2773612E0],"tree_param":{"num_deleted":"0","num_feature":"197","num_nodes":"5","size_leaf_vector":"1"}},{"base_weights":[2.873574E-3,-9.758862E-2,4.990786E-2,-6.943483E-2,3.1126536E-2],"categories":[],"categories_nodes":[],"categories_segments":[],"categories_sizes":[],"default_left":[0,0,0,0,0],"id":49,"left_children":[1,3,-1,-1,-1],"loss_changes":[9.490418E-2,1.209618E-1,0E0,0E0,0E0],"parents":[2147483647,0,0,1,1],"right_children":[2,4,-1,-1,-1],"split_conditions":[3.5950425E-1,-1.8579027E-1,4.990786E-2,-6.943483E-2,3.1126536E-2],"split_indices":[175,47,0,0,0],"split_type":[0,0,0,0,0],"sum_hessian":[3.7898579E0,2.5970473E0,1.1928105E0,1.470128E0,1.1269194E0],"tree_param":{"num_deleted":"0","num_feature":"197","num_nodes":"5","size_leaf_vector":"1"}},{"base_weights":[4.3602986E-3,1.1041155E-1,-3.8631495E-2,7.526904E-2,-2.1145701E-2],"categories":[],"categories_nodes":[],"categories_segments":[],"categories_sizes":[],"default_left":[0,0,0,0,0],"id":50,"left_children":[1,3,-1,-1,-1],"loss_changes":[8.112667E-2,9.840135E-2,0E0,0E0,0E0],"parents":[2147483647,0,0,1,1],"right_children":[2,4,-1,-1,-1],"split_conditions":[3.0457398E-1,-1.776384E-2,-3.8631495E-2,7.526904E-2,-2.1145701E-2],"split_indices":[68,178,0,0,0],"split_type":[0,0,0,0,0],"sum_hessian":[3.738983E0,2.1761498E0,1.5628331E0,1.0070862E0,1.1690636E0],"tree_param":{"num_deleted":"0","num_feature":"197","num_nodes":"5","size_leaf_vector":"1"}},{"base_weights":[6.6064233E-3,1.00803904E-1,-4.1917898E-2,-2.160596E-2,7.352712E-2],"categories":[],"categories_nodes":[],"categories_segments":[],"categories_sizes":[],"default_left":[0,0,0,0,0],"id":51,"left_children":[1,3,-1,-1,-1],"loss_changes":[7.8779526E-2,1.0333833E-1,0E0,0E0,0E0],"parents":[2147483647,0,0,1,1],"right_children":[2,4,-1,-1,-1],"split_conditions":[4.6335194E-1,-1.323442E-1,-4.1917898E-2,-2.160596E-2,7.352712E-2],"split_indices":[74,181,0,0,0],"split_type":[0,0,0,0,0],"sum_hessian":[3.693394E0,2.4362564E0,1.2571375E0,1.3363979E0,1.0998585E0],"tree_param":{"num_deleted":"0","num_feature":"197","num_nodes":"5","size_leaf_vector":"1"}},{"base_weights":[7.024384E-3,-3.4076866E-2,3.6760088E-2],"categories":[],"categories_nodes":[],"categories_segments":[],"categories_sizes":[],"default_left":[0,0,0],"id":52,"left_children":[1,-1,-1],"loss_changes":[7.867832E-2,0E0,0E0],"parents":[2147483647,0,0],"right_children":[2,-1,-1],"split_conditions":[7.55357E-2,-3.4076866E-2,3.6760088E-2],"split_indices":[175,0,0],"split_type":[0,0,0],"sum_hessian":[3.6482673E0,1.7928282E0,1.8554392E0],"tree_param":{"num_deleted":"0","num_feature":"197","num_nodes":"3","size_leaf_vector":"1"}},{"base_weights":[5.533323E-3,1.03735335E-1,-4.03129E-2,7.078205E-2,-2.4334136E-2],"categories":[],"categories_nodes":[],"categories_segments":[],"categories_sizes":[],"default_left":[0,0,0,0,0],"id":53,"left_children":[1,3,-1,-1,-1],"loss_changes":[7.753725E-2,9.939617E-2,0E0,0E0,0E0],"parents":[2147483647,0,0,1,1],"right_children":[2,4,-1,-1,-1],"split_conditions":[6.03173E-2,-4.914434E-1,-4.03129E-2,7.078205E-2,-2.4334136E-2],"split_indices":[190,136,0,0,0],"split_type":[0,0,0,0,0],"sum_hessian":[3.6288514E0,2.2841623E0,1.3446892E0,1.1705716E0,1.1135906E0],"tree_param":{"num_deleted":"0","num_feature":"197","num_nodes":"5","size_leaf_vector":"1"}},{"base_weights":[5.4176375E-3,-3.9112262E-2,1.08950615E-1,6.6253275E-2,-1.6314957E-2],"categories":[],"categories_nodes":[],"categories_segments":[],"categories_sizes":[],"default_left":[0,0,0,0,0],"id":54,"left_children":[1,-1,3,-1,-1],"loss_changes":[7.873377E-2,0E0,6.956248E-2,0E0,0E0],"parents":[2147483647,0,0,2,2],"right_children":[2,-1,4,-1,-1],"split_conditions":[-3.1190947E-1,-3.9112262E-2,4.7014114E-1,6.6253275E-2,-1.6314957E-2],"split_indices":[97,0,85,0,0],"split_type":[0,0,0,0,0],"sum_hessian":[3.5899227E0,1.4408624E0,2.1490602E0,1.0664045E0,1.0826559E0],"tree_param":{"num_deleted":"0","num_feature":"197","num_nodes":"5","size_leaf_vector":"1"}},{"base_weights":[6.3582677E-3,-8.7689325E-2,4.6795227E-2,-6.175716E-2,2.8717345E-2],"categories":[],"categories_nodes":[],"categories_segments":[],"categories_sizes":[],"default_left":[0,0,0,0,0],"id":55,"left_children":[1,3,-1,-1,-1],"loss_changes":[7.771481E-2,9.41422E-2,0E0,0E0,0E0],"parents":[2147483647,0,0,1,1],"right_children":[2,4,-1,-1,-1],"split_conditions":[2.7286923E-1,3.8421565E-1,4.6795227E-2,-6.175716E-2,2.8717345E-2],"split_indices":[188,160,0,0,0],"split_type":[0,0,0,0,0],"sum_hessian":[3.550661E0,2.434435E0,1.1162262E0,1.4061385E0,1.0282965E0],"tree_param":{"num_deleted":"0","num_feature":"197","num_nodes":"5","size_leaf_vector":"1"}},{"base_weights":[7.464155E-3,-8.6719714E-2,4.424861E-2,-7.061235E-2,3.5816673E-2],"categories":[],"categories_nodes":[],"categories_segments":[],"categories_sizes":[],"default_left":[0,0,0,0,0],"id":56,"left_children":[1,3,-1,-1,-1],"loss_changes":[7.227198E-2,1.3001172E-1,0E0,0E0,0E0],"parents":[2147483647,0,0,1,1],"right_children":[2,4,-1,-1,-1],"split_conditions":[3.0642924E-1,2.909493E-1,4.424861E-2,-7.061235E-2,3.5816673E-2],"split_indices":[171,43,0,0,0],"split_type":[0,0,0,0,0],"sum_hessian":[3.510021E0,2.3261695E0,1.1838514E0,1.2689519E0,1.0572176E0],"tree_param":{"num_deleted":"0","num_feature":"197","num_nodes":"5","size_leaf_vector":"1"}},{"base_weights":[7.2625075E-3,-4.361327E-2,9.590039E-2,7.210108E-2,-2.6897218E-2],"categories":[],"categories_nodes":[],"categories_segments":[],"categories_sizes":[],"default_left":[0,0,0,0,0],"id":57,"left_children":[1,-1,3,-1,-1],"loss_changes":[7.432063E-2,0E0,1.1336319E-1,0E0,0E0],"parents":[2147483647,0,0,2,2],"right_children":[2,-1,4,-1,-1],"split_conditions":[-6.7605984E-1,-4.361327E-2,3.0051786E-1,7.210108E-2,-2.6897218E-2],"split_indices":[18,0,18,0,0],"split_type":[0,0,0,0,0],"sum_hessian":[3.4626927E0,1.0369204E0,2.4257722E0,1.198026E0,1.2277464E0],"tree_param":{"num_deleted":"0","num_feature":"197","num_nodes":"5","size_leaf_vector":"1"}},{"base_weights":[5.6990995E-3,-9.9503055E-2,4.095003E-2,-6.66171E-2,2.1858945E-2],"categories":[],"categories_nodes":[],"categories_segments":[],"categories_sizes":[],"default_left":[0,0,0,0,0],"id":58,"left_children":[1,3,-1,-1,-1],"loss_changes":[7.435379E-2,8.0103226E-2,0E0,0E0,0E0],"parents":[2147483647,0,0,1,1],"right_children":[2,4,-1,-1,-1],"split_conditions":[6.685242E-2,-3.7766033E-1,4.095003E-2,-6.66171E-2,2.1858945E-2],"split_indices":[9,148,0,0,0],"split_type":[0,0,0,0,0],"sum_hessian":[3.416367E0,2.026084E0,1.3902833E0,1.0156566E0,1.0104272E0],"tree_param":{"num_deleted":"0","num_feature":"197","num_nodes":"5","size_leaf_vector":"1"}},{"base_weights":[3.0291202E-3,9.750013E-2,-4.108177E-2,-2.5619244E-2,6.776041E-2],"categories":[],"categories_nodes":[],"categories_segments":[],"categories_sizes":[],"default_left":[0,0,0,0,0],"id":59,"left_children":[1,3,-1,-1,-1],"loss_changes":[7.121717E-2,9.434415E-2,0E0,0E0,0E0],"parents":[2147483647,0,0,1,1],"right_children":[2,4,-1,-1,-1],"split_conditions":[3.500278E-1,-1.7506083E-2,-4.108177E-2,-2.5619244E-2,6.776041E-2],"split_indices":[113,177,0,0,0],"split_type":[0,0,0,0,0],"sum_hessian":[3.3761466E0,2.1968236E0,1.1793231E0,1.0440347E0,1.1527888E0],"tree_param":{"num_deleted":"0","num_feature":"197","num_nodes":"5","size_leaf_vector":"1"}},{"base_weights":[2.555141E-3,-3.0071488E-2,3.768353E-2],"categories":[],"categories_nodes":[],"categories_segments":[],"categories_sizes":[],"default_left":[0,0,0],"id":60,"left_children":[1,-1,-1],"loss_changes":[6.741882E-2,0E0,0E0],"parents":[2147483647,0,0],"right_children":[2,-1,-1],"split_conditions":[1.5996167E-1,-3.0071488E-2,3.768353E-2],"split_indices":[33,0,0],"split_type":[0,0,0],"sum_hessian":[3.3344083E0,1.9178183E0,1.41659E0],"tree_param":{"num_deleted":"0","num_feature":"197","num_nodes":"3","size_leaf_vector":"1"}},{"base_weights":[3.5781215E-3,-3.6616955E-2,3.0545788E-2],"categories":[],"categories_nodes":[],"categories_segments":[],"categories_sizes":[],"default_left":[0,0,0],"id":61,"left_children":[1,-1,-1],"loss_changes":[6.574134E-2,0E0,0E0],"parents":[2147483647,0,0],"right_children":[2,-1,-1],"split_conditions":[-3.1190947E-1,-3.6616955E-2,3.0545788E-2],"split_indices":[97,0,0],"split_type":[0,0,0],"sum_hessian":[3.3195188E0,1.3502938E0,1.969225E0],"tree_param":{"num_deleted":"0","num_feature":"197","num_nodes":"3","size_leaf_vector":"1"}},{"base_weights":[1.0978502E-3,-8.912166E-2,3.8693514E-2,2.1274175E-2,-6.013056E-2],"categories":[],"categories_nodes":[],"categories_segments":[],"categories_sizes":[],"default_left":[0,0,0,0,0],"id":62,"left_children":[1,3,-1,-1,-1],"loss_changes":[6.1115663E-2,6.967186E-2,0E0,0E0,0E0],"parents":[2147483647,0,0,1,1],"right_children":[2,4,-1,-1,-1],"split_conditions":[2.505948E-1,-3.9835286E-1,3.8693514E-2,2.1274175E-2,-6.013056E-2],"split_indices":[174,135,0,0,0],"split_type":[0,0,0,0,0],"sum_hessian":[3.3009038E0,2.1131594E0,1.1877443E0,1.0157499E0,1.0974095E0],"tree_param":{"num_deleted":"0","num_feature":"197","num_nodes":"5","size_leaf_vector":"1"}},{"base_weights":[6.3952233E-4,-3.40846E-2,3.402812E-2],"categories":[],"categories_nodes":[],"categories_segments":[],"categories_sizes":[],"default_left":[0,0,0],"id":63,"left_children":[1,-1,-1],"loss_changes":[6.788124E-2,0E0,0E0],"parents":[2147483647,0,0],"right_children":[2,-1,-1],"split_conditions":[7.55357E-2,-3.40846E-2,3.402812E-2],"split_indices":[175,0,0],"split_type":[0,0,0],"sum_hessian":[3.2675738E0,1.6195823E0,1.6479917E0],"tree_param":{"num_deleted":"0","num_feature":"197","num_nodes":"3","size_leaf_vector":"1"}},{"base_weights":[4.4305658E-4,-3.5979956E-2,2.9302947E-2],"categories":[],"categories_nodes":[],"categories_segments":[],"categories_sizes":[],"default_left":[0,0,0],"id":64,"left_children":[1,-1,-1],"loss_changes":[6.146486E-2,0E0,0E0],"parents":[2147483647,0,0],"right_children":[2,-1,-1],"split_conditions":[-4.3933147E-1,-3.5979956E-2,2.9302947E-2],"split_indices":[134,0,0],"split_type":[0,0,0],"sum_hessian":[3.2504845E0,1.3480835E0,1.9024011E0],"tree_param":{"num_deleted":"0","num_feature":"197","num_nodes":"3","size_leaf_vector":"1"}},{"base_weights":[-1.2708706E-3,9.221213E-2,-3.850942E-2,6.3366756E-2,-2.1515392E-2],"categories":[],"categories_nodes":[],"categories_segments":[],"categories_sizes":[],"default_left":[0,0,0,0,0],"id":65,"left_children":[1,3,-1,-1,-1],"loss_changes":[6.216571E-2,7.4119665E-2,0E0,0E0,0E0],"parents":[2147483647,0,0,1,1],"right_children":[2,4,-1,-1,-1],"split_conditions":[6.03173E-2,-4.914434E-1,-3.850942E-2,6.3366756E-2,-2.1515392E-2],"split_indices":[190,136,0,0,0],"split_type":[0,0,0,0,0],"sum_hessian":[3.236044E0,2.02271E0,1.2133338E0,1.0047721E0,1.017938E0],"tree_param":{"num_deleted":"0","num_feature":"197","num_nodes":"5","size_leaf_vector":"1"}},{"base_weights":[2.3021943E-5,-8.785217E-2,4.1964892E-2,-6.996135E-2,2.567848E-2],"categories":[],"categories_nodes":[],"categories_segments":[],"categories_sizes":[],"default_left":[0,0,0,0,0],"id":66,"left_children":[1,3,-1,-1,-1],"loss_changes":[6.396964E-2,1.00552455E-1,0E0,0E0,0E0],"parents":[2147483647,0,0,1,1],"right_children":[2,4,-1,-1,-1],"split_conditions":[1.9380149E-1,-4.7545886E-1,4.1964892E-2,-6.996135E-2,2.567848E-2],"split_indices":[9,148,0,0,0],"split_type":[0,0,0,0,0],"sum_hessian":[3.2050195E0,2.1966817E0,1.0083377E0,1.0076892E0,1.1889925E0],"tree_param":{"num_deleted":"0","num_feature":"197","num_nodes":"5","size_leaf_vector":"1"}},{"base_weights":[-7.0525147E-4,2.9051043E-2,-3.322388E-2],"categories":[],"categories_nodes":[],"categories_segments":[],"categories_sizes":[],"default_left":[0,0,0],"id":67,"left_children":[1,-1,-1],"loss_changes":[5.5400193E-2,0E0,0E0],"parents":[2147483647,0,0],"right_children":[2,-1,-1],"split_conditions":[-4.7528395E-1,2.9051043E-2,-3.322388E-2],"split_indices":[125,0,0],"split_type":[0,0,0],"sum_hessian":[3.1622357E0,1.7399291E0,1.4223067E0],"tree_param":{"num_deleted":"0","num_feature":"197","num_nodes":"3","size_leaf_vector":"1"}},{"base_weights":[-1.5027344E-3,-3.0229105E-2,3.1916328E-2],"categories":[],"categories_nodes":[],"categories_segments":[],"categories_sizes":[],"default_left":[0,0,0],"id":68,"left_children":[1,-1,-1],"loss_changes":[5.5150244E-2,0E0,0E0],"parents":[2147483647,0,0],"right_children":[2,-1,-1],"split_conditions":[-9.262788E-2,-3.0229105E-2,3.1916328E-2],"split_indices":[185,0,0],"split_type":[0,0,0],"sum_hessian":[3.148747E0,1.6743629E0,1.4743842E0],"tree_param":{"num_deleted":"0","num_feature":"197","num_nodes":"3","size_leaf_vector":"1"}},{"base_weights":[-6.395348E-4,-3.5169635E-2,2.7399857E-2],"categories":[],"categories_nodes":[],"categories_segments":[],"categories_sizes":[],"default_left":[0,0,0],"id":69,"left_children":[1,-1,-1],"loss_changes":[5.5056226E-2,0E0,0E0],"parents":[2147483647,0,0],"right_children":[2,-1,-1],"split_conditions":[-3.1190947E-1,-3.5169635E-2,2.7399857E-2],"split_indices":[97,0,0],"split_type":[0,0,0],"sum_hessian":[3.135769E0,1.2616905E0,1.8740783E0],"tree_param":{"num_deleted":"0","num_feature":"197","num_nodes":"3","size_leaf_vector":"1"}},{"base_weights":[-2.3446244E-3,8.110335E-2,-3.873331E-2,5.8819193E-2,-2.2095865E-2],"categories":[],"categories_nodes":[],"categories_segments":[],"categories_sizes":[],"default_left":[0,0,0,0,0],"id":70,"left_children":[1,3,-1,-1,-1],"loss_changes":[5.4056123E-2,6.957083E-2,0E0,0E0,0E0],"parents":[2147483647,0,0,1,1],"right_children":[2,4,-1,-1,-1],"split_conditions":[4.6335194E-1,-2.872862E-1,-3.873331E-2,5.8819193E-2,-2.2095865E-2],"split_indices":[74,117,0,0,0],"split_type":[0,0,0,0,0],"sum_hessian":[3.1201677E0,2.0987885E0,1.0213792E0,1.0510758E0,1.0477127E0],"tree_param":{"num_deleted":"0","num_feature":"197","num_nodes":"5","size_leaf_vector":"1"}},{"base_weights":[-2.0328127E-3,-3.1810112E-2,3.0394392E-2],"categories":[],"categories_nodes":[],"categories_segments":[],"categories_sizes":[],"default_left":[0,0,0],"id":71,"left_children":[1,-1,-1],"loss_changes":[5.467248E-2,0E0,0E0],"parents":[2147483647,0,0],"right_children":[2,-1,-1],"split_conditions":[7.55357E-2,-3.1810112E-2,3.0394392E-2],"split_indices":[175,0,0],"split_type":[0,0,0],"sum_hessian":[3.0871596E0,1.52576E0,1.5613996E0],"tree_param":{"num_deleted":"0","num_feature":"197","num_nodes":"3","size_leaf_vector":"1"}},{"base_weights":[-1.7730938E-3,-3.460416E-2,2.8138591E-2],"categories":[],"categories_nodes":[],"categories_segments":[],"categories_sizes":[],"default_left":[0,0,0],"id":72,"left_children":[1,-1,-1],"loss_changes":[5.5029836E-2,0E0,0E0],"parents":[2147483647,0,0],"right_children":[2,-1,-1],"split_conditions":[-2.2502261E-1,-3.460416E-2,2.8138591E-2],"split_indices":[110,0,0],"split_type":[0,0,0],"sum_hessian":[3.0731924E0,1.3097352E0,1.7634571E0],"tree_param":{"num_deleted":"0","num_feature":"197","num_nodes":"3","size_leaf_vector":"1"}},{"base_weights":[-2.8443525E-3,-2.54647E-2,3.4244362E-2],"categories":[],"categories_nodes":[],"categories_segments":[],"categories_sizes":[],"default_left":[0,0,0],"id":73,"left_children":[1,-1,-1],"loss_changes":[4.8650045E-2,0E0,0E0],"parents":[2147483647,0,0],"right_children":[2,-1,-1],"split_conditions":[2.505948E-1,-2.54647E-2,3.4244362E-2],"split_indices":[174,0,0],"split_type":[0,0,0],"sum_hessian":[3.0593557E0,1.9596559E0,1.0997E0],"tree_param":{"num_deleted":"0","num_feature":"197","num_nodes":"3","size_leaf_vector":"1"}},{"base_weights":[1.895872E-4,-8.024442E-2,3.585798E-2,1.8533748E-2,-5.4517295E-2],"categories":[],"categories_nodes":[],"categories_segments":[],"categories_sizes":[],"default_left":[0,0,0,0,0],"id":74,"left_children":[1,3,-1,-1,-1],"loss_changes":[4.8443798E-2,5.4698765E-2,0E0,0E0,0E0],"parents":[2147483647,0,0,1,1],"right_children":[2,4,-1,-1,-1],"split_conditions":[3.5450882E-1,-2.989703E-1,3.585798E-2,1.8533748E-2,-5.4517295E-2],"split_indices":[175,130,0,0,0],"split_type":[0,0,0,0,0],"sum_hessian":[3.0476565E0,2.0162623E0,1.0313941E0,1.0033156E0,1.0129468E0],"tree_param":{"num_deleted":"0","num_feature":"197","num_nodes":"5","size_leaf_vector":"1"}},{"base_weights":[2.9104098E-5,3.001525E-2,-3.0609645E-2],"categories":[],"categories_nodes":[],"categories_segments":[],"categories_sizes":[],"default_left":[0,0,0],"id":75,"left_children":[1,-1,-1],"loss_changes":[5.125438E-2,0E0,0E0],"parents":[2147483647,0,0],"right_children":[2,-1,-1],"split_conditions":[1.5142967E-1,3.001525E-2,-3.0609645E-2],"split_indices":[172,0,0],"split_type":[0,0,0],"sum_hessian":[3.020827E0,1.5356059E0,1.4852213E0],"tree_param":{"num_deleted":"0","num_feature":"197","num_nodes":"3","size_leaf_vector":"1"}},{"base_weights":[-1.2332968E-4,-2.7855488E-2,3.328816E-2],"categories":[],"categories_nodes":[],"categories_segments":[],"categories_sizes":[],"default_left":[0,0,0],"id":76,"left_children":[1,-1,-1],"loss_changes":[5.1596213E-2,0E0,0E0],"parents":[2147483647,0,0],"right_children":[2,-1,-1],"split_conditions":[1.5996167E-1,-2.7855488E-2,3.328816E-2],"split_indices":[33,0,0],"split_type":[0,0,0],"sum_hessian":[3.0088234E0,1.7293568E0,1.2794666E0],"tree_param":{"num_deleted":"0","num_feature":"197","num_nodes":"3","size_leaf_vector":"1"}},{"base_weights":[1.2861354E-3,2.4460075E-2,-3.4716535E-2],"categories":[],"categories_nodes":[],"categories_segments":[],"categories_sizes":[],"default_left":[0,0,0],"id":77,"left_children":[1,-1,-1],"loss_changes":[4.696694E-2,0E0,0E0],"parents":[2147483647,0,0],"right_children":[2,-1,-1],"split_conditions":[5.6689405E-1,2.4460075E-2,-3.4716535E-2],"split_indices":[79,0,0],"split_type":[0,0,0],"sum_hessian":[2.9971654E0,1.9576979E0,1.0394676E0],"tree_param":{"num_deleted":"0","num_feature":"197","num_nodes":"3","size_leaf_vector":"1"}},{"base_weights":[-1.6805661E-3,2.56857E-2,-3.1870037E-2],"categories":[],"categories_nodes":[],"categories_segments":[],"categories_sizes":[],"default_left":[0,0,0],"id":78,"left_children":[1,-1,-1],"loss_changes":[4.547474E-2,0E0,0E0],"parents":[2147483647,0,0],"right_children":[2,-1,-1],"split_conditions":[3.0457398E-1,2.56857E-2,-3.1870037E-2],"split_indices":[68,0,0],"split_type":[0,0,0],"sum_hessian":[2.985698E0,1.725791E0,1.259907E0],"tree_param":{"num_deleted":"0","num_feature":"197","num_nodes":"3","size_leaf_vector":"1"}},{"base_weights":[-2.7426276E-3,-2.8164484E-2,2.968317E-2],"categories":[],"categories_nodes":[],"categories_segments":[],"categories_sizes":[],"default_left":[0,0,0],"id":79,"left_children":[1,-1,-1],"loss_changes":[4.6112128E-2,0E0,0E0],"parents":[2147483647,0,0],"right_children":[2,-1,-1],"split_conditions":[-2.2071424E-1,-2.8164484E-2,2.968317E-2],"split_indices":[47,0,0],"split_type":[0,0,0],"sum_hessian":[2.9733148E0,1.608454E0,1.3648607E0],"tree_param":{"num_deleted":"0","num_feature":"197","num_nodes":"3","size_leaf_vector":"1"}},{"base_weights":[-1.5359811E-3,-2.7682021E-2,2.8934771E-2],"categories":[],"categories_nodes":[],"categories_segments":[],"categories_sizes":[],"default_left":[0,0,0],"id":80,"left_children":[1,-1,-1],"loss_changes":[4.4128846E-2,0E0,0E0],"parents":[2147483647,0,0],"right_children":[2,-1,-1],"split_conditions":[-9.262788E-2,-2.7682021E-2,2.8934771E-2],"split_indices":[185,0,0],"split_type":[0,0,0],"sum_hessian":[2.9623713E0,1.5683355E0,1.3940359E0],"tree_param":{"num_deleted":"0","num_feature":"197","num_nodes":"3","size_leaf_vector":"1"}},{"base_weights":[-7.555663E-4,-2.5628896E-2,3.3902604E-2],"categories":[],"categories_nodes":[],"categories_segments":[],"categories_sizes":[],"default_left":[0,0,0],"id":81,"left_children":[1,-1,-1],"loss_changes":[4.7722477E-2,0E0,0E0],"parents":[2147483647,0,0],"right_children":[2,-1,-1],"split_conditions":[3.7259963E-1,-2.5628896E-2,3.3902604E-2],"split_indices":[49,0,0],"split_type":[0,0,0],"sum_hessian":[2.9518995E0,1.8351052E0,1.1167945E0],"tree_param":{"num_deleted":"0","num_feature":"197","num_nodes":"3","size_leaf_vector":"1"}},{"base_weights":[1.588891E-3,-2.8088557E-2,2.8339995E-2],"categories":[],"categories_nodes":[],"categories_segments":[],"categories_sizes":[],"default_left":[0,0,0],"id":82,"left_children":[1,-1,-1],"loss_changes":[4.3677095E-2,0E0,0E0],"parents":[2147483647,0,0],"right_children":[2,-1,-1],"split_conditions":[-2.0390941E-1,-2.8088557E-2,2.8339995E-2],"split_indices":[53,0,0],"split_type":[0,0,0],"sum_hessian":[2.9387133E0,1.4470885E0,1.491625E0],"tree_param":{"num_deleted":"0","num_feature":"197","num_nodes":"3","size_leaf_vector":"1"}},{"base_weights":[1.1843654E-3,-2.5183368E-2,3.4798946E-2],"categories":[],"categories_nodes":[],"categories_segments":[],"categories_sizes":[],"default_left":[0,0,0],"id":83,"left_children":[1,-1,-1],"loss_changes":[4.813808E-2,0E0,0E0],"parents":[2147483647,0,0],"right_children":[2,-1,-1],"split_conditions":[-9.49969E-2,-2.5183368E-2,3.4798946E-2],"split_indices":[126,0,0],"split_type":[0,0,0],"sum_hessian":[2.9289405E0,1.8362683E0,1.0926721E0],"tree_param":{"num_deleted":"0","num_feature":"197","num_nodes":"3","size_leaf_vector":"1"}},{"base_weights":[3.3088713E-3,2.8959656E-2,-2.7202275E-2],"categories":[],"categories_nodes":[],"categories_segments":[],"categories_sizes":[],"default_left":[0,0,0],"id":84,"left_children":[1,-1,-1],"loss_changes":[4.3062463E-2,0E0,0E0],"parents":[2147483647,0,0],"right_children":[2,-1,-1],"split_conditions":[-2.7866325E-1,2.8959656E-2,-2.7202275E-2],"split_indices":[145,0,0],"split_type":[0,0,0],"sum_hessian":[2.9159734E0,1.4502879E0,1.4656856E0],"tree_param":{"num_deleted":"0","num_feature":"197","num_nodes":"3","size_leaf_vector":"1"}},{"base_weights":[2.779683E-3,-2.3283422E-2,3.300087E-2],"categories":[],"categories_nodes":[],"categories_segments":[],"categories_sizes":[],"default_left":[0,0,0],"id":85,"left_children":[1,-1,-1],"loss_changes":[4.2206857E-2,0E0,0E0],"parents":[2147483647,0,0],"right_children":[2,-1,-1],"split_conditions":[2.902787E-1,-2.3283422E-2,3.300087E-2],"split_indices":[171,0,0],"split_type":[0,0,0],"sum_hessian":[2.9060557E0,1.8186698E0,1.087386E0],"tree_param":{"num_deleted":"0","num_feature":"197","num_nodes":"3","size_leaf_vector":"1"}},{"base_weights":[4.463461E-3,-3.2196697E-2,2.5164649E-2],"categories":[],"categories_nodes":[],"categories_segments":[],"categories_sizes":[],"default_left":[0,0,0],"id":86,"left_children":[1,-1,-1],"loss_changes":[4.3589126E-2,0E0,0E0],"parents":[2147483647,0,0],"right_children":[2,-1,-1],"split_conditions":[-4.9834946E-1,-3.2196697E-2,2.5164649E-2],"split_indices":[67,0,0],"split_type":[0,0,0],"sum_hessian":[2.895829E0,1.0568756E0,1.8389533E0],"tree_param":{"num_deleted":"0","num_feature":"197","num_nodes":"3","size_leaf_vector":"1"}},{"base_weights":[1.3180177E-3,2.4109587E-2,-3.1407367E-2],"categories":[],"categories_nodes":[],"categories_segments":[],"categories_sizes":[],"default_left":[0,0,0],"id":87,"left_children":[1,-1,-1],"loss_changes":[4.0962648E-2,0E0,0E0],"parents":[2147483647,0,0],"right_children":[2,-1,-1],"split_conditions":[3.6964968E-1,2.4109587E-2,-3.1407367E-2],"split_indices":[165,0,0],"split_type":[0,0,0],"sum_hessian":[2.8842616E0,1.7908169E0,1.0934447E0],"tree_param":{"num_deleted":"0","num_feature":"197","num_nodes":"3","size_leaf_vector":"1"}},{"base_weights":[-9.6430513E-4,2.6278092E-2,-2.9502783E-2],"categories":[],"categories_nodes":[],"categories_segments":[],"categories_sizes":[],"default_left":[0,0,0],"id":88,"left_children":[1,-1,-1],"loss_changes":[4.202303E-2,0E0,0E0],"parents":[2147483647,0,0],"right_children":[2,-1,-1],"split_conditions":[1.8144193E-1,2.6278092E-2,-2.9502783E-2],"split_indices":[100,0,0],"split_type":[0,0,0],"sum_hessian":[2.8741078E0,1.557848E0,1.31626E0],"tree_param":{"num_deleted":"0","num_feature":"197","num_nodes":"3","size_leaf_vector":"1"}},{"base_weights":[-1.5121356E-3,-2.5202358E-2,2.9589988E-2],"categories":[],"categories_nodes":[],"categories_segments":[],"categories_sizes":[],"default_left":[0,0,0],"id":89,"left_children":[1,-1,-1],"loss_changes":[4.0202696E-2,0E0,0E0],"parents":[2147483647,0,0],"right_children":[2,-1,-1],"split_conditions":[1.5996167E-1,-2.5202358E-2,2.9589988E-2],"split_indices":[33,0,0],"split_type":[0,0,0],"sum_hessian":[2.8632755E0,1.6583422E0,1.2049334E0],"tree_param":{"num_deleted":"0","num_feature":"197","num_nodes":"3","size_leaf_vector":"1"}},{"base_weights":[8.646652E-5,-3.0865801E-2,2.4934202E-2],"categories":[],"categories_nodes":[],"categories_segments":[],"categories_sizes":[],"default_left":[0,0,0],"id":90,"left_children":[1,-1,-1],"loss_changes":[4.1502055E-2,0E0,0E0],"parents":[2147483647,0,0],"right_children":[2,-1,-1],"split_conditions":[-4.6103638E-1,-3.0865801E-2,2.4934202E-2],"split_indices":[54,0,0],"split_type":[0,0,0],"sum_hessian":[2.854096E0,1.1672586E0,1.6868373E0],"tree_param":{"num_deleted":"0","num_feature":"197","num_nodes":"3","size_leaf_vector":"1"}},{"base_weights":[-1.4885202E-3,-2.6921274E-2,2.6859844E-2],"categories":[],"categories_nodes":[],"categories_segments":[],"categories_sizes":[],"default_left":[0,0,0],"id":91,"left_children":[1,-1,-1],"loss_changes":[3.889837E-2,0E0,0E0],"parents":[2147483647,0,0],"right_children":[2,-1,-1],"split_conditions":[-1.23571284E-1,-2.6921274E-2,2.6859844E-2],"split_indices":[9,0,0],"split_type":[0,0,0],"sum_hessian":[2.842357E0,1.4503168E0,1.3920401E0],"tree_param":{"num_deleted":"0","num_feature":"197","num_nodes":"3","size_leaf_vector":"1"}},{"base_weights":[-1.057405E-3,-2.3042466E-2,3.148498E-2],"categories":[],"categories_nodes":[],"categories_segments":[],"categories_sizes":[],"default_left":[0,0,0],"id":92,"left_children":[1,-1,-1],"loss_changes":[3.8831532E-2,0E0,0E0],"parents":[2147483647,0,0],"right_children":[2,-1,-1],"split_conditions":[2.505948E-1,-2.3042466E-2,3.148498E-2],"split_indices":[174,0,0],"split_type":[0,0,0],"sum_hessian":[2.8318765E0,1.8122917E0,1.0195848E0],"tree_param":{"num_deleted":"0","num_feature":"197","num_nodes":"3","size_leaf_vector":"1"}},{"base_weights":[1.4814243E-3,-2.7346212E-2,2.7762257E-2],"categories":[],"categories_nodes":[],"categories_segments":[],"categories_sizes":[],"default_left":[0,0,0],"id":93,"left_children":[1,-1,-1],"loss_changes":[4.0678397E-2,0E0,0E0],"parents":[2147483647,0,0],"right_children":[2,-1,-1],"split_conditions":[7.55357E-2,-2.7346212E-2,2.7762257E-2],"split_indices":[175,0,0],"split_type":[0,0,0],"sum_hessian":[2.822366E0,1.3985605E0,1.4238055E0],"tree_param":{"num_deleted":"0","num_feature":"197","num_nodes":"3","size_leaf_vector":"1"}},{"base_weights":[1.1538023E-3,-2.9341113E-2,2.5138091E-2],"categories":[],"categories_nodes":[],"categories_segments":[],"categories_sizes":[],"default_left":[0,0,0],"id":94,"left_children":[1,-1,-1],"loss_changes":[3.9367653E-2,0E0,0E0],"parents":[2147483647,0,0],"right_children":[2,-1,-1],"split_conditions":[-1.1478836E-1,-2.9341113E-2,2.5138091E-2],"split_indices":[186,0,0],"split_type":[0,0,0],"sum_hessian":[2.8118086E0,1.1960721E0,1.6157366E0],"tree_param":{"num_deleted":"0","num_feature":"197","num_nodes":"3","size_leaf_vector":"1"}},{"base_weights":[-2.968523E-4,2.319052E-2,-3.1046394E-2],"categories":[],"categories_nodes":[],"categories_segments":[],"categories_sizes":[],"default_left":[0,0,0],"id":95,"left_children":[1,-1,-1],"loss_changes":[3.8447537E-2,0E0,0E0],"parents":[2147483647,0,0],"right_children":[2,-1,-1],"split_conditions":[-9.75397E-3,2.319052E-2,-3.1046394E-2],"split_indices":[149,0,0],"split_type":[0,0,0],"sum_hessian":[2.8024096E0,1.7427607E0,1.059649E0],"tree_param":{"num_deleted":"0","num_feature":"197","num_nodes":"3","size_leaf_vector":"1"}},{"base_weights":[-2.2859196E-3,-2.4217594E-2,3.1049365E-2],"categories":[],"categories_nodes":[],"categories_segments":[],"categories_sizes":[],"default_left":[0,0,0],"id":96,"left_children":[1,-1,-1],"loss_changes":[3.9827846E-2,0E0,0E0],"parents":[2147483647,0,0],"right_children":[2,-1,-1],"split_conditions":[2.902787E-1,-2.4217594E-2,3.1049365E-2],"split_indices":[171,0,0],"split_type":[0,0,0],"sum_hessian":[2.7930098E0,1.7398117E0,1.0531981E0],"tree_param":{"num_deleted":"0","num_feature":"197","num_nodes":"3","size_leaf_vector":"1"}},{"base_weights":[2.1378182E-4,2.805174E-2,-2.4697656E-2],"categories":[],"categories_nodes":[],"categories_segments":[],"categories_sizes":[],"default_left":[0,0,0],"id":97,"left_children":[1,-1,-1],"loss_changes":[3.683135E-2,0E0,0E0],"parents":[2147483647,0,0],"right_children":[2,-1,-1],"split_conditions":[-1.776384E-2,2.805174E-2,-2.4697656E-2],"split_indices":[178,0,0],"split_type":[0,0,0],"sum_hessian":[2.7834363E0,1.2442403E0,1.539196E0],"tree_param":{"num_deleted":"0","num_feature":"197","num_nodes":"3","size_leaf_vector":"1"}},{"base_weights":[1.046705E-3,-2.996919E-2,2.2802737E-2],"categories":[],"categories_nodes":[],"categories_segments":[],"categories_sizes":[],"default_left":[0,0,0],"id":98,"left_children":[1,-1,-1],"loss_changes":[3.615295E-2,0E0,0E0],"parents":[2147483647,0,0],"right_children":[2,-1,-1],"split_conditions":[-5.383293E-1,-2.996919E-2,2.2802737E-2],"split_indices":[148,0,0],"split_type":[0,0,0],"sum_hessian":[2.77426E0,1.0404985E0,1.7337615E0],"tree_param":{"num_deleted":"0","num_feature":"197","num_nodes":"3","size_leaf_vector":"1"}},{"base_weights":[-1.1752107E-3,2.2347946E-2,-3.0741766E-2],"categories":[],"categories_nodes":[],"categories_segments":[],"categories_sizes":[],"default_left":[0,0,0],"id":99,"left_children":[1,-1,-1],"loss_changes":[3.648782E-2,0E0,0E0],"parents":[2147483647,0,0],"right_children":[2,-1,-1],"split_conditions":[6.03173E-2,2.2347946E-2,-3.0741766E-2],"split_indices":[190,0,0],"split_type":[0,0,0],"sum_hessian":[2.7644234E0,1.7338555E0,1.030568E0],"tree_param":{"num_deleted":"0","num_feature":"197","num_nodes":"3","size_leaf_vector":"1"}}]},"name":"gbtree"},"learner_model_param":{"base_score":"5.847953E-1","boost_from_average":"1","num_class":"0","num_feature":"197","num_target":"1"},"objective":{"name":"binary:logistic","reg_loss_param":{"scale_pos_weight":"1"}}},"version":[3,0,2]}