{"learner":{"attributes":{"scikit_learn":"{\"_estimator_type\": \"classifier\"}"},"feature_names":[],"feature_types":[],"gradient_booster":{"model":{"gbtree_model_param":{"num_parallel_tree":"1","num_trees":"100"},"iteration_indptr":[0,1,2,3,4,5,6,7,8,9,10,11,12,13,14,15,16,17,18,19,20,21,22,23,24,25,26,27,28,29,30,31,32,33,34,35,36,37,38,39,40,41,42,43,44,45,46,47,48,49,50,51,52,53,54,55,56,57,58,59,60,61,62,63,64,65,66,67,68,69,70,71,72,73,74,75,76,77,78,79,80,81,82,83,84,85,86,87,88,89,90,91,92,93,94,95,96,97,98,99,100],"tree_info":[0,0,0,0,0,0,0,0,0,0,0,0,0,0,0,0,0,0,0,0,0,0,0,0,0,0,0,0,0,0,0,0,0,0,0,0,0,0,0,0,0,0,0,0,0,0,0,0,0,0,0,0,0,0,0,0,0,0,0,0,0,0,0,0,0,0,0,0,0,0,0,0,0,0,0,0,0,0,0,0,0,0,0,0,0,0,0,0,0,0,0,0,0,0,0,0,0,0,0,0],"trees":[{"base_weights":[-6.3450635E-8,8.453535E-1,-6.7462224E-1,1.3623489E0,-6.5019006E-1,-1.3725613E0,2.851607E-1,-4.646938E-1,5.7216096E-1,-3.63486E-1,2.283112E-1,9.447359E-2,-1.5555918E0,7.062181E-1,-2.9023153E-1,-3.6872596E-1,2.283112E-1,-5.078632E-1,-3.936401E-2,-2.1121244E-1,1.0824407E0,1.4485246E0,-2.3201752E-2,5.077765E-1,9.447359E-2],"categories":[],"categories_nodes":[],"categories_segments":[],"categories_sizes":[],"default_left":[0,0,0,0,0,0,0,0,0,0,0,0,0,0,0,0,0,0,0,0,0,0,0,0,0],"id":0,"left_children":[1,3,5,7,9,11,13,15,-1,-1,-1,-1,17,19,-1,-1,-1,-1,-1,-1,21,23,-1,-1,-1],"loss_changes":[2.5213715E1,1.6057953E1,1.6862785E1,1.5723824E1,5.4523196E0,4.940054E0,6.5799904E0,4.896724E0,0E0,0E0,0E0,0E0,2.3526154E0,5.508439E0,0E0,0E0,0E0,0E0,0E0,0E0,3.2776356E0,1.0489445E0,0E0,0E0,0E0],"parents":[2147483647,0,0,1,1,2,2,3,3,4,4,5,5,6,6,7,7,12,12,13,13,20,20,21,21],"right_children":[2,4,6,8,10,12,14,16,-1,-1,-1,-1,18,20,-1,-1,-1,-1,-1,-1,22,24,-1,-1,-1],"split_conditions":[-3.2425225E-1,5.770833E-1,-3.5515234E-2,-1.3953756E0,5.1825505E-1,-8.401986E-1,4.228877E-1,1.1875785E-1,5.7216096E-1,-3.63486E-1,2.283112E-1,9.447359E-2,1.2599208E0,-6.635535E-1,-2.9023153E-1,-3.6872596E-1,2.283112E-1,-5.078632E-1,-3.936401E-2,-2.1121244E-1,2.1657167E-1,6.140367E-1,-2.3201752E-2,5.077765E-1,9.447359E-2],"split_indices":[35,28,97,37,18,47,185,171,0,0,0,0,185,146,0,0,0,0,0,0,132,48,0,0,0],"split_type":[0,0,0,0,0,0,0,0,0,0,0,0,0,0,0,0,0,0,0,0,0,0,0,0,0],"sum_hessian":[4.221176E1,1.8622837E1,2.3588926E1,1.3905051E1,4.7177854E0,1.34084425E1,1.0180484E1,3.2279582E0,1.0677093E1,3.4762628E0,1.2415224E0,1.2415224E0,1.216692E1,7.9457436E0,2.2347403E0,1.9864359E0,1.2415224E0,1.0925398E1,1.2415224E0,1.4898269E0,6.4559164E0,4.7177854E0,1.7381314E0,3.4762628E0,1.2415224E0],"tree_param":{"num_deleted":"0","num_feature":"197","num_nodes":"25","size_leaf_vector":"1"}},{"base_weights":[-8.529429E-3,-4.8756576E-1,7.705221E-1,-1.016625E0,3.7833655E-1,-1.3206865E-1,1.2115834E0,1.7748676E-1,-1.1847548E0,-2.6940078E-1,8.089034E-1,-8.2645047E-1,2.7395192E-1,1.4264321E0,7.0492335E-2,-1.3725647E0,-2.0524581E-1,-8.885494E-2,1.1773312E0,-3.213052E-1,-2.7682886E-2,4.562896E-1,1.3612327E-1,-4.301356E-1,-1.213051E-1,-2.973165E-1,2.2296618E-1,5.0250396E-2,4.4665143E-1],"categories":[],"categories_nodes":[],"categories_segments":[],"categories_sizes":[],"default_left":[0,0,0,0,0,0,0,0,0,0,0,0,0,0,0,0,0,0,0,0,0,0,0,0,0,0,0,0,0],"id":1,"left_children":[1,3,5,7,9,11,13,-1,15,-1,17,19,-1,21,-1,23,25,-1,27,-1,-1,-1,-1,-1,-1,-1,-1,-1,-1],"loss_changes":[1.5766493E1,1.2364378E1,6.565647E0,5.1633987E0,6.577236E0,5.2426867E0,1.9533825E0,0E0,2.528223E0,0E0,3.8041835E0,6.6252995E-1,0E0,1.1380386E-1,0E0,1.6955185E-1,3.44456E0,0E0,1.8160934E0,0E0,0E0,0E0,0E0,0E0,0E0,0E0,0E0,0E0,0E0],"parents":[2147483647,0,0,1,1,2,2,3,3,4,4,5,5,6,6,8,8,10,10,11,11,13,13,15,15,16,16,18,18],"right_children":[2,4,6,8,10,12,14,-1,16,-1,18,20,-1,22,-1,24,26,-1,28,-1,-1,-1,-1,-1,-1,-1,-1,-1,-1],"split_conditions":[3.2472983E-1,1.5742125E-1,-3.4005207E-1,-8.5744613E-1,-7.268125E-1,-1.23121336E-1,7.179241E-1,1.7748676E-1,1.0705572E0,-2.6940078E-1,-1.0306345E0,-2.0328914E-1,2.7395192E-1,1.0847565E0,7.0492335E-2,9.841129E-1,7.778114E-1,-8.885494E-2,-5.1040214E-1,-3.213052E-1,-2.7682886E-2,4.562896E-1,1.3612327E-1,-4.301356E-1,-1.213051E-1,-2.973165E-1,2.2296618E-1,5.0250396E-2,4.4665143E-1],"split_indices":[88,97,165,23,8,134,135,0,185,0,6,37,0,58,0,71,56,0,7,0,0,0,0,0,0,0,0,0,0],"split_type":[0,0,0,0,0,0,0,0,0,0,0,0,0,0,0,0,0,0,0,0,0,0,0,0,0,0,0,0,0],"sum_hessian":[4.0240784E1,2.5150175E1,1.5090609E1,1.5503561E1,9.646613E0,5.183541E0,9.907067E0,1.2289722E0,1.4274589E1,2.1595075E0,7.487106E0,3.2402668E0,1.9432741E0,7.743042E0,2.1640255E0,1.1641234E1,2.633354E0,1.9210553E0,5.5660505E0,2.0864325E0,1.1538342E0,6.5434303E0,1.1996114E0,1.0496671E1,1.1445645E0,1.4156109E0,1.2177432E0,1.6747218E0,3.8913286E0],"tree_param":{"num_deleted":"0","num_feature":"197","num_nodes":"29","size_leaf_vector":"1"}},{"base_weights":[-3.489608E-3,5.796278E-1,-4.786333E-1,-6.784204E-1,8.6600775E-1,-9.6066546E-1,1.1777262E-1,-2.8731552E-1,4.8761275E-3,-2.2200562E-1,1.083889E0,5.4396436E-2,-1.10788E0,-2.965082E-1,8.7058204E-1,-2.296506E-1,1.4013125E-1,1.235665E0,-7.516148E-2,-3.7448105E-1,-4.133866E-2,2.3031723E-1,-7.2476655E-1,2.7905338E-2,3.4091297E-1,4.23358E-1,2.6292497E-2,4.2714186E-2,-3.240136E-1],"categories":[],"categories_nodes":[],"categories_segments":[],"categories_sizes":[],"default_left":[0,0,0,0,0,0,0,0,0,0,0,0,0,0,0,0,0,0,0,0,0,0,0,0,0,0,0,0,0],"id":2,"left_children":[1,3,5,7,9,11,13,-1,-1,15,17,-1,19,21,23,-1,-1,25,-1,-1,-1,-1,27,-1,-1,-1,-1,-1,-1],"loss_changes":[1.0814585E1,6.90244E0,6.2951374E0,7.549566E-1,3.7293959E0,2.218501E0,3.5335355E0,0E0,0E0,1.5880603E0,2.827384E0,0E0,1.2949677E0,3.9838996E0,7.1727586E-1,0E0,0E0,2.159544E0,0E0,0E0,0E0,0E0,1.9642856E0,0E0,0E0,0E0,0E0,0E0,0E0],"parents":[2147483647,0,0,1,1,2,2,3,3,4,4,5,5,6,6,9,9,10,10,12,12,13,13,14,14,17,17,22,22],"right_children":[2,4,6,8,10,12,14,-1,-1,16,18,-1,20,22,24,-1,-1,26,-1,-1,-1,-1,28,-1,-1,-1,-1,-1,-1],"split_conditions":[-3.2425225E-1,-1.1106565E0,-3.5515234E-2,1.7277662E-1,-8.8197505E-1,-8.401986E-1,2.7283174E-1,-2.8731552E-1,4.8761275E-3,3.113258E-1,2.0804338E0,5.4396436E-2,8.2229745E-1,-7.702076E-1,2.1702322E-1,-2.296506E-1,1.4013125E-1,6.545425E-1,-7.516148E-2,-3.7448105E-1,-4.133866E-2,2.3031723E-1,-7.415084E-1,2.7905338E-2,3.4091297E-1,4.23358E-1,2.6292497E-2,4.2714186E-2,-3.240136E-1],"split_indices":[35,96,97,31,120,47,95,0,0,47,145,0,174,165,175,0,0,125,0,0,0,0,164,0,0,0,0,0,0],"split_type":[0,0,0,0,0,0,0,0,0,0,0,0,0,0,0,0,0,0,0,0,0,0,0,0,0,0,0,0,0],"sum_hessian":[3.703141E1,1.6527828E1,2.0503584E1,2.810877E0,1.371695E1,1.100128E1,9.502303E0,1.7347516E0,1.0761256E0,2.2854393E0,1.1431512E1,1.2297851E0,9.771495E0,6.520254E0,2.9820495E0,1.215738E0,1.0697011E0,1.0330541E1,1.1009706E0,8.285636E0,1.4858582E0,1.6434861E0,4.876768E0,1.1035746E0,1.8784748E0,8.761678E0,1.5688636E0,1.5915153E0,3.2852528E0],"tree_param":{"num_deleted":"0","num_feature":"197","num_nodes":"29","size_leaf_vector":"1"}},{"base_weights":[-5.4719383E-3,-3.5785452E-1,5.4325795E-1,-8.180895E-1,1.7570095E-1,-1.1719516E-1,8.765871E-1,9.973743E-2,-3.4933305E-1,-5.72303E-1,6.0489005E-1,2.112862E-1,-2.3903023E-1,1.074732E0,1.5196803E-2,-2.2890319E-1,2.1207598E-1,-2.9844877E-1,5.9120476E-2,9.8663455E-1,-1.4754044E-1,3.69078E-1,5.550375E-2,1.7072897E-2,3.6014223E-1],"categories":[],"categories_nodes":[],"categories_segments":[],"categories_sizes":[],"default_left":[0,0,0,0,0,0,0,0,0,0,0,0,0,0,0,0,0,0,0,0,0,0,0,0,0],"id":3,"left_children":[1,3,5,7,9,11,13,15,-1,17,19,-1,-1,21,-1,-1,-1,-1,-1,23,-1,-1,-1,-1,-1],"loss_changes":[6.855413E0,5.442948E0,3.1557908E0,3.855476E0,3.8188624E0,3.6503603E0,1.4731903E0,2.7101197E0,0E0,1.6451325E0,3.566331E0,0E0,0E0,8.072996E-1,0E0,0E0,0E0,0E0,0E0,1.0831747E0,0E0,0E0,0E0,0E0,0E0],"parents":[2147483647,0,0,1,1,2,2,3,3,4,4,5,5,6,6,7,7,9,9,10,10,13,13,19,19],"right_children":[2,4,6,8,10,12,14,16,-1,18,20,-1,-1,22,-1,-1,-1,-1,-1,24,-1,-1,-1,-1,-1],"split_conditions":[3.2472983E-1,1.015893E-1,-3.4005207E-1,-3.5256445E-1,-3.7350494E-1,-6.803839E-1,7.7909136E-1,-7.047052E-2,-3.4933305E-1,1.2315027E0,6.1145735E-1,2.112862E-1,-2.3903023E-1,-1.0872188E-3,1.5196803E-2,-2.2890319E-1,2.1207598E-1,-2.9844877E-1,5.9120476E-2,-8.9469546E-1,-1.4754044E-1,3.69078E-1,5.550375E-2,1.7072897E-2,3.6014223E-1],"split_indices":[88,69,165,109,120,187,124,192,0,81,175,0,0,73,0,0,0,0,0,33,0,0,0,0,0],"split_type":[0,0,0,0,0,0,0,0,0,0,0,0,0,0,0,0,0,0,0,0,0,0,0,0,0],"sum_hessian":[3.3448215E1,2.0580019E1,1.2868198E1,1.076288E1,9.817139E0,4.5336685E0,8.33453E0,3.1438406E0,7.61904E0,3.4576275E0,6.359511E0,2.036062E0,2.4976065E0,6.4789596E0,1.8555703E0,1.1926119E0,1.9512285E0,2.0427437E0,1.4148837E0,4.7918735E0,1.5676372E0,5.1891203E0,1.2898391E0,1.1328098E0,3.6590638E0],"tree_param":{"num_deleted":"0","num_feature":"197","num_nodes":"25","size_leaf_vector":"1"}},{"base_weights":[-5.6315814E-3,-6.514253E-1,2.2654393E-1,1.3926744E-1,-9.1391623E-1,4.8588744E-1,-4.5937413E-1,-3.8163438E-5,-3.2962596E-1,-2.8289977E-1,7.360577E-1,-8.1486315E-1,1.2692477E-1,-7.02051E-1,1.5682119E-1,9.145643E-1,-6.652066E-2,-3.0029637E-1,-3.8218837E-2,-2.8761315E-1,-2.3964643E-3,-1.677574E-2,1.0550115E0,3.0918827E-2,3.5534805E-1],"categories":[],"categories_nodes":[],"categories_segments":[],"categories_sizes":[],"default_left":[0,0,0,0,0,0,0,0,0,0,0,0,0,0,0,0,0,0,0,0,0,0,0,0,0],"id":4,"left_children":[1,3,5,-1,7,9,11,-1,-1,13,15,17,-1,19,-1,21,-1,-1,-1,-1,-1,-1,23,-1,-1],"loss_changes":[4.7870007E0,2.8960836E0,4.403895E0,0E0,1.2108545E0,3.581612E0,2.5287611E0,0E0,0E0,2.0650828E0,2.512817E0,5.512202E-1,0E0,6.576021E-1,0E0,1.6378756E0,0E0,0E0,0E0,0E0,0E0,0E0,1.1314316E0,0E0,0E0],"parents":[2147483647,0,0,1,1,2,2,4,4,5,5,6,6,9,9,10,10,11,11,13,13,15,15,22,22],"right_children":[2,4,6,-1,8,10,12,-1,-1,14,16,18,-1,20,-1,22,-1,-1,-1,-1,-1,-1,24,-1,-1],"split_conditions":[-4.6187255E-1,-1.3303508E0,4.347036E-1,1.3926744E-1,-1.0149571E0,-5.6294173E-1,3.555099E-1,-3.8163438E-5,-3.2962596E-1,4.6897462E-1,1.1366925E0,1.5084043E-1,1.2692477E-1,-3.3653766E-1,1.5682119E-1,-9.368318E-1,-6.652066E-2,-3.0029637E-1,-3.8218837E-2,-2.8761315E-1,-2.3964643E-3,-1.677574E-2,-7.619613E-1,3.0918827E-2,3.5534805E-1],"split_indices":[10,189,73,0,31,148,131,0,0,174,122,190,0,3,0,186,0,0,0,0,0,0,151,0,0],"split_type":[0,0,0,0,0,0,0,0,0,0,0,0,0,0,0,0,0,0,0,0,0,0,0,0,0],"sum_hessian":[2.994239E1,7.440625E0,2.2501764E1,1.2708154E0,6.16981E0,1.6539759E1,5.9620066E0,1.2063915E0,4.9634185E0,4.028653E0,1.2511105E1,4.304556E0,1.6574512E0,2.7345283E0,1.2941248E0,1.0583721E1,1.9273835E0,3.0285535E0,1.2760022E0,1.7179432E0,1.0165852E0,1.4141133E0,9.169608E0,1.3129303E0,7.8566775E0],"tree_param":{"num_deleted":"0","num_feature":"197","num_nodes":"25","size_leaf_vector":"1"}},{"base_weights":[-1.3479408E-2,-4.441794E-1,2.585746E-1,2.8614047E-1,-6.910679E-1,8.302627E-3,7.8788406E-1,-1.17880546E-1,2.2207996E-1,1.1896738E-1,-8.885603E-1,2.8334358E-1,-5.641705E-1,3.2384464E-1,-7.192824E-2,-3.1182265E-1,1.4444259E-2,2.5283638E-1,-1.4187619E-1,-2.4892585E-1,4.76172E-2,2.0917608E-1,-4.543912E-1,1.1373631E-1,-2.4050064E-1],"categories":[],"categories_nodes":[],"categories_segments":[],"categories_sizes":[],"default_left":[0,0,0,0,0,0,0,0,0,0,0,0,0,0,0,0,0,0,0,0,0,0,0,0,0],"id":5,"left_children":[1,3,5,7,9,11,13,-1,-1,-1,15,17,19,-1,-1,-1,-1,-1,21,-1,-1,-1,23,-1,-1],"loss_changes":[3.3995929E0,2.2208412E0,2.353146E0,1.383164E0,2.2164507E0,2.2232754E0,1.9692318E0,0E0,0E0,0E0,1.1314559E0,2.383712E0,1.0123945E0,0E0,0E0,0E0,0E0,0E0,1.9593649E0,0E0,0E0,0E0,1.8002174E0,0E0,0E0],"parents":[2147483647,0,0,1,1,2,2,3,3,4,4,5,5,6,6,10,10,11,11,12,12,18,18,22,22],"right_children":[2,4,6,8,10,12,14,-1,-1,-1,16,18,20,-1,-1,-1,-1,-1,22,-1,-1,-1,24,-1,-1],"split_conditions":[-5.254723E-1,-7.8091615E-1,4.793762E-1,-4.3593776E-1,-1.3520317E0,-4.978973E-2,1.0225328E0,-1.17880546E-1,2.2207996E-1,1.1896738E-1,1.9187421E0,-1.3978194E-1,7.7595604E-3,3.2384464E-1,-7.192824E-2,-3.1182265E-1,1.4444259E-2,2.5283638E-1,-6.5137064E-1,-2.4892585E-1,4.76172E-2,2.0917608E-1,2.3953227E-2,1.1373631E-1,-2.4050064E-1],"split_indices":[18,73,174,96,189,174,168,0,0,0,14,170,175,0,0,0,0,0,191,0,0,0,177,0,0],"split_type":[0,0,0,0,0,0,0,0,0,0,0,0,0,0,0,0,0,0,0,0,0,0,0,0,0],"sum_hessian":[2.7033087E1,1.0220268E1,1.6812819E1,2.5419497E0,7.678319E0,1.2104952E1,4.7078667E0,1.0726745E0,1.4692751E0,1.0250767E0,6.653242E0,8.517722E0,3.5872302E0,3.6279733E0,1.0798934E0,5.6359773E0,1.0172648E0,3.2542427E0,5.263479E0,2.515315E0,1.0719153E0,1.0942417E0,4.1692376E0,1.1992306E0,2.9700072E0],"tree_param":{"num_deleted":"0","num_feature":"197","num_nodes":"25","size_leaf_vector":"1"}},{"base_weights":[1.6376922E-4,-4.6192965E-1,2.3078062E-1,-6.590135E-1,1.2026634E-1,4.490894E-1,-3.911599E-1,4.900116E-2,-8.127932E-1,-3.1806517E-1,6.870286E-1,9.813874E-2,-6.813379E-1,-1.5393989E-2,-2.837957E-1,-2.0990048E-1,9.907917E-2,8.179012E-1,-7.8933276E-2,-2.5389972E-1,-3.534843E-2,9.497745E-1,-1.0290434E-2,3.1546777E-1,6.543944E-2],"categories":[],"categories_nodes":[],"categories_segments":[],"categories_sizes":[],"default_left":[0,0,0,0,0,0,0,0,0,0,0,0,0,0,0,0,0,0,0,0,0,0,0,0,0],"id":6,"left_children":[1,3,5,7,-1,9,11,-1,13,15,17,-1,19,-1,-1,-1,-1,21,-1,-1,-1,23,-1,-1,-1],"loss_changes":[2.7956326E0,1.7493546E0,2.5516622E0,1.0797038E0,0E0,2.6678643E0,1.2819461E0,0E0,6.082463E-1,1.1860884E0,1.5280914E0,0E0,2.6692295E-1,0E0,0E0,0E0,0E0,1.1028485E0,0E0,0E0,0E0,3.8738966E-1,0E0,0E0,0E0],"parents":[2147483647,0,0,1,1,2,2,3,3,5,5,6,6,8,8,9,9,10,10,12,12,17,17,21,21],"right_children":[2,4,6,8,-1,10,12,-1,14,16,18,-1,20,-1,-1,-1,-1,22,-1,-1,-1,24,-1,-1,-1],"split_conditions":[-3.4343565E-1,1.1158856E0,5.770833E-1,-5.97822E-1,1.2026634E-1,-7.124453E-1,-6.5144104E-1,4.900116E-2,-1.1402476E0,-1.72504E-1,1.4396112E0,9.813874E-2,5.3418692E-2,-1.5393989E-2,-2.837957E-1,-2.0990048E-1,9.907917E-2,1.1766353E0,-7.8933276E-2,-2.5389972E-1,-3.534843E-2,8.284869E-1,-1.0290434E-2,3.1546777E-1,6.543944E-2],"split_indices":[49,114,28,127,0,115,187,0,85,132,165,0,174,0,0,0,0,115,0,0,0,163,0,0,0],"split_type":[0,0,0,0,0,0,0,0,0,0,0,0,0,0,0,0,0,0,0,0,0,0,0,0,0],"sum_hessian":[2.4233328E1,7.733826E0,1.6499502E1,6.488042E0,1.2457842E0,1.2418409E1,4.0810924E0,1.0123358E0,5.475706E0,2.8601313E0,9.558278E0,1.1376595E0,2.9434328E0,1.0214113E0,4.4542947E0,1.7505689E0,1.1095624E0,8.523435E0,1.0348433E0,1.8885694E0,1.0548636E0,7.2820816E0,1.2413529E0,6.0088806E0,1.273201E0],"tree_param":{"num_deleted":"0","num_feature":"197","num_nodes":"25","size_leaf_vector":"1"}},{"base_weights":[-5.1792255E-3,-3.3092445E-1,3.181907E-1,2.3451273E-1,-8.6138684E-1,-3.8239935E-1,5.2960056E-1,5.6313264E-1,-1.7380677E-1,-6.607881E-2,-2.8738767E-1,-2.27836E-1,6.44794E-2,-1.0964415E-1,7.82932E-1,-1.5540679E-2,2.6708883E-1,9.2915726E-1,-1.9524917E-2,3.114853E-1,5.234584E-2],"categories":[],"categories_nodes":[],"categories_segments":[],"categories_sizes":[],"default_left":[0,0,0,0,0,0,0,0,0,0,0,0,0,0,0,0,0,0,0,0,0],"id":7,"left_children":[1,3,5,7,9,11,13,15,-1,-1,-1,-1,-1,-1,17,-1,-1,19,-1,-1,-1],"loss_changes":[2.517242E0,3.7704568E0,1.979932E0,2.0766597E0,1.8230295E-1,9.205583E-1,2.4715774E0,1.0861052E0,0E0,0E0,0E0,0E0,0E0,0E0,1.0314207E0,0E0,0E0,3.7423754E-1,0E0,0E0,0E0],"parents":[2147483647,0,0,1,1,2,2,3,3,4,4,5,5,6,6,7,7,14,14,17,17],"right_children":[2,4,6,8,10,12,14,16,-1,-1,-1,-1,-1,-1,18,-1,-1,20,-1,-1,-1],"split_conditions":[1.21895865E-1,-2.2838828E-1,-1.5260319E0,-9.519079E-2,-6.581719E-1,8.212725E-1,-8.8197505E-1,-1.186718E-1,-1.7380677E-1,-6.607881E-2,-2.8738767E-1,-2.27836E-1,6.44794E-2,-1.0964415E-1,1.5208406E0,-1.5540679E-2,2.6708883E-1,1.1494328E0,-1.9524917E-2,3.114853E-1,5.234584E-2],"split_indices":[69,81,56,113,125,18,120,192,0,0,0,0,0,0,190,0,0,164,0,0,0],"split_type":[0,0,0,0,0,0,0,0,0,0,0,0,0,0,0,0,0,0,0,0,0],"sum_hessian":[2.1897587E1,1.0897091E1,1.1000496E1,5.544711E0,5.3523793E0,2.3625264E0,8.63797E0,4.169322E0,1.3753893E0,1.1301738E0,4.2222056E0,1.2819238E0,1.0806025E0,1.8078175E0,6.830152E0,1.7401693E0,2.4291525E0,5.7440133E0,1.0861387E0,4.6900163E0,1.0539969E0],"tree_param":{"num_deleted":"0","num_feature":"197","num_nodes":"21","size_leaf_vector":"1"}},{"base_weights":[-1.2222019E-2,3.2176715E-1,-2.8693733E-1,-1.09000355E-1,5.030464E-1,-6.5913206E-1,8.520892E-2,7.233378E-2,2.575525E-1,-2.579084E-1,4.763383E-2,1.9239473E-1,-3.5910958E-1,4.978295E-1,-1.4929071E-1,-1.9081442E-1,6.517695E-2,2.7487919E-2,1.9236583E-1],"categories":[],"categories_nodes":[],"categories_segments":[],"categories_sizes":[],"default_left":[0,0,0,0,0,0,0,0,0,0,0,0,0,0,0,0,0,0,0],"id":8,"left_children":[1,3,5,-1,7,9,11,13,-1,-1,-1,-1,15,17,-1,-1,-1,-1,-1],"loss_changes":[1.9727772E0,1.3900696E0,1.6869843E0,0E0,1.1790013E0,1.1209307E0,1.9038044E0,1.401459E0,0E0,0E0,0E0,0E0,8.414443E-1,1.2901491E-1,0E0,0E0,0E0,0E0,0E0],"parents":[2147483647,0,0,1,1,2,2,4,4,5,5,6,6,7,7,12,12,13,13],"right_children":[2,4,6,-1,8,10,12,14,-1,-1,-1,-1,16,18,-1,-1,-1,-1,-1],"split_conditions":[-3.2425225E-1,-1.1106565E0,1.8035413E-1,-1.09000355E-1,-7.744948E-1,5.268618E-1,2.7519822E-1,-5.1369317E-2,2.575525E-1,-2.579084E-1,4.763383E-2,1.9239473E-1,6.4279276E-1,-4.5531487E-1,-1.4929071E-1,-1.9081442E-1,6.517695E-2,2.7487919E-2,1.9236583E-1],"split_indices":[35,96,69,0,113,152,87,168,0,0,0,0,97,178,0,0,0,0,0],"split_type":[0,0,0,0,0,0,0,0,0,0,0,0,0,0,0,0,0,0,0],"sum_hessian":[1.9494938E1,8.72099E0,1.0773949E1,1.6146235E0,7.106367E0,5.0010657E0,5.7728825E0,3.75723E0,3.3491368E0,3.9752083E0,1.0258576E0,2.3669944E0,3.405888E0,2.2237306E0,1.5334995E0,2.230571E0,1.175317E0,1.0077945E0,1.2159361E0],"tree_param":{"num_deleted":"0","num_feature":"197","num_nodes":"19","size_leaf_vector":"1"}},{"base_weights":[-5.8329646E-3,-5.411273E-1,1.264592E-1,-3.0620558E-2,-1.9817428E-1,3.4908614E-1,-1.7846349E-1,-1.0335359E-1,5.072034E-1,1.2924679E-1,-4.1000152E-1,7.262965E-1,-3.65058E-2,-6.7834526E-1,9.362995E-2,2.759443E-1,6.109788E-2,-6.460844E-2,-2.2901104E-1],"categories":[],"categories_nodes":[],"categories_segments":[],"categories_sizes":[],"default_left":[0,0,0,0,0,0,0,0,0,0,0,0,0,0,0,0,0,0,0],"id":9,"left_children":[1,3,5,-1,-1,7,9,-1,11,-1,13,15,-1,17,-1,-1,-1,-1,-1],"loss_changes":[1.3886864E0,1.3627732E-1,1.1321319E0,0E0,0E0,1.2108296E0,1.2082114E0,0E0,1.2041662E0,0E0,1.3377407E0,4.3460083E-1,0E0,1.4781952E-2,0E0,0E0,0E0,0E0,0E0],"parents":[2147483647,0,0,1,1,2,2,5,5,6,6,8,8,10,10,11,11,13,13],"right_children":[2,4,6,-1,-1,8,10,-1,12,-1,14,16,-1,18,-1,-1,-1,-1,-1],"split_conditions":[-7.336583E-1,-7.2542083E-1,-1.7331867E-1,-3.0620558E-2,-1.9817428E-1,-1.4668171E0,-6.5144104E-1,-1.0335359E-1,8.664946E-1,1.2924679E-1,1.0170636E0,1.8156053E-1,-3.65058E-2,-6.158851E-1,9.362995E-2,2.759443E-1,6.109788E-2,-6.460844E-2,-2.2901104E-1],"split_indices":[10,170,74,0,0,76,187,0,124,0,174,164,0,193,0,0,0,0,0],"split_type":[0,0,0,0,0,0,0,0,0,0,0,0,0,0,0,0,0,0,0],"sum_hessian":[1.7643665E1,2.8839462E0,1.475972E1,1.013442E0,1.8705043E0,8.447376E0,6.3123436E0,1.3493726E0,7.0980034E0,1.5012214E0,4.8111224E0,5.1492243E0,1.9487792E0,3.5518112E0,1.2593112E0,3.2032146E0,1.9460095E0,1.0992131E0,2.452598E0],"tree_param":{"num_deleted":"0","num_feature":"197","num_nodes":"19","size_leaf_vector":"1"}},{"base_weights":[-9.360476E-3,-4.4294244E-1,1.4156124E-1,-1.924406E-1,1.8871702E-2,-2.5479266E-1,3.7422433E-1,2.1727613E-1,-1.8765391E-1,-1.0871072E-1,6.150897E-1,1.5101656E-1,-5.3956334E-2,2.436543E-1,-4.2431178E-3],"categories":[],"categories_nodes":[],"categories_segments":[],"categories_sizes":[],"default_left":[0,0,0,0,0,0,0,0,0,0,0,0,0,0,0],"id":10,"left_children":[1,3,5,-1,-1,7,9,11,-1,-1,13,-1,-1,-1,-1],"loss_changes":[1.1938215E0,5.128899E-1,1.3476739E0,0E0,0E0,1.119095E0,1.8129563E0,4.5565766E-1,0E0,0E0,8.950341E-1,0E0,0E0,0E0,0E0],"parents":[2147483647,0,0,1,1,2,2,5,5,6,6,7,7,10,10],"right_children":[2,4,6,-1,-1,8,10,12,-1,-1,14,-1,-1,-1,-1],"split_conditions":[-7.6416385E-1,5.3146947E-2,-3.4330893E-1,-1.924406E-1,1.8871702E-2,-4.528832E-1,-1.5260319E0,5.451165E-1,-1.8765391E-1,-1.0871072E-1,7.693686E-1,1.5101656E-1,-5.3956334E-2,2.436543E-1,-4.2431178E-3],"split_indices":[120,146,69,0,0,81,56,45,0,0,113,0,0,0,0],"split_type":[0,0,0,0,0,0,0,0,0,0,0,0,0,0,0],"sum_hessian":[1.6285624E1,3.705423E0,1.2580199E1,2.4685183E0,1.2369049E0,4.6180286E0,7.9621706E0,2.2134144E0,2.4046144E0,1.8377323E0,6.1244383E0,1.1310127E0,1.0824016E0,4.442266E0,1.6821725E0],"tree_param":{"num_deleted":"0","num_feature":"197","num_nodes":"15","size_leaf_vector":"1"}},{"base_weights":[-1.3417413E-2,-2.3303565E-1,2.920228E-1,2.8635696E-1,-4.386128E-1,-1.755931E-1,5.40947E-1,-3.682724E-2,1.5706545E-1,6.718736E-2,-6.377172E-1,6.3919514E-2,-1.5596673E-1,-1.0494649E-2,2.1067803E-1,-2.3199102E-1,-4.032719E-3],"categories":[],"categories_nodes":[],"categories_segments":[],"categories_sizes":[],"default_left":[0,0,0,0,0,0,0,0,0,0,0,0,0,0,0,0,0],"id":11,"left_children":[1,3,5,7,9,11,13,-1,-1,-1,15,-1,-1,-1,-1,-1,-1],"loss_changes":[1.1370547E0,1.1748444E0,9.2254084E-1,3.933821E-1,1.1236713E0,5.422878E-1,4.7838354E-1,0E0,0E0,0E0,4.955201E-1,0E0,0E0,0E0,0E0,0E0,0E0],"parents":[2147483647,0,0,1,1,2,2,3,3,4,4,5,5,6,6,10,10],"right_children":[2,4,6,8,10,12,14,-1,-1,-1,16,-1,-1,-1,-1,-1,-1],"split_conditions":[3.2472983E-1,-6.725483E-1,-3.4005207E-1,-4.857785E-1,-8.84585E-1,-6.3776565E-1,-7.8691304E-1,-3.682724E-2,1.5706545E-1,6.718736E-2,3.694728E-1,6.3919514E-2,-1.5596673E-1,-1.0494649E-2,2.1067803E-1,-2.3199102E-1,-4.032719E-3],"split_indices":[88,151,165,174,191,129,164,0,0,0,10,0,0,0,0,0,0],"split_type":[0,0,0,0,0,0,0,0,0,0,0,0,0,0,0,0,0],"sum_hessian":[1.4936183E1,8.826666E0,6.1095176E0,2.3915217E0,6.435144E0,2.2247715E0,3.8847458E0,1.0547478E0,1.3367739E0,1.4581041E0,4.97704E0,1.2241023E0,1.0006692E0,1.021362E0,2.8633838E0,3.8928328E0,1.084207E0],"tree_param":{"num_deleted":"0","num_feature":"197","num_nodes":"17","size_leaf_vector":"1"}},{"base_weights":[-7.835341E-3,-2.7269775E-1,1.9004393E-1,-5.2922356E-1,1.2696855E-1,-3.941136E-2,1.8937814E-1,-2.0246361E-1,-1.7696E-2,1.2631428E-1,-7.9231404E-2,3.2322738E-1,-3.1556532E-1,-3.6639318E-2,1.7457578E-1,-5.1841104E-1,4.9070317E-2,-1.9786748E-1,-3.6505233E-2],"categories":[],"categories_nodes":[],"categories_segments":[],"categories_sizes":[],"default_left":[0,0,0,0,0,0,0,0,0,0,0,0,0,0,0,0,0,0,0],"id":12,"left_children":[1,3,5,7,9,11,-1,-1,-1,-1,-1,13,15,-1,-1,17,-1,-1,-1],"loss_changes":[8.2735234E-1,7.5803524E-1,9.419891E-1,2.545421E-1,5.0690436E-1,7.9307246E-1,0E0,0E0,0E0,0E0,0E0,4.716869E-1,5.147188E-1,0E0,0E0,1.07200325E-1,0E0,0E0,0E0],"parents":[2147483647,0,0,1,1,2,2,3,3,4,4,5,5,11,11,12,12,15,15],"right_children":[2,4,6,8,10,12,-1,-1,-1,-1,-1,14,16,-1,-1,18,-1,-1,-1],"split_conditions":[-4.9805427E-1,1.7207688E-1,4.6897462E-1,3.3110252E-1,7.606043E-1,1.9979527E-2,1.8937814E-1,-2.0246361E-1,-1.7696E-2,1.2631428E-1,-7.9231404E-2,-3.9522955E-1,1.6818146E0,-3.6639318E-2,1.7457578E-1,-2.2420962E-1,4.9070317E-2,-1.9786748E-1,-3.6505233E-2],"split_indices":[7,117,174,10,138,7,0,0,0,0,0,127,7,0,0,29,0,0,0],"split_type":[0,0,0,0,0,0,0,0,0,0,0,0,0,0,0,0,0,0,0],"sum_hessian":[1.3797104E1,5.7382827E0,8.058822E0,3.2975724E0,2.4407103E0,5.9007854E0,2.1580362E0,2.1854455E0,1.1121268E0,1.3493673E0,1.0913429E0,2.4772542E0,3.4235313E0,1.1041914E0,1.3730628E0,2.3476522E0,1.0758791E0,1.2429407E0,1.1047117E0],"tree_param":{"num_deleted":"0","num_feature":"197","num_nodes":"19","size_leaf_vector":"1"}},{"base_weights":[-8.7407E-3,-2.3391382E-1,2.0643559E-1,2.0287263E-1,-6.017394E-1,-6.7817144E-2,3.974872E-1,-1.1221118E-1,1.6587266E-1,-2.3171222E-2,-2.2366463E-1,1.9173837E-1,-1.1190147E-2],"categories":[],"categories_nodes":[],"categories_segments":[],"categories_sizes":[],"default_left":[0,0,0,0,0,0,0,0,0,0,0,0,0],"id":13,"left_children":[1,3,5,7,9,-1,11,-1,-1,-1,-1,-1,-1],"loss_changes":[7.1886575E-1,1.2839354E0,7.185192E-1,1.025435E0,2.575482E-1,0E0,6.1636055E-1,0E0,0E0,0E0,0E0,0E0,0E0],"parents":[2147483647,0,0,1,1,2,2,3,3,4,4,6,6],"right_children":[2,4,6,8,10,-1,12,-1,-1,-1,-1,-1,-1],"split_conditions":[1.21895865E-1,-4.2732105E-1,-5.190192E-1,-8.100043E-1,-5.104307E-1,-6.7817144E-2,6.7778796E-1,-1.1221118E-1,1.6587266E-1,-2.3171222E-2,-2.2366463E-1,1.9173837E-1,-1.1190147E-2],"split_indices":[69,81,148,93,47,0,87,0,0,0,0,0,0],"split_type":[0,0,0,0,0,0,0,0,0,0,0,0,0],"sum_hessian":[1.2840064E1,6.231733E0,6.6083317E0,3.053824E0,3.1779087E0,1.9686278E0,4.6397038E0,1.1273016E0,1.9265223E0,1.0145866E0,2.1633222E0,2.680174E0,1.9595295E0],"tree_param":{"num_deleted":"0","num_feature":"197","num_nodes":"13","size_leaf_vector":"1"}},{"base_weights":[-1.3056361E-2,2.3212463E-1,-2.0977856E-1,4.1815332E-1,-6.1160948E-2,9.454025E-2,-4.6167207E-1,-4.8408054E-2,1.9251871E-1,-1.02134034E-1,3.445513E-1,-1.9484888E-1,2.3048041E-2,-2.0271486E-2,1.6990384E-1],"categories":[],"categories_nodes":[],"categories_segments":[],"categories_sizes":[],"default_left":[0,0,0,0,0,0,0,0,0,0,0,0,0,0,0],"id":14,"left_children":[1,3,5,7,-1,9,11,-1,-1,-1,13,-1,-1,-1,-1],"loss_changes":[6.710753E-1,5.8966297E-1,6.327219E-1,7.1080714E-1,0E0,5.8604294E-1,4.923452E-1,0E0,0E0,0E0,3.3388436E-1,0E0,0E0,0E0,0E0],"parents":[2147483647,0,0,1,1,2,2,3,3,5,5,6,6,10,10],"right_children":[2,4,6,8,-1,10,12,-1,-1,-1,14,-1,-1,-1,-1],"split_conditions":[-3.2425225E-1,4.359294E-1,-3.2673398E-1,-1.3953756E0,-6.1160948E-2,-4.83189E-1,9.5898837E-1,-4.8408054E-2,1.9251871E-1,-1.02134034E-1,2.3363931E-1,-1.9484888E-1,2.3048041E-2,-2.0271486E-2,1.6990384E-1],"split_indices":[35,28,145,37,0,10,174,0,0,0,97,0,0,0,0],"split_type":[0,0,0,0,0,0,0,0,0,0,0,0,0,0,0],"sum_hessian":[1.19037485E1,5.219083E0,6.684666E0,3.686892E0,1.5321906E0,3.3102057E0,3.3744602E0,1.103881E0,2.5830112E0,1.0761377E0,2.234068E0,2.3490176E0,1.0254427E0,1.0249404E0,1.2091275E0],"tree_param":{"num_deleted":"0","num_feature":"197","num_nodes":"15","size_leaf_vector":"1"}},{"base_weights":[-1.2197113E-2,-3.5986665E-1,1.1668064E-1,-1.5911113E-1,9.893299E-3,4.0564343E-1,-9.414162E-2,1.656019E-1,-9.269837E-4,-2.8445524E-1,1.095543E-1,1.2720456E-2,-4.880877E-1,-3.658865E-2,-1.8228814E-1],"categories":[],"categories_nodes":[],"categories_segments":[],"categories_sizes":[],"default_left":[0,0,0,0,0,0,0,0,0,0,0,0,0,0,0],"id":15,"left_children":[1,3,5,-1,-1,7,9,-1,-1,11,-1,-1,13,-1,-1],"loss_changes":[5.8144844E-1,2.5198275E-1,6.192892E-1,0E0,0E0,2.536862E-1,6.5693E-1,0E0,0E0,3.5584593E-1,0E0,0E0,6.517726E-2,0E0,0E0],"parents":[2147483647,0,0,1,1,2,2,5,5,6,6,9,9,12,12],"right_children":[2,4,6,-1,-1,8,10,-1,-1,12,-1,-1,14,-1,-1],"split_conditions":[-7.6416385E-1,-2.898361E-1,-9.342567E-2,-1.5911113E-1,9.893299E-3,4.006409E-1,3.6667737E-1,1.656019E-1,-9.269837E-4,-1.3978194E-1,1.095543E-1,1.2720456E-2,7.5094685E-2,-3.658865E-2,-1.8228814E-1],"split_indices":[120,126,189,0,0,28,134,0,0,170,0,0,191,0,0],"split_type":[0,0,0,0,0,0,0,0,0,0,0,0,0,0,0],"sum_hessian":[1.1039649E1,2.5008562E0,8.538794E0,1.4998206E0,1.0010356E0,3.2120736E0,5.3267198E0,2.1070378E0,1.1050358E0,4.0354123E0,1.2913071E0,1.8529538E0,2.1824586E0,1.0344402E0,1.1480186E0],"tree_param":{"num_deleted":"0","num_feature":"197","num_nodes":"15","size_leaf_vector":"1"}},{"base_weights":[-1.6415218E-2,-2.2485094E-1,1.7424576E-1,-4.909363E-1,6.370845E-2,-6.318697E-2,3.7905893E-1,-7.5996085E-3,-2.0447107E-1,1.7532973E-1,-3.390601E-2],"categories":[],"categories_nodes":[],"categories_segments":[],"categories_sizes":[],"default_left":[0,0,0,0,0,0,0,0,0,0,0],"id":16,"left_children":[1,3,5,7,-1,-1,9,-1,-1,-1,-1],"loss_changes":[4.9697906E-1,7.9528224E-1,5.984982E-1,3.3729202E-1,0E0,0E0,5.361453E-1,0E0,0E0,0E0,0E0],"parents":[2147483647,0,0,1,1,2,2,3,3,6,6],"right_children":[2,4,6,8,-1,-1,10,-1,-1,-1,-1],"split_conditions":[1.21895865E-1,1.9389331E-1,-2.3019077E-1,-4.897901E-1,6.370845E-2,-6.318697E-2,-4.1601276E-1,-7.5996085E-3,-2.0447107E-1,1.7532973E-1,-3.390601E-2],"split_indices":[69,54,158,109,0,0,90,0,0,0,0],"split_type":[0,0,0,0,0,0,0,0,0,0,0],"sum_hessian":[1.0519711E1,4.939926E0,5.579784E0,2.9945683E0,1.945358E0,1.9281627E0,3.6516213E0,1.1990037E0,1.7955645E0,2.4439406E0,1.2076806E0],"tree_param":{"num_deleted":"0","num_feature":"197","num_nodes":"11","size_leaf_vector":"1"}},{"base_weights":[-1.9450512E-2,-1.490769E-1,2.704759E-1,9.713845E-2,-2.624735E-1,-1.8138913E-2,1.6209881E-1,-4.1174966E-1,6.149729E-2,5.3506084E-2,-5.738259E-1,-3.5203077E-2,-2.1614712E-1],"categories":[],"categories_nodes":[],"categories_segments":[],"categories_sizes":[],"default_left":[0,0,0,0,0,0,0,0,0,0,0,0,0],"id":17,"left_children":[1,3,5,-1,7,-1,-1,9,-1,-1,11,-1,-1],"loss_changes":[4.5095846E-1,5.244316E-1,3.6588264E-1,0E0,5.842056E-1,0E0,0E0,6.533525E-1,0E0,0E0,2.339282E-1,0E0,0E0],"parents":[2147483647,0,0,1,1,2,2,4,4,7,7,10,10],"right_children":[2,4,6,-1,8,-1,-1,10,-1,-1,12,-1,-1],"split_conditions":[4.793762E-1,-1.0853194E0,1.21895865E-1,9.713845E-2,5.483537E-1,-1.8138913E-2,1.6209881E-1,-6.8627834E-1,6.149729E-2,5.3506084E-2,-1.0525658E0,-3.5203077E-2,-2.1614712E-1],"split_indices":[174,188,69,0,86,0,0,151,0,0,109,0,0],"split_type":[0,0,0,0,0,0,0,0,0,0,0,0,0],"sum_hessian":[9.926388E0,7.1952124E0,2.7311757E0,1.032828E0,6.1623845E0,1.5752655E0,1.1559101E0,4.7611756E0,1.401209E0,1.0042762E0,3.7568996E0,1.3512664E0,2.4056332E0],"tree_param":{"num_deleted":"0","num_feature":"197","num_nodes":"13","size_leaf_vector":"1"}},{"base_weights":[-6.745313E-3,2.1190193E-1,-1.859202E-1,-3.6283836E-2,4.2907822E-1,-3.747762E-1,5.073007E-2,3.891732E-2,1.6652659E-1,2.7942706E-3,-1.7148341E-1],"categories":[],"categories_nodes":[],"categories_segments":[],"categories_sizes":[],"default_left":[0,0,0,0,0,0,0,0,0,0,0],"id":18,"left_children":[1,3,5,-1,7,9,-1,-1,-1,-1,-1],"loss_changes":[4.4503933E-1,4.2278606E-1,4.806469E-1,0E0,5.3409398E-2,3.3596188E-1,0E0,0E0,0E0,0E0,0E0],"parents":[2147483647,0,0,1,1,2,2,4,4,5,5],"right_children":[2,4,6,-1,8,10,-1,-1,-1,-1,-1],"split_conditions":[-3.2425225E-1,-5.330459E-1,6.424859E-1,-3.6283836E-2,2.786774E-1,-3.1388826E-3,5.073007E-2,3.891732E-2,1.6652659E-1,2.7942706E-3,-1.7148341E-1],"split_indices":[35,153,186,0,71,161,0,0,0,0,0],"split_type":[0,0,0,0,0,0,0,0,0,0,0],"sum_hessian":[9.354337E0,4.1308293E0,5.223508E0,1.806008E0,2.3248212E0,3.3733695E0,1.8501384E0,1.2899214E0,1.0348998E0,1.4657962E0,1.9075733E0],"tree_param":{"num_deleted":"0","num_feature":"197","num_nodes":"11","size_leaf_vector":"1"}},{"base_weights":[-2.949664E-4,-2.854174E-1,1.3179474E-1,-1.48187E-1,2.847627E-2,3.0779976E-1,-7.100184E-2,-3.9446842E-2,4.4326064E-1,1.7505096E-1,3.2320525E-3],"categories":[],"categories_nodes":[],"categories_segments":[],"categories_sizes":[],"default_left":[0,0,0,0,0,0,0,0,0,0,0],"id":19,"left_children":[1,3,5,-1,-1,7,-1,-1,9,-1,-1],"loss_changes":[4.1420472E-1,3.2303593E-1,5.6037813E-1,0E0,0E0,3.868873E-1,0E0,0E0,2.635849E-1,0E0,0E0],"parents":[2147483647,0,0,1,1,2,2,5,5,8,8],"right_children":[2,4,6,-1,-1,8,-1,-1,10,-1,-1],"split_conditions":[-7.482429E-1,-1.5989858E-1,5.770833E-1,-1.48187E-1,2.847627E-2,-7.513245E-1,-7.100184E-2,-3.9446842E-2,-1.0717522E-1,1.7505096E-1,3.2320525E-3],"split_indices":[37,151,28,0,0,157,0,0,135,0,0],"split_type":[0,0,0,0,0,0,0,0,0,0,0],"sum_hessian":[8.999225E0,2.4816563E0,6.517568E0,1.4098867E0,1.0717696E0,4.522138E0,1.9954302E0,1.072717E0,3.449421E0,2.341094E0,1.1083269E0],"tree_param":{"num_deleted":"0","num_feature":"197","num_nodes":"11","size_leaf_vector":"1"}},{"base_weights":[-4.3834085E-3,-1.1987849E-1,8.857023E-2,5.2800916E-2,-1.3754115E-1,-1.8893534E-1,1.0866224E-1,2.367974E-2,-1.4790745E-1],"categories":[],"categories_nodes":[],"categories_segments":[],"categories_sizes":[],"default_left":[0,0,0,0,0,0,0,0,0],"id":20,"left_children":[1,3,-1,5,-1,7,-1,-1,-1],"loss_changes":[3.667387E-1,4.6987352E-1,0E0,5.130665E-1,0E0,3.6429036E-1,0E0,0E0,0E0],"parents":[2147483647,0,0,1,1,3,3,5,5],"right_children":[2,4,-1,6,-1,8,-1,-1,-1],"split_conditions":[7.7969944E-1,5.693224E-1,8.857023E-2,-1.134968E-1,-1.3754115E-1,-4.4569722E-1,1.0866224E-1,2.367974E-2,-1.4790745E-1],"split_indices":[147,113,0,185,0,109,0,0,0],"split_type":[0,0,0,0,0,0,0,0,0],"sum_hessian":[8.575285E0,6.622407E0,1.9528782E0,4.9447026E0,1.6777045E0,2.9944952E0,1.9502074E0,1.9857277E0,1.0087674E0],"tree_param":{"num_deleted":"0","num_feature":"197","num_nodes":"9","size_leaf_vector":"1"}},{"base_weights":[-1.1238778E-2,-1.3602474E-1,2.5397268E-1,6.4693235E-2,-2.8823784E-1,-2.816045E-2,1.3825312E-1,-4.6170688E-1,1.6140489E-2,-4.095069E-2,-1.6365153E-1],"categories":[],"categories_nodes":[],"categories_segments":[],"categories_sizes":[],"default_left":[0,0,0,0,0,0,0,0,0,0,0],"id":21,"left_children":[1,3,5,-1,7,-1,-1,9,-1,-1,-1],"loss_changes":[3.3946842E-1,4.3240303E-1,2.8049254E-1,0E0,3.366562E-1,0E0,0E0,2.3405075E-2,0E0,0E0,0E0],"parents":[2147483647,0,0,1,1,2,2,4,4,7,7],"right_children":[2,4,6,-1,8,-1,-1,10,-1,-1,-1],"split_conditions":[4.793762E-1,-7.637515E-1,-5.021302E-1,6.4693235E-2,2.1716958E-1,-2.816045E-2,1.3825312E-1,-3.7498358E-1,1.6140489E-2,-4.095069E-2,-1.6365153E-1],"split_indices":[174,110,7,0,172,0,0,35,0,0,0],"split_type":[0,0,0,0,0,0,0,0,0,0,0],"sum_hessian":[8.213624E0,5.916793E0,2.2968311E0,1.6614653E0,4.2553277E0,1.0602813E0,1.2365499E0,2.5912716E0,1.6640561E0,1.0695386E0,1.5217329E0],"tree_param":{"num_deleted":"0","num_feature":"197","num_nodes":"11","size_leaf_vector":"1"}},{"base_weights":[-1.0363106E-2,2.0376669E-1,-1.6685708E-1,-4.3475296E-2,3.7860057E-1,-3.574957E-1,5.29449E-2,3.0681495E-2,1.4085272E-1,-1.514705E-1,9.988197E-3],"categories":[],"categories_nodes":[],"categories_segments":[],"categories_sizes":[],"default_left":[0,0,0,0,0,0,0,0,0,0,0],"id":22,"left_children":[1,3,5,-1,7,9,-1,-1,-1,-1,-1],"loss_changes":[3.3235064E-1,3.114903E-1,4.357692E-1,0E0,2.936846E-2,2.4673897E-1,0E0,0E0,0E0,0E0,0E0],"parents":[2147483647,0,0,1,1,2,2,4,4,5,5],"right_children":[2,4,6,-1,8,10,-1,-1,-1,-1,-1],"split_conditions":[-3.2673398E-1,-5.572697E-1,4.9066648E-1,-4.3475296E-2,2.1060812E-1,4.059775E-1,5.29449E-2,3.0681495E-2,1.4085272E-1,-1.514705E-1,9.988197E-3],"split_indices":[145,138,69,0,172,93,0,0,0,0,0],"split_type":[0,0,0,0,0,0,0,0,0,0,0],"sum_hessian":[7.9033294E0,3.209591E0,4.6937385E0,1.129018E0,2.0805728E0,2.9914916E0,1.7022467E0,1.0410756E0,1.0394974E0,1.9601275E0,1.0313642E0],"tree_param":{"num_deleted":"0","num_feature":"197","num_nodes":"11","size_leaf_vector":"1"}},{"base_weights":[-3.6692817E-3,-1.2186491E-1,2.4308227E-1,8.026116E-2,-1.21430166E-1,1.3108082E-1,-2.0868912E-2,1.0629414E-1,-1.3878123E-1,3.3048213E-2,-9.744202E-2],"categories":[],"categories_nodes":[],"categories_segments":[],"categories_sizes":[],"default_left":[0,0,0,0,0,0,0,0,0,0,0],"id":23,"left_children":[1,3,5,7,-1,-1,-1,-1,9,-1,-1],"loss_changes":[2.801905E-1,4.02738E-1,2.1927297E-1,3.259768E-1,0E0,0E0,0E0,0E0,1.8773876E-1,0E0,0E0],"parents":[2147483647,0,0,1,1,2,2,3,3,8,8],"right_children":[2,4,6,8,-1,-1,-1,-1,10,-1,-1],"split_conditions":[4.793762E-1,-4.978973E-2,-1.3522595E-1,-1.984619E-1,-1.21430166E-1,1.3108082E-1,-2.0868912E-2,1.0629414E-1,-6.6679224E-2,3.3048213E-2,-9.744202E-2],"split_indices":[174,174,35,168,0,0,0,0,189,0,0],"split_type":[0,0,0,0,0,0,0,0,0,0,0],"sum_hessian":[7.5913835E0,5.4749627E0,2.1164203E0,3.6111717E0,1.8637911E0,1.0610052E0,1.0554152E0,1.3298213E0,2.2813504E0,1.1500956E0,1.1312548E0],"tree_param":{"num_deleted":"0","num_feature":"197","num_nodes":"11","size_leaf_vector":"1"}},{"base_weights":[1.0914025E-3,-1.0606283E-1,8.182177E-2,5.2509777E-2,-2.3706084E-1,-1.4637582E-1,7.22429E-2,9.449635E-2,-6.0186744E-2],"categories":[],"categories_nodes":[],"categories_segments":[],"categories_sizes":[],"default_left":[0,0,0,0,0,0,0,0,0],"id":24,"left_children":[1,3,-1,-1,5,-1,7,-1,-1],"loss_changes":[2.7005422E-1,2.867531E-1,0E0,0E0,4.2072174E-1,0E0,2.6825264E-1,0E0,0E0],"parents":[2147483647,0,0,1,1,4,4,6,6],"right_children":[2,4,-1,-1,6,-1,8,-1,-1],"split_conditions":[8.138989E-1,-5.720393E-1,8.182177E-2,5.2509777E-2,1.063963E-1,-1.4637582E-1,-6.6679224E-2,9.449635E-2,-6.0186744E-2],"split_indices":[188,193,0,0,193,0,189,0,0],"split_type":[0,0,0,0,0,0,0,0,0],"sum_hessian":[7.283803E0,5.660514E0,1.6232892E0,1.6925324E0,3.9679813E0,1.8721286E0,2.0958526E0,1.0274488E0,1.068404E0],"tree_param":{"num_deleted":"0","num_feature":"197","num_nodes":"9","size_leaf_vector":"1"}},{"base_weights":[2.6570742E-3,-2.0876274E-1,1.335904E-1,-1.2830922E-1,3.662483E-2,-9.712617E-2,3.5193098E-1,-8.5903674E-2,5.5208325E-2,1.9550093E-2,1.4086625E-1],"categories":[],"categories_nodes":[],"categories_segments":[],"categories_sizes":[],"default_left":[0,0,0,0,0,0,0,0,0,0,0],"id":25,"left_children":[1,3,5,-1,-1,7,9,-1,-1,-1,-1],"loss_changes":[2.4979346E-1,3.025472E-1,3.1427604E-1,0E0,0E0,2.382136E-1,7.30536E-2,0E0,0E0,0E0,0E0],"parents":[2147483647,0,0,1,1,2,2,5,5,6,6],"right_children":[2,4,6,-1,-1,8,10,-1,-1,-1,-1],"split_conditions":[-3.29661E-1,1.1983273E-1,6.6286735E-2,-1.2830922E-1,3.662483E-2,-3.8880795E-1,2.655254E-2,-8.5903674E-2,5.5208325E-2,1.9550093E-2,1.4086625E-1],"split_indices":[192,54,161,0,0,150,193,0,0,0,0],"split_type":[0,0,0,0,0,0,0,0,0,0,0],"sum_hessian":[7.016241E0,2.4560323E0,4.560209E0,1.301821E0,1.1542114E0,2.487196E0,2.073013E0,1.475622E0,1.0115739E0,1.05499E0,1.0180229E0],"tree_param":{"num_deleted":"0","num_feature":"197","num_nodes":"11","size_leaf_vector":"1"}},{"base_weights":[6.741381E-3,-1.6447373E-1,1.7249775E-1,4.951634E-2,-1.17712386E-1,1.14861295E-1,-3.0182019E-2],"categories":[],"categories_nodes":[],"categories_segments":[],"categories_sizes":[],"default_left":[0,0,0,0,0,0,0],"id":26,"left_children":[1,3,5,-1,-1,-1,-1],"loss_changes":[2.4846436E-1,3.8969728E-1,2.9295486E-1,0E0,0E0,0E0,0E0],"parents":[2147483647,0,0,1,1,2,2],"right_children":[2,4,6,-1,-1,-1,-1],"split_conditions":[1.8035413E-1,-4.4569722E-1,4.069435E-1,4.951634E-2,-1.17712386E-1,1.14861295E-1,-3.0182019E-2],"split_indices":[69,109,87,0,0,0,0],"split_type":[0,0,0,0,0,0,0],"sum_hessian":[6.7552176E0,3.3266997E0,3.4285176E0,1.4728408E0,1.8538591E0,1.7096486E0,1.718869E0],"tree_param":{"num_deleted":"0","num_feature":"197","num_nodes":"7","size_leaf_vector":"1"}},{"base_weights":[6.9440007E-3,-7.113077E-2,1.23552136E-1,2.879872E-1,-6.010364E-2,4.0320256E-1,-1.2193816E-2,3.57825E-2,1.4525501E-1],"categories":[],"categories_nodes":[],"categories_segments":[],"categories_sizes":[],"default_left":[0,0,0,0,0,0,0,0,0],"id":27,"left_children":[1,-1,3,5,-1,7,-1,-1,-1],"loss_changes":[2.4353288E-1,0E0,3.6402956E-1,1.7636845E-1,0E0,1.6284585E-2,0E0,0E0,0E0],"parents":[2147483647,0,0,2,2,3,3,5,5],"right_children":[2,-1,4,6,-1,8,-1,-1,-1],"split_conditions":[-7.482429E-1,-7.113077E-2,5.770833E-1,4.3215102E-1,-6.010364E-2,2.3013131E-1,-1.2193816E-2,3.57825E-2,1.4525501E-1],"split_indices":[37,0,28,191,0,97,0,0,0],"split_type":[0,0,0,0,0,0,0,0,0],"sum_hessian":[6.5282784E0,1.7766467E0,4.7516317E0,3.225163E0,1.5264686E0,2.219961E0,1.005202E0,1.0414394E0,1.1785214E0],"tree_param":{"num_deleted":"0","num_feature":"197","num_nodes":"9","size_leaf_vector":"1"}},{"base_weights":[1.1047895E-2,1.8463004E-1,-1.4024827E-1,1.08488806E-1,-3.508796E-2,-1.03173375E-1,7.209736E-2,-4.1185293E-2,7.345831E-2],"categories":[],"categories_nodes":[],"categories_segments":[],"categories_sizes":[],"default_left":[0,0,0,0,0,0,0,0,0],"id":28,"left_children":[1,3,5,-1,-1,-1,7,-1,-1],"loss_changes":[2.1859963E-1,2.4775404E-1,2.1892385E-1,0E0,0E0,0E0,1.4301413E-1,0E0,0E0],"parents":[2147483647,0,0,1,1,2,2,6,6],"right_children":[2,4,6,-1,-1,-1,8,-1,-1],"split_conditions":[-3.2425225E-1,1.9587193E-1,1.8035413E-1,1.08488806E-1,-3.508796E-2,-1.03173375E-1,-7.9774433E-1,-4.1185293E-2,7.345831E-2],"split_indices":[35,160,69,0,0,0,15,0,0],"split_type":[0,0,0,0,0,0,0,0,0],"sum_hessian":[6.3377247E0,2.8488808E0,3.4888437E0,1.6698124E0,1.1790683E0,1.4645734E0,2.0242703E0,1.0079926E0,1.0162778E0],"tree_param":{"num_deleted":"0","num_feature":"197","num_nodes":"9","size_leaf_vector":"1"}},{"base_weights":[8.4878E-3,2.0211194E-1,-1.379986E-1,-1.9251697E-2,1.0896786E-1,-2.9451782E-1,4.0849227E-2,-1.2316588E-1,-9.576069E-3],"categories":[],"categories_nodes":[],"categories_segments":[],"categories_sizes":[],"default_left":[0,0,0,0,0,0,0,0,0],"id":29,"left_children":[1,3,5,-1,-1,7,-1,-1,-1],"loss_changes":[2.3048738E-1,1.7270352E-1,2.4010105E-1,0E0,0E0,8.693144E-2,0E0,0E0,0E0],"parents":[2147483647,0,0,1,1,2,2,5,5],"right_children":[2,4,6,-1,-1,8,-1,-1,-1],"split_conditions":[-3.2673398E-1,1.788323E-1,4.9066648E-1,-1.9251697E-2,1.0896786E-1,2.3776226E-2,4.0849227E-2,-1.2316588E-1,-9.576069E-3],"split_indices":[145,172,69,0,0,54,0,0,0],"split_type":[0,0,0,0,0,0,0,0,0],"sum_hessian":[6.1429E0,2.48221E0,3.6606903E0,1.1625248E0,1.3196851E0,2.2830527E0,1.3776376E0,1.1926304E0,1.0904223E0],"tree_param":{"num_deleted":"0","num_feature":"197","num_nodes":"9","size_leaf_vector":"1"}},{"base_weights":[5.5252067E-3,-1.1072312E-1,7.073275E-2,-2.6096874E-1,4.193693E-2,-1.2208272E-1,1.7842308E-2],"categories":[],"categories_nodes":[],"categories_segments":[],"categories_sizes":[],"default_left":[0,0,0,0,0,0,0],"id":30,"left_children":[1,3,-1,5,-1,-1,-1],"loss_changes":[2.125423E-1,2.3630233E-1,0E0,1.9575144E-1,0E0,0E0,0E0],"parents":[2147483647,0,0,1,1,3,3],"right_children":[2,4,-1,6,-1,-1,-1],"split_conditions":[4.793762E-1,2.2341664E-1,7.073275E-2,4.9522057E-1,4.193693E-2,-1.2208272E-1,1.7842308E-2],"split_indices":[174,167,0,147,0,0,0],"split_type":[0,0,0,0,0,0,0],"sum_hessian":[5.9653563E0,4.308973E0,1.6563838E0,2.6674352E0,1.6415375E0,1.6471577E0,1.0202774E0],"tree_param":{"num_deleted":"0","num_feature":"197","num_nodes":"7","size_leaf_vector":"1"}},{"base_weights":[4.4981036E-3,1.4014575E-1,-1.7351167E-1,3.0586502E-1,-5.1034242E-2,2.4085475E-2,-1.0925505E-1,1.007461E-2,1.2822853E-1],"categories":[],"categories_nodes":[],"categories_segments":[],"categories_sizes":[],"default_left":[0,0,0,0,0,0,0,0,0],"id":31,"left_children":[1,3,5,7,-1,-1,-1,-1,-1],"loss_changes":[1.8902652E-1,2.7951902E-1,1.9361565E-1,9.293535E-2,0E0,0E0,0E0,0E0,0E0],"parents":[2147483647,0,0,1,1,2,2,3,3],"right_children":[2,4,6,8,-1,-1,-1,-1,-1],"split_conditions":[2.7061307E-1,5.241506E-1,-4.0985495E-1,-2.1734558E-1,-5.1034242E-2,2.4085475E-2,-1.0925505E-1,1.007461E-2,1.2822853E-1],"split_indices":[189,28,2,17,0,0,0,0,0],"split_type":[0,0,0,0,0,0,0,0,0],"sum_hessian":[5.8212323E0,3.4244375E0,2.3967946E0,2.2414017E0,1.183036E0,1.2765545E0,1.1202402E0,1.0857478E0,1.1556537E0],"tree_param":{"num_deleted":"0","num_feature":"197","num_nodes":"9","size_leaf_vector":"1"}},{"base_weights":[3.866477E-3,1.7286168E-1,-1.4011347E-1,-2.8789809E-2,1.0218457E-1,3.184023E-2,-9.04592E-2],"categories":[],"categories_nodes":[],"categories_segments":[],"categories_sizes":[],"default_left":[0,0,0,0,0,0,0],"id":32,"left_children":[1,3,5,-1,-1,-1,-1],"loss_changes":[1.8595529E-1,1.9077691E-1,1.966204E-1,0E0,0E0,0E0,0E0],"parents":[2147483647,0,0,1,1,2,2],"right_children":[2,4,6,-1,-1,-1,-1],"split_conditions":[-3.2425225E-1,-5.330459E-1,-3.210747E-2,-2.8789809E-2,1.0218457E-1,3.184023E-2,-9.04592E-2],"split_indices":[35,153,177,0,0,0,0],"split_type":[0,0,0,0,0,0,0],"sum_hessian":[5.6470313E0,2.5055583E0,3.141473E0,1.1271757E0,1.3783827E0,1.3794932E0,1.7619797E0],"tree_param":{"num_deleted":"0","num_feature":"197","num_nodes":"7","size_leaf_vector":"1"}},{"base_weights":[5.1229135E-3,-6.643646E-2,1.1460275E-1,-2.8619107E-2,2.782877E-1,1.2111568E-1,4.867425E-3],"categories":[],"categories_nodes":[],"categories_segments":[],"categories_sizes":[],"default_left":[0,0,0,0,0,0,0],"id":33,"left_children":[1,-1,3,-1,5,-1,-1],"loss_changes":[1.8696165E-1,0E0,2.001635E-1,0E0,9.5142245E-2,0E0,0E0],"parents":[2147483647,0,0,2,2,4,4],"right_children":[2,-1,4,-1,6,-1,-1],"split_conditions":[-6.461421E-1,-6.643646E-2,-2.4350134E-1,-2.8619107E-2,4.342591E-1,1.2111568E-1,4.867425E-3],"split_indices":[120,0,29,0,87,0,0],"split_type":[0,0,0,0,0,0,0],"sum_hessian":[5.5139194E0,1.4631062E0,4.050813E0,1.9571182E0,2.0936952E0,1.0504004E0,1.0432948E0],"tree_param":{"num_deleted":"0","num_feature":"197","num_nodes":"7","size_leaf_vector":"1"}},{"base_weights":[9.073764E-3,-8.734873E-2,7.0296206E-2,4.9855415E-2,-2.2628728E-1,-1.1773691E-1,3.175539E-2],"categories":[],"categories_nodes":[],"categories_segments":[],"categories_sizes":[],"default_left":[0,0,0,0,0,0,0],"id":34,"left_children":[1,3,-1,-1,5,-1,-1],"loss_changes":[1.5947624E-1,2.2113998E-1,0E0,0E0,2.5067317E-1,0E0,0E0],"parents":[2147483647,0,0,1,1,4,4],"right_children":[2,4,-1,-1,6,-1,-1],"split_conditions":[8.138989E-1,-4.9112296E-1,7.0296206E-2,4.9855415E-2,4.4399256E-1,-1.1773691E-1,3.175539E-2],"split_indices":[188,132,0,0,54,0,0],"split_type":[0,0,0,0,0,0,0],"sum_hessian":[5.400362E0,4.2102637E0,1.1900982E0,1.4210486E0,2.7892153E0,1.7380592E0,1.051156E0],"tree_param":{"num_deleted":"0","num_feature":"197","num_nodes":"7","size_leaf_vector":"1"}},{"base_weights":[1.1245551E-2,-9.6865706E-2,6.505416E-2,7.273299E-2,-9.010903E-2,-4.905176E-2,7.481202E-2],"categories":[],"categories_nodes":[],"categories_segments":[],"categories_sizes":[],"default_left":[0,0,0,0,0,0,0],"id":35,"left_children":[1,3,-1,5,-1,-1,-1],"loss_changes":[1.6004549E-1,1.8719074E-1,0E0,1.8340881E-1,0E0,0E0,0E0],"parents":[2147483647,0,0,1,1,3,3],"right_children":[2,4,-1,6,-1,-1,-1],"split_conditions":[4.793762E-1,-2.4063805E-1,6.505416E-2,-3.7350494E-1,-9.010903E-2,-4.905176E-2,7.481202E-2],"split_indices":[174,145,0,120,0,0,0],"split_type":[0,0,0,0,0,0,0],"sum_hessian":[5.2552347E0,3.7907934E0,1.4644412E0,2.4180949E0,1.3726985E0,1.0663353E0,1.3517594E0],"tree_param":{"num_deleted":"0","num_feature":"197","num_nodes":"7","size_leaf_vector":"1"}},{"base_weights":[8.074404E-3,1.496873E-1,-1.4871791E-1,8.67938E-2,-3.442944E-2,3.5930023E-2,-9.33969E-2],"categories":[],"categories_nodes":[],"categories_segments":[],"categories_sizes":[],"default_left":[0,0,0,0,0,0,0],"id":36,"left_children":[1,3,5,-1,-1,-1,-1],"loss_changes":[1.5841314E-1,1.7057186E-1,1.8622723E-1,0E0,0E0,0E0,0E0],"parents":[2147483647,0,0,1,1,2,2],"right_children":[2,4,6,-1,-1,-1,-1],"split_conditions":[-1.7331867E-1,3.3841896E-1,-7.6965976E-1,8.67938E-2,-3.442944E-2,3.5930023E-2,-9.33969E-2],"split_indices":[74,160,19,0,0,0,0],"split_type":[0,0,0,0,0,0,0],"sum_hessian":[5.1319175E0,2.720295E0,2.4116225E0,1.718797E0,1.0014979E0,1.0090252E0,1.4025972E0],"tree_param":{"num_deleted":"0","num_feature":"197","num_nodes":"7","size_leaf_vector":"1"}},{"base_weights":[4.8600873E-3,-1.2749079E-1,1.6290353E-1,4.1313276E-2,-8.11614E-2,-2.8245848E-2,1.034332E-1],"categories":[],"categories_nodes":[],"categories_segments":[],"categories_sizes":[],"default_left":[0,0,0,0,0,0,0],"id":37,"left_children":[1,3,5,-1,-1,-1,-1],"loss_changes":[1.464259E-1,1.8256778E-1,1.809904E-1,0E0,0E0,0E0,0E0],"parents":[2147483647,0,0,1,1,2,2],"right_children":[2,4,6,-1,-1,-1,-1],"split_conditions":[3.2472983E-1,-5.758877E-1,-2.1269578E-1,4.1313276E-2,-8.11614E-2,-2.8245848E-2,1.034332E-1],"split_indices":[88,151,83,0,0,0,0],"split_type":[0,0,0,0,0,0,0],"sum_hessian":[5.007366E0,2.830407E0,2.1769595E0,1.0048237E0,1.8255832E0,1.1018902E0,1.0750692E0],"tree_param":{"num_deleted":"0","num_feature":"197","num_nodes":"7","size_leaf_vector":"1"}},{"base_weights":[9.678363E-3,-5.042082E-2,1.2275587E-1,-2.2777492E-2,8.7695174E-2],"categories":[],"categories_nodes":[],"categories_segments":[],"categories_sizes":[],"default_left":[0,0,0,0,0],"id":38,"left_children":[1,-1,3,-1,-1],"loss_changes":[1.3884903E-1,0E0,1.6276643E-1,0E0,0E0],"parents":[2147483647,0,0,2,2],"right_children":[2,-1,4,-1,-1],"split_conditions":[-3.29661E-1,-5.042082E-2,-3.8880795E-1,-2.2777492E-2,8.7695174E-2],"split_indices":[192,0,150,0,0],"split_type":[0,0,0,0,0],"sum_hessian":[4.881682E0,1.7089866E0,3.1726952E0,1.7151835E0,1.4575117E0],"tree_param":{"num_deleted":"0","num_feature":"197","num_nodes":"5","size_leaf_vector":"1"}},{"base_weights":[9.627168E-3,1.6064982E-1,-1.2184401E-1,-1.793545E-2,8.948836E-2,-7.8457184E-2,3.214266E-2],"categories":[],"categories_nodes":[],"categories_segments":[],"categories_sizes":[],"default_left":[0,0,0,0,0,0,0],"id":39,"left_children":[1,3,5,-1,-1,-1,-1],"loss_changes":[1.3498129E-1,1.1299717E-1,1.4559802E-1,0E0,0E0,0E0,0E0],"parents":[2147483647,0,0,1,1,2,2],"right_children":[2,4,6,-1,-1,-1,-1],"split_conditions":[-3.2425225E-1,-1.0423806E-1,1.7145024E-1,-1.793545E-2,8.948836E-2,-7.8457184E-2,3.214266E-2],"split_indices":[35,177,152,0,0,0,0],"split_type":[0,0,0,0,0,0,0],"sum_hessian":[4.812457E0,2.1364033E0,2.6760538E0,1.0386648E0,1.0977384E0,1.5738947E0,1.1021591E0],"tree_param":{"num_deleted":"0","num_feature":"197","num_nodes":"7","size_leaf_vector":"1"}},{"base_weights":[1.1354603E-2,1.552391E-1,-1.1950899E-1,-2.1661585E-2,9.385516E-2,-1.0459363E-1,4.7146402E-2],"categories":[],"categories_nodes":[],"categories_segments":[],"categories_sizes":[],"default_left":[0,0,0,0,0,0,0],"id":40,"left_children":[1,3,5,-1,-1,-1,-1],"loss_changes":[1.2614454E-1,1.3574749E-1,2.8031263E-1,0E0,0E0,0E0,0E0],"parents":[2147483647,0,0,1,1,2,2],"right_children":[2,4,6,-1,-1,-1,-1],"split_conditions":[-1.3978194E-1,1.7172486E-1,5.008606E-1,-2.1661585E-2,9.385516E-2,-1.0459363E-1,4.7146402E-2],"split_indices":[170,54,162,0,0,0,0],"split_type":[0,0,0,0,0,0,0],"sum_hessian":[4.7140937E0,2.1566217E0,2.557472E0,1.1045524E0,1.0520693E0,1.2565789E0,1.300893E0],"tree_param":{"num_deleted":"0","num_feature":"197","num_nodes":"7","size_leaf_vector":"1"}},{"base_weights":[1.0637185E-2,-1.19773164E-1,1.3675338E-1,-8.540748E-2,2.4568861E-2,-2.3356386E-2,9.2637E-2],"categories":[],"categories_nodes":[],"categories_segments":[],"categories_sizes":[],"default_left":[0,0,0,0,0,0,0],"id":41,"left_children":[1,3,5,-1,-1,-1,-1],"loss_changes":[1.0823801E-1,1.3236937E-1,1.4610852E-1,0E0,0E0,0E0,0E0],"parents":[2147483647,0,0,1,1,2,2],"right_children":[2,4,6,-1,-1,-1,-1],"split_conditions":[5.207702E-2,-2.2245467E-1,-1.519044E-1,-8.540748E-2,2.4568861E-2,-2.3356386E-2,9.2637E-2],"split_indices":[172,18,123,0,0,0,0],"split_type":[0,0,0,0,0,0,0],"sum_hessian":[4.585178E0,2.2789383E0,2.3062394E0,1.0272295E0,1.2517089E0,1.2697439E0,1.0364954E0],"tree_param":{"num_deleted":"0","num_feature":"197","num_nodes":"7","size_leaf_vector":"1"}},{"base_weights":[9.1602225E-3,-8.040218E-2,6.04628E-2,5.3632285E-2,-2.1112347E-1,8.842376E-3,-1.0287156E-1],"categories":[],"categories_nodes":[],"categories_segments":[],"categories_sizes":[],"default_left":[0,0,0,0,0,0,0],"id":42,"left_children":[1,3,-1,-1,5,-1,-1],"loss_changes":[1.10844806E-1,1.8893977E-1,0E0,0E0,1.1870195E-1,0E0,0E0],"parents":[2147483647,0,0,1,1,4,4],"right_children":[2,4,-1,-1,6,-1,-1],"split_conditions":[7.7969944E-1,-7.25504E-1,6.04628E-2,5.3632285E-2,-5.2589834E-1,8.842376E-3,-1.0287156E-1],"split_indices":[147,34,0,0,86,0,0],"split_type":[0,0,0,0,0,0,0],"sum_hessian":[4.4926906E0,3.4627163E0,1.0299742E0,1.0377022E0,2.4250143E0,1.1329286E0,1.2920856E0],"tree_param":{"num_deleted":"0","num_feature":"197","num_nodes":"7","size_leaf_vector":"1"}},{"base_weights":[9.792664E-3,-5.1220734E-2,1.0448003E-1,2.510568E-1,-5.036616E-2,1.7201403E-2,9.793949E-2],"categories":[],"categories_nodes":[],"categories_segments":[],"categories_sizes":[],"default_left":[0,0,0,0,0,0,0],"id":43,"left_children":[1,-1,3,5,-1,-1,-1],"loss_changes":[1.0994354E-1,0E0,2.0801967E-1,2.6593417E-2,0E0,0E0,0E0],"parents":[2147483647,0,0,2,2,3,3],"right_children":[2,-1,4,6,-1,-1,-1],"split_conditions":[-7.482429E-1,-5.1220734E-2,5.770833E-1,-5.3310114E-1,-5.036616E-2,1.7201403E-2,9.793949E-2],"split_indices":[37,0,28,33,0,0,0],"split_type":[0,0,0,0,0,0,0],"sum_hessian":[4.388227E0,1.2334366E0,3.1547904E0,2.1018848E0,1.0529057E0,1.0821862E0,1.0196986E0],"tree_param":{"num_deleted":"0","num_feature":"197","num_nodes":"7","size_leaf_vector":"1"}},{"base_weights":[9.886761E-3,1.2039262E-1,-4.1277956E-2,7.813765E-2,-3.5212975E-2],"categories":[],"categories_nodes":[],"categories_segments":[],"categories_sizes":[],"default_left":[0,0,0,0,0],"id":44,"left_children":[1,3,-1,-1,-1],"loss_changes":[1.029379E-1,1.4923212E-1,0E0,0E0,0E0],"parents":[2147483647,0,0,1,1],"right_children":[2,4,-1,-1,-1],"split_conditions":[2.7061307E-1,-1.1639536E-1,-4.1277956E-2,7.813765E-2,-3.5212975E-2],"split_indices":[189,74,0,0,0],"split_type":[0,0,0,0,0],"sum_hessian":[4.299785E0,2.5630069E0,1.7367781E0,1.5528307E0,1.0101762E0],"tree_param":{"num_deleted":"0","num_feature":"197","num_nodes":"5","size_leaf_vector":"1"}},{"base_weights":[7.561618E-3,-1.2968786E-1,1.3267246E-1,2.7721856E-2,-8.606106E-2,9.003444E-2,-2.6364027E-2],"categories":[],"categories_nodes":[],"categories_segments":[],"categories_sizes":[],"default_left":[0,0,0,0,0,0,0],"id":45,"left_children":[1,3,5,-1,-1,-1,-1],"loss_changes":[1.0715294E-1,1.3136208E-1,1.4582664E-1,0E0,0E0,0E0,0E0],"parents":[2147483647,0,0,1,1,2,2],"right_children":[2,4,6,-1,-1,-1,-1],"split_conditions":[1.8035413E-1,-3.431006E-1,-9.850422E-2,2.7721856E-2,-8.606106E-2,9.003444E-2,-2.6364027E-2],"split_indices":[69,109,93,0,0,0,0],"split_type":[0,0,0,0,0,0,0],"sum_hessian":[4.238183E0,2.0036018E0,2.2345812E0,1.0011352E0,1.0024666E0,1.0651696E0,1.1694115E0],"tree_param":{"num_deleted":"0","num_feature":"197","num_nodes":"7","size_leaf_vector":"1"}},{"base_weights":[6.4604715E-3,-9.430774E-2,5.509815E-2,1.7947076E-2,-8.207977E-2],"categories":[],"categories_nodes":[],"categories_segments":[],"categories_sizes":[],"default_left":[0,0,0,0,0],"id":46,"left_children":[1,3,-1,-1,-1],"loss_changes":[1.091497E-1,1.2522307E-1,0E0,0E0,0E0],"parents":[2147483647,0,0,1,1],"right_children":[2,4,-1,-1,-1],"split_conditions":[4.793762E-1,-4.978973E-2,5.509815E-2,1.7947076E-2,-8.207977E-2],"split_indices":[174,174,0,0,0],"split_type":[0,0,0,0,0],"sum_hessian":[4.1427207E0,2.9391217E0,1.2035991E0,1.9387617E0,1.00036E0],"tree_param":{"num_deleted":"0","num_feature":"197","num_nodes":"5","size_leaf_vector":"1"}},{"base_weights":[2.5931017E-3,4.6633124E-2,-1.164955E-1,2.0637011E-2,-7.6239176E-2],"categories":[],"categories_nodes":[],"categories_segments":[],"categories_sizes":[],"default_left":[0,0,0,0,0],"id":47,"left_children":[1,-1,3,-1,-1],"loss_changes":[1.106539E-1,0E0,1.0493458E-1,0E0,0E0],"parents":[2147483647,0,0,2,2],"right_children":[2,-1,4,-1,-1],"split_conditions":[-3.2673398E-1,4.6633124E-2,3.5709906E-2,2.0637011E-2,-7.6239176E-2],"split_indices":[145,0,178,0,0],"split_type":[0,0,0,0,0],"sum_hessian":[4.0841384E0,1.6548519E0,2.4292865E0,1.2486043E0,1.1806822E0],"tree_param":{"num_deleted":"0","num_feature":"197","num_nodes":"5","size_leaf_vector":"1"}},{"base_weights":[-1.3847239E-4,-1.22513235E-1,1.22646645E-1,1.4248722E-2,-6.982018E-2,-1.3139249E-2,6.854881E-2],"categories":[],"categories_nodes":[],"categories_segments":[],"categories_sizes":[],"default_left":[0,0,0,0,0,0,0],"id":48,"left_children":[1,3,5,-1,-1,-1,-1],"loss_changes":[9.06362E-2,6.765355E-2,6.30648E-2,0E0,0E0,0E0,0E0],"parents":[2147483647,0,0,1,1,2,2],"right_children":[2,4,6,-1,-1,-1,-1],"split_conditions":[5.207702E-2,-5.8424807E-1,-2.2219817E-1,1.4248722E-2,-6.982018E-2,-1.3139249E-2,6.854881E-2],"split_indices":[172,172,118,0,0,0,0],"split_type":[0,0,0,0,0,0,0],"sum_hessian":[4.0320363E0,2.0205016E0,2.0115347E0,1.0185431E0,1.0019584E0,1.0098352E0,1.0016994E0],"tree_param":{"num_deleted":"0","num_feature":"197","num_nodes":"7","size_leaf_vector":"1"}},{"base_weights":[-1.4351624E-4,-1.13316506E-1,4.1114878E-2,-7.531705E-2,1.768497E-2],"categories":[],"categories_nodes":[],"categories_segments":[],"categories_sizes":[],"default_left":[0,0,0,0,0],"id":49,"left_children":[1,3,-1,-1,-1],"loss_changes":[9.285769E-2,9.254418E-2,0E0,0E0,0E0],"parents":[2147483647,0,0,1,1],"right_children":[2,4,-1,-1,-1],"split_conditions":[3.2472983E-1,1.015893E-1,4.1114878E-2,-7.531705E-2,1.768497E-2],"split_indices":[88,69,0,0,0],"split_type":[0,0,0,0,0],"sum_hessian":[3.9803524E0,2.2764804E0,1.703872E0,1.0108513E0,1.2656292E0],"tree_param":{"num_deleted":"0","num_feature":"197","num_nodes":"5","size_leaf_vector":"1"}},{"base_weights":[-3.6568176E-3,-9.239181E-2,4.6781648E-2,-6.156412E-2,3.025276E-2],"categories":[],"categories_nodes":[],"categories_segments":[],"categories_sizes":[],"default_left":[0,0,0,0,0],"id":50,"left_children":[1,3,-1,-1,-1],"loss_changes":[8.4226005E-2,1.0345961E-1,0E0,0E0,0E0],"parents":[2147483647,0,0,1,1],"right_children":[2,4,-1,-1,-1],"split_conditions":[4.793762E-1,2.2341664E-1,4.6781648E-2,-6.156412E-2,3.025276E-2],"split_indices":[174,167,0,0,0],"split_type":[0,0,0,0,0],"sum_hessian":[3.9300902E0,2.796389E0,1.133701E0,1.7264113E0,1.0699776E0],"tree_param":{"num_deleted":"0","num_feature":"197","num_nodes":"5","size_leaf_vector":"1"}},{"base_weights":[4.8435814E-4,3.8487833E-2,-1.0705579E-1,-7.060182E-2,2.1648362E-2],"categories":[],"categories_nodes":[],"categories_segments":[],"categories_sizes":[],"default_left":[0,0,0,0,0],"id":51,"left_children":[1,-1,3,-1,-1],"loss_changes":[8.0871366E-2,0E0,9.050084E-2,0E0,0E0],"parents":[2147483647,0,0,2,2],"right_children":[2,-1,4,-1,-1],"split_conditions":[-3.2425225E-1,3.8487833E-2,-8.879967E-2,-7.060182E-2,2.1648362E-2],"split_indices":[35,0,152,0,0],"split_type":[0,0,0,0,0],"sum_hessian":[3.8846235E0,1.6868613E0,2.1977625E0,1.0983849E0,1.0993775E0],"tree_param":{"num_deleted":"0","num_feature":"197","num_nodes":"5","size_leaf_vector":"1"}},{"base_weights":[-1.98772E-3,3.8871463E-2,-1.1086184E-1,-7.974E-2,3.066262E-2],"categories":[],"categories_nodes":[],"categories_segments":[],"categories_sizes":[],"default_left":[0,0,0,0,0],"id":52,"left_children":[1,-1,3,-1,-1],"loss_changes":[8.370063E-2,0E0,1.3240027E-1,0E0,0E0],"parents":[2147483647,0,0,2,2],"right_children":[2,-1,4,-1,-1],"split_conditions":[-3.2498252E-1,3.8871463E-2,-2.2420962E-1,-7.974E-2,3.066262E-2],"split_indices":[145,0,29,0,0],"split_type":[0,0,0,0,0],"sum_hessian":[3.8407564E0,1.6531047E0,2.1876516E0,1.1233287E0,1.0643231E0],"tree_param":{"num_deleted":"0","num_feature":"197","num_nodes":"5","size_leaf_vector":"1"}},{"base_weights":[-3.7888854E-3,-4.0959064E-2,1.03930354E-1,-1.9722471E-2,6.824507E-2],"categories":[],"categories_nodes":[],"categories_segments":[],"categories_sizes":[],"default_left":[0,0,0,0,0],"id":53,"left_children":[1,-1,3,-1,-1],"loss_changes":[8.265744E-2,0E0,8.227111E-2,0E0,0E0],"parents":[2147483647,0,0,2,2],"right_children":[2,-1,4,-1,-1],"split_conditions":[-3.7350494E-1,-4.0959064E-2,-2.4350134E-1,-1.9722471E-2,6.824507E-2],"split_indices":[120,0,29,0,0],"split_type":[0,0,0,0,0],"sum_hessian":[3.788362E0,1.5772586E0,2.2111032E0,1.1288272E0,1.082276E0],"tree_param":{"num_deleted":"0","num_feature":"197","num_nodes":"5","size_leaf_vector":"1"}},{"base_weights":[-9.3989185E-4,-4.4741474E-2,9.938661E-2,6.70499E-2,-2.2262633E-2],"categories":[],"categories_nodes":[],"categories_segments":[],"categories_sizes":[],"default_left":[0,0,0,0,0],"id":54,"left_children":[1,-1,3,-1,-1],"loss_changes":[8.539414E-2,0E0,9.049685E-2,0E0,0E0],"parents":[2147483647,0,0,2,2],"right_children":[2,-1,4,-1,-1],"split_conditions":[-3.29661E-1,-4.4741474E-2,-4.78947E-2,6.70499E-2,-2.2262633E-2],"split_indices":[192,0,50,0,0],"split_type":[0,0,0,0,0],"sum_hessian":[3.7464845E0,1.316005E0,2.4304795E0,1.2495977E0,1.1808817E0],"tree_param":{"num_deleted":"0","num_feature":"197","num_nodes":"5","size_leaf_vector":"1"}},{"base_weights":[-5.219133E-4,3.750621E-2,-3.403385E-2],"categories":[],"categories_nodes":[],"categories_segments":[],"categories_sizes":[],"default_left":[0,0,0],"id":55,"left_children":[1,-1,-1],"loss_changes":[8.085348E-2,0E0,0E0],"parents":[2147483647,0,0],"right_children":[2,-1,-1],"split_conditions":[-1.3978194E-1,3.750621E-2,-3.403385E-2],"split_indices":[170,0,0],"split_type":[0,0,0],"sum_hessian":[3.702777E0,1.7026972E0,2.0000799E0],"tree_param":{"num_deleted":"0","num_feature":"197","num_nodes":"3","size_leaf_vector":"1"}},{"base_weights":[3.8029772E-4,3.705452E-2,-1.05047405E-1,-6.638002E-2,1.840098E-2],"categories":[],"categories_nodes":[],"categories_segments":[],"categories_sizes":[],"default_left":[0,0,0,0,0],"id":56,"left_children":[1,-1,3,-1,-1],"loss_changes":[7.378619E-2,0E0,7.2820835E-2,0E0,0E0],"parents":[2147483647,0,0,2,2],"right_children":[2,-1,4,-1,-1],"split_conditions":[-3.2425225E-1,3.705452E-2,-4.43284E-1,-6.638002E-2,1.840098E-2],"split_indices":[35,0,7,0,0],"split_type":[0,0,0,0,0],"sum_hessian":[3.6843412E0,1.6203196E0,2.0640213E0,1.020998E0,1.0430235E0],"tree_param":{"num_deleted":"0","num_feature":"197","num_nodes":"5","size_leaf_vector":"1"}},{"base_weights":[-2.2271436E-3,-9.0913795E-2,4.653701E-2,-6.4984195E-2,1.9889481E-2],"categories":[],"categories_nodes":[],"categories_segments":[],"categories_sizes":[],"default_left":[0,0,0,0,0],"id":57,"left_children":[1,3,-1,-1,-1],"loss_changes":[7.893309E-2,8.553439E-2,0E0,0E0,0E0],"parents":[2147483647,0,0,1,1],"right_children":[2,4,-1,-1,-1],"split_conditions":[4.793762E-1,7.7595604E-3,4.653701E-2,-6.4984195E-2,1.9889481E-2],"split_indices":[174,175,0,0,0],"split_type":[0,0,0,0,0],"sum_hessian":[3.6457E0,2.6015968E0,1.0441033E0,1.2357208E0,1.3658761E0],"tree_param":{"num_deleted":"0","num_feature":"197","num_nodes":"5","size_leaf_vector":"1"}},{"base_weights":[-1.3816374E-3,-4.2842865E-2,8.411569E-2,6.2251892E-2,-1.970338E-2],"categories":[],"categories_nodes":[],"categories_segments":[],"categories_sizes":[],"default_left":[0,0,0,0,0],"id":58,"left_children":[1,-1,3,-1,-1],"loss_changes":[6.768611E-2,0E0,7.829873E-2,0E0,0E0],"parents":[2147483647,0,0,2,2],"right_children":[2,-1,4,-1,-1],"split_conditions":[-3.4343565E-1,-4.2842865E-2,-1.3978194E-1,6.2251892E-2,-1.970338E-2],"split_indices":[49,0,170,0,0],"split_type":[0,0,0,0,0],"sum_hessian":[3.6042783E0,1.1054035E0,2.4988747E0,1.1589352E0,1.3399395E0],"tree_param":{"num_deleted":"0","num_feature":"197","num_nodes":"5","size_leaf_vector":"1"}},{"base_weights":[-9.3955477E-4,-3.398023E-2,3.3160415E-2],"categories":[],"categories_nodes":[],"categories_segments":[],"categories_sizes":[],"default_left":[0,0,0],"id":59,"left_children":[1,-1,-1],"loss_changes":[6.970345E-2,0E0,0E0],"parents":[2147483647,0,0],"right_children":[2,-1,-1],"split_conditions":[5.207702E-2,-3.398023E-2,3.3160415E-2],"split_indices":[172,0,0],"split_type":[0,0,0],"sum_hessian":[3.566761E0,1.7685663E0,1.7981949E0],"tree_param":{"num_deleted":"0","num_feature":"197","num_nodes":"3","size_leaf_vector":"1"}},{"base_weights":[-8.4314286E-4,-3.4969825E-2,3.1617988E-2],"categories":[],"categories_nodes":[],"categories_segments":[],"categories_sizes":[],"default_left":[0,0,0],"id":60,"left_children":[1,-1,-1],"loss_changes":[6.823094E-2,0E0,0E0],"parents":[2147483647,0,0],"right_children":[2,-1,-1],"split_conditions":[1.8035413E-1,-3.4969825E-2,3.1617988E-2],"split_indices":[69,0,0],"split_type":[0,0,0],"sum_hessian":[3.5506506E0,1.6529098E0,1.897741E0],"tree_param":{"num_deleted":"0","num_feature":"197","num_nodes":"3","size_leaf_vector":"1"}},{"base_weights":[-1.340114E-3,-3.6238864E-2,9.5495015E-2,-1.624792E-2,6.0492817E-2],"categories":[],"categories_nodes":[],"categories_segments":[],"categories_sizes":[],"default_left":[0,0,0,0,0],"id":61,"left_children":[1,-1,3,-1,-1],"loss_changes":[6.3969515E-2,0E0,5.9561625E-2,0E0,0E0],"parents":[2147483647,0,0,2,2],"right_children":[2,-1,4,-1,-1],"split_conditions":[-3.7350494E-1,-3.6238864E-2,-2.4350134E-1,-1.624792E-2,6.0492817E-2],"split_indices":[120,0,29,0,0],"split_type":[0,0,0,0,0],"sum_hessian":[3.5328612E0,1.4709058E0,2.0619555E0,1.0588633E0,1.0030922E0],"tree_param":{"num_deleted":"0","num_feature":"197","num_nodes":"5","size_leaf_vector":"1"}},{"base_weights":[9.3646056E-4,-9.650398E-2,3.8740568E-2,2.187095E-2,-6.544343E-2],"categories":[],"categories_nodes":[],"categories_segments":[],"categories_sizes":[],"default_left":[0,0,0,0,0],"id":62,"left_children":[1,3,-1,-1,-1],"loss_changes":[6.86879E-2,8.039476E-2,0E0,0E0,0E0],"parents":[2147483647,0,0,1,1],"right_children":[2,4,-1,-1,-1],"split_conditions":[-1.00344844E-1,-1.3522595E-1,3.8740568E-2,2.187095E-2,-6.544343E-2],"split_indices":[117,35,0,0,0],"split_type":[0,0,0,0,0],"sum_hessian":[3.5010405E0,2.1296113E0,1.371429E0,1.0575068E0,1.0721046E0],"tree_param":{"num_deleted":"0","num_feature":"197","num_nodes":"5","size_leaf_vector":"1"}},{"base_weights":[-5.6256435E-4,9.057808E-2,-3.8953282E-2,-2.5255485E-2,7.046006E-2],"categories":[],"categories_nodes":[],"categories_segments":[],"categories_sizes":[],"default_left":[0,0,0,0,0],"id":63,"left_children":[1,3,-1,-1,-1],"loss_changes":[6.4358994E-2,1.0064761E-1,0E0,0E0,0E0],"parents":[2147483647,0,0,1,1],"right_children":[2,4,-1,-1,-1],"split_conditions":[4.359294E-1,-8.068762E-1,-3.8953282E-2,-2.5255485E-2,7.046006E-2],"split_indices":[28,30,0,0,0],"split_type":[0,0,0,0,0],"sum_hessian":[3.4639537E0,2.2072601E0,1.2566936E0,1.1865994E0,1.0206608E0],"tree_param":{"num_deleted":"0","num_feature":"197","num_nodes":"5","size_leaf_vector":"1"}},{"base_weights":[1.1804502E-3,3.369761E-2,-2.8664606E-2],"categories":[],"categories_nodes":[],"categories_segments":[],"categories_sizes":[],"default_left":[0,0,0],"id":64,"left_children":[1,-1,-1],"loss_changes":[5.8289316E-2,0E0,0E0],"parents":[2147483647,0,0],"right_children":[2,-1,-1],"split_conditions":[-3.183746E-1,3.369761E-2,-2.8664606E-2],"split_indices":[145,0,0],"split_type":[0,0,0],"sum_hessian":[3.4234955E0,1.5180131E0,1.9054824E0],"tree_param":{"num_deleted":"0","num_feature":"197","num_nodes":"3","size_leaf_vector":"1"}},{"base_weights":[1.9785108E-3,-2.8123908E-2,3.497616E-2],"categories":[],"categories_nodes":[],"categories_segments":[],"categories_sizes":[],"default_left":[0,0,0],"id":65,"left_children":[1,-1,-1],"loss_changes":[5.9305366E-2,0E0,0E0],"parents":[2147483647,0,0],"right_children":[2,-1,-1],"split_conditions":[3.2472983E-1,-2.8123908E-2,3.497616E-2],"split_indices":[88,0,0],"split_type":[0,0,0],"sum_hessian":[3.4094596E0,1.9569678E0,1.4524919E0],"tree_param":{"num_deleted":"0","num_feature":"197","num_nodes":"3","size_leaf_vector":"1"}},{"base_weights":[2.9641343E-3,3.91467E-2,-7.678067E-2,3.2592997E-2,-6.458401E-2],"categories":[],"categories_nodes":[],"categories_segments":[],"categories_sizes":[],"default_left":[0,0,0,0,0],"id":66,"left_children":[1,-1,3,-1,-1],"loss_changes":[5.4689072E-2,0E0,1.08961724E-1,0E0,0E0],"parents":[2147483647,0,0,2,2],"right_children":[2,-1,4,-1,-1],"split_conditions":[-7.518327E-1,3.91467E-2,-1.0362489E-1,3.2592997E-2,-6.458401E-2],"split_indices":[2,0,81,0,0],"split_type":[0,0,0,0,0],"sum_hessian":[3.3925743E0,1.0604348E0,2.3321395E0,1.0893189E0,1.2428205E0],"tree_param":{"num_deleted":"0","num_feature":"197","num_nodes":"5","size_leaf_vector":"1"}},{"base_weights":[3.6025583E-3,2.8339805E-2,-3.4170862E-2],"categories":[],"categories_nodes":[],"categories_segments":[],"categories_sizes":[],"default_left":[0,0,0],"id":67,"left_children":[1,-1,-1],"loss_changes":[5.72202E-2,0E0,0E0],"parents":[2147483647,0,0],"right_children":[2,-1,-1],"split_conditions":[2.7061307E-1,2.8339805E-2,-3.4170862E-2],"split_indices":[189,0,0],"split_type":[0,0,0],"sum_hessian":[3.3514535E0,2.0005548E0,1.3508986E0],"tree_param":{"num_deleted":"0","num_feature":"197","num_nodes":"3","size_leaf_vector":"1"}},{"base_weights":[1.176296E-3,3.4990776E-2,-8.7743334E-2,1.5575773E-2,-5.5366818E-2],"categories":[],"categories_nodes":[],"categories_segments":[],"categories_sizes":[],"default_left":[0,0,0,0,0],"id":68,"left_children":[1,-1,3,-1,-1],"loss_changes":[5.476158E-2,0E0,5.0427176E-2,0E0,0E0],"parents":[2147483647,0,0,2,2],"right_children":[2,-1,4,-1,-1],"split_conditions":[-2.8843695E-1,3.4990776E-2,-2.4057378E-1,1.5575773E-2,-5.5366818E-2],"split_indices":[187,0,74,0,0],"split_type":[0,0,0,0,0],"sum_hessian":[3.3371162E0,1.3162729E0,2.0208433E0,1.0171752E0,1.0036681E0],"tree_param":{"num_deleted":"0","num_feature":"197","num_nodes":"5","size_leaf_vector":"1"}},{"base_weights":[-3.670162E-4,-3.760454E-2,8.098761E-2,6.9127336E-2,-2.8353537E-2],"categories":[],"categories_nodes":[],"categories_segments":[],"categories_sizes":[],"default_left":[0,0,0,0,0],"id":69,"left_children":[1,-1,3,-1,-1],"loss_changes":[5.397242E-2,0E0,1.0617304E-1,0E0,0E0],"parents":[2147483647,0,0,2,2],"right_children":[2,-1,4,-1,-1],"split_conditions":[-7.9774433E-1,-3.760454E-2,1.0823772E-1,6.9127336E-2,-2.8353537E-2],"split_indices":[15,0,6,0,0],"split_type":[0,0,0,0,0],"sum_hessian":[3.309749E0,1.0917603E0,2.2179885E0,1.0289114E0,1.1890771E0],"tree_param":{"num_deleted":"0","num_feature":"197","num_nodes":"5","size_leaf_vector":"1"}},{"base_weights":[6.525949E-4,-3.29396E-2,2.6946206E-2],"categories":[],"categories_nodes":[],"categories_segments":[],"categories_sizes":[],"default_left":[0,0,0],"id":70,"left_children":[1,-1,-1],"loss_changes":[5.1911842E-2,0E0,0E0],"parents":[2147483647,0,0],"right_children":[2,-1,-1],"split_conditions":[-3.7350494E-1,-3.29396E-2,2.6946206E-2],"split_indices":[120,0,0],"split_type":[0,0,0],"sum_hessian":[3.269551E0,1.3571283E0,1.9124229E0],"tree_param":{"num_deleted":"0","num_feature":"197","num_nodes":"3","size_leaf_vector":"1"}},{"base_weights":[-9.597629E-4,-3.8258925E-2,7.780053E-2,-3.3868108E-2,6.467353E-2],"categories":[],"categories_nodes":[],"categories_segments":[],"categories_sizes":[],"default_left":[0,0,0,0,0],"id":71,"left_children":[1,-1,3,-1,-1],"loss_changes":[5.2349873E-2,0E0,1.0958592E-1,0E0,0E0],"parents":[2147483647,0,0,2,2],"right_children":[2,-1,4,-1,-1],"split_conditions":[-7.124453E-1,-3.8258925E-2,6.37302E-2,-3.3868108E-2,6.467353E-2],"split_indices":[115,0,88,0,0],"split_type":[0,0,0,0,0],"sum_hessian":[3.2561257E0,1.0114629E0,2.2446628E0,1.0172831E0,1.2273797E0],"tree_param":{"num_deleted":"0","num_feature":"197","num_nodes":"5","size_leaf_vector":"1"}},{"base_weights":[-2.3012129E-3,3.731116E-2,-8.829381E-2,-7.181037E-2,3.1934608E-2],"categories":[],"categories_nodes":[],"categories_segments":[],"categories_sizes":[],"default_left":[0,0,0,0,0],"id":72,"left_children":[1,-1,3,-1,-1],"loss_changes":[5.687606E-2,0E0,1.1652067E-1,0E0,0E0],"parents":[2147483647,0,0,2,2],"right_children":[2,-1,4,-1,-1],"split_conditions":[-6.5722775E-1,3.731116E-2,1.337799E-1,-7.181037E-2,3.1934608E-2],"split_indices":[92,0,80,0,0],"split_type":[0,0,0,0,0],"sum_hessian":[3.213313E0,1.1188676E0,2.0944457E0,1.0504187E0,1.044027E0],"tree_param":{"num_deleted":"0","num_feature":"197","num_nodes":"5","size_leaf_vector":"1"}},{"base_weights":[-2.4331086E-3,-3.2215208E-2,2.8041985E-2],"categories":[],"categories_nodes":[],"categories_segments":[],"categories_sizes":[],"default_left":[0,0,0],"id":73,"left_children":[1,-1,-1],"loss_changes":[5.202738E-2,0E0,0E0],"parents":[2147483647,0,0],"right_children":[2,-1,-1],"split_conditions":[1.8035413E-1,-3.2215208E-2,2.8041985E-2],"split_indices":[69,0,0],"split_type":[0,0,0],"sum_hessian":[3.171675E0,1.4572846E0,1.7143905E0],"tree_param":{"num_deleted":"0","num_feature":"197","num_nodes":"3","size_leaf_vector":"1"}},{"base_weights":[-2.7211346E-3,-2.690233E-2,3.4334533E-2],"categories":[],"categories_nodes":[],"categories_segments":[],"categories_sizes":[],"default_left":[0,0,0],"id":74,"left_children":[1,-1,-1],"loss_changes":[5.262339E-2,0E0,0E0],"parents":[2147483647,0,0],"right_children":[2,-1,-1],"split_conditions":[-1.00344844E-1,-2.690233E-2,3.4334533E-2],"split_indices":[117,0,0],"split_type":[0,0,0],"sum_hessian":[3.1577473E0,1.9472929E0,1.2104542E0],"tree_param":{"num_deleted":"0","num_feature":"197","num_nodes":"3","size_leaf_vector":"1"}},{"base_weights":[-1.07459855E-4,3.1008441E-2,-2.7003022E-2],"categories":[],"categories_nodes":[],"categories_segments":[],"categories_sizes":[],"default_left":[0,0,0],"id":75,"left_children":[1,-1,-1],"loss_changes":[4.78705E-2,0E0,0E0],"parents":[2147483647,0,0],"right_children":[2,-1,-1],"split_conditions":[-3.2425225E-1,3.1008441E-2,-2.7003022E-2],"split_indices":[35,0,0],"split_type":[0,0,0],"sum_hessian":[3.1460335E0,1.393058E0,1.7529755E0],"tree_param":{"num_deleted":"0","num_feature":"197","num_nodes":"3","size_leaf_vector":"1"}},{"base_weights":[9.001628E-4,3.0593313E-2,-2.705189E-2],"categories":[],"categories_nodes":[],"categories_segments":[],"categories_sizes":[],"default_left":[0,0,0],"id":76,"left_children":[1,-1,-1],"loss_changes":[4.7240805E-2,0E0,0E0],"parents":[2147483647,0,0],"right_children":[2,-1,-1],"split_conditions":[-1.3978194E-1,3.0593313E-2,-2.705189E-2],"split_indices":[170,0,0],"split_type":[0,0,0],"sum_hessian":[3.132898E0,1.4281409E0,1.7047571E0],"tree_param":{"num_deleted":"0","num_feature":"197","num_nodes":"3","size_leaf_vector":"1"}},{"base_weights":[1.4961804E-3,-3.1683967E-2,2.6301125E-2],"categories":[],"categories_nodes":[],"categories_segments":[],"categories_sizes":[],"default_left":[0,0,0],"id":77,"left_children":[1,-1,-1],"loss_changes":[4.7303285E-2,0E0,0E0],"parents":[2147483647,0,0],"right_children":[2,-1,-1],"split_conditions":[-3.7350494E-1,-3.1683967E-2,2.6301125E-2],"split_indices":[120,0,0],"split_type":[0,0,0],"sum_hessian":[3.1217594E0,1.2912437E0,1.8305159E0],"tree_param":{"num_deleted":"0","num_feature":"197","num_nodes":"3","size_leaf_vector":"1"}},{"base_weights":[-2.6755384E-4,3.0259212E-2,-2.7193358E-2],"categories":[],"categories_nodes":[],"categories_segments":[],"categories_sizes":[],"default_left":[0,0,0],"id":78,"left_children":[1,-1,-1],"loss_changes":[4.6703156E-2,0E0,0E0],"parents":[2147483647,0,0],"right_children":[2,-1,-1],"split_conditions":[-3.4639382E-1,3.0259212E-2,-2.7193358E-2],"split_indices":[136,0,0],"split_type":[0,0,0],"sum_hessian":[3.1094663E0,1.4126632E0,1.6968032E0],"tree_param":{"num_deleted":"0","num_feature":"197","num_nodes":"3","size_leaf_vector":"1"}},{"base_weights":[5.6417385E-4,-3.5134602E-2,8.0733426E-2,-1.765898E-2,5.4566216E-2],"categories":[],"categories_nodes":[],"categories_segments":[],"categories_sizes":[],"default_left":[0,0,0,0,0],"id":79,"left_children":[1,-1,3,-1,-1],"loss_changes":[4.812364E-2,0E0,5.3490218E-2,0E0,0E0],"parents":[2147483647,0,0,2,2],"right_children":[2,-1,4,-1,-1],"split_conditions":[-4.9180365E-1,-3.5134602E-2,-5.336625E-1,-1.765898E-2,5.4566216E-2],"split_indices":[18,0,127,0,0],"split_type":[0,0,0,0,0],"sum_hessian":[3.0987256E0,1.0688792E0,2.0298464E0,1.0285234E0,1.001323E0],"tree_param":{"num_deleted":"0","num_feature":"197","num_nodes":"5","size_leaf_vector":"1"}},{"base_weights":[9.0797374E-4,-3.3703774E-2,7.647003E-2,5.373125E-2,-1.9254025E-2],"categories":[],"categories_nodes":[],"categories_segments":[],"categories_sizes":[],"default_left":[0,0,0,0,0],"id":80,"left_children":[1,-1,3,-1,-1],"loss_changes":[4.3446768E-2,0E0,5.5350617E-2,0E0,0E0],"parents":[2147483647,0,0,2,2],"right_children":[2,-1,4,-1,-1],"split_conditions":[-3.29661E-1,-3.3703774E-2,-8.75079E-2,5.373125E-2,-1.9254025E-2],"split_indices":[192,0,50,0,0],"split_type":[0,0,0,0,0],"sum_hessian":[3.0730197E0,1.0349754E0,2.0380445E0,1.020194E0,1.0178503E0],"tree_param":{"num_deleted":"0","num_feature":"197","num_nodes":"5","size_leaf_vector":"1"}},{"base_weights":[9.0952165E-4,-3.1674888E-2,2.5011243E-2],"categories":[],"categories_nodes":[],"categories_segments":[],"categories_sizes":[],"default_left":[0,0,0],"id":81,"left_children":[1,-1,-1],"loss_changes":[4.434718E-2,0E0,0E0],"parents":[2147483647,0,0],"right_children":[2,-1,-1],"split_conditions":[-4.4105893E-1,-3.1674888E-2,2.5011243E-2],"split_indices":[33,0,0],"split_type":[0,0,0],"sum_hessian":[3.0476701E0,1.2076663E0,1.8400037E0],"tree_param":{"num_deleted":"0","num_feature":"197","num_nodes":"3","size_leaf_vector":"1"}},{"base_weights":[-1.0211992E-3,-3.0540848E-2,2.7259974E-2],"categories":[],"categories_nodes":[],"categories_segments":[],"categories_sizes":[],"default_left":[0,0,0],"id":82,"left_children":[1,-1,-1],"loss_changes":[4.6638347E-2,0E0,0E0],"parents":[2147483647,0,0],"right_children":[2,-1,-1],"split_conditions":[1.8035413E-1,-3.0540848E-2,2.7259974E-2],"split_indices":[69,0,0],"split_type":[0,0,0],"sum_hessian":[3.037306E0,1.3970886E0,1.6402174E0],"tree_param":{"num_deleted":"0","num_feature":"197","num_nodes":"3","size_leaf_vector":"1"}},{"base_weights":[-1.5381172E-3,2.8553626E-2,-2.5820045E-2],"categories":[],"categories_nodes":[],"categories_segments":[],"categories_sizes":[],"default_left":[0,0,0],"id":83,"left_children":[1,-1,-1],"loss_changes":[4.1095544E-2,0E0,0E0],"parents":[2147483647,0,0],"right_children":[2,-1,-1],"split_conditions":[-3.2425225E-1,2.8553626E-2,-2.5820045E-2],"split_indices":[35,0,0],"split_type":[0,0,0],"sum_hessian":[3.0247586E0,1.3519164E0,1.6728421E0],"tree_param":{"num_deleted":"0","num_feature":"197","num_nodes":"3","size_leaf_vector":"1"}},{"base_weights":[-3.9504553E-4,-2.3572618E-2,3.0877488E-2],"categories":[],"categories_nodes":[],"categories_segments":[],"categories_sizes":[],"default_left":[0,0,0],"id":84,"left_children":[1,-1,-1],"loss_changes":[4.050556E-2,0E0,0E0],"parents":[2147483647,0,0],"right_children":[2,-1,-1],"split_conditions":[-2.0022759E-1,-2.3572618E-2,3.0877488E-2],"split_indices":[151,0,0],"split_type":[0,0,0],"sum_hessian":[3.0133476E0,1.8516973E0,1.1616503E0],"tree_param":{"num_deleted":"0","num_feature":"197","num_nodes":"3","size_leaf_vector":"1"}},{"base_weights":[1.555804E-3,3.3205982E-2,-2.2436505E-2],"categories":[],"categories_nodes":[],"categories_segments":[],"categories_sizes":[],"default_left":[0,0,0],"id":85,"left_children":[1,-1,-1],"loss_changes":[4.163833E-2,0E0,0E0],"parents":[2147483647,0,0],"right_children":[2,-1,-1],"split_conditions":[-6.5722775E-1,3.3205982E-2,-2.2436505E-2],"split_indices":[92,0,0],"split_type":[0,0,0],"sum_hessian":[3.0041132E0,1.0513766E0,1.9527366E0],"tree_param":{"num_deleted":"0","num_feature":"197","num_nodes":"3","size_leaf_vector":"1"}},{"base_weights":[3.8043414E-3,-3.2572597E-2,2.3476852E-2],"categories":[],"categories_nodes":[],"categories_segments":[],"categories_sizes":[],"default_left":[0,0,0],"id":86,"left_children":[1,-1,-1],"loss_changes":[4.1909017E-2,0E0,0E0],"parents":[2147483647,0,0],"right_children":[2,-1,-1],"split_conditions":[-6.8529683E-1,-3.2572597E-2,2.3476852E-2],"split_indices":[115,0,0],"split_type":[0,0,0],"sum_hessian":[2.993408E0,1.0102216E0,1.9831864E0],"tree_param":{"num_deleted":"0","num_feature":"197","num_nodes":"3","size_leaf_vector":"1"}},{"base_weights":[3.7447253E-4,-3.038442E-2,2.3897205E-2],"categories":[],"categories_nodes":[],"categories_segments":[],"categories_sizes":[],"default_left":[0,0,0],"id":87,"left_children":[1,-1,-1],"loss_changes":[4.0166814E-2,0E0,0E0],"parents":[2147483647,0,0],"right_children":[2,-1,-1],"split_conditions":[-4.4105893E-1,-3.038442E-2,2.3897205E-2],"split_indices":[33,0,0],"split_type":[0,0,0],"sum_hessian":[2.98272E0,1.185374E0,1.7973459E0],"tree_param":{"num_deleted":"0","num_feature":"197","num_nodes":"3","size_leaf_vector":"1"}},{"base_weights":[-1.3781309E-3,2.2842731E-2,-3.275329E-2],"categories":[],"categories_nodes":[],"categories_segments":[],"categories_sizes":[],"default_left":[0,0,0],"id":88,"left_children":[1,-1,-1],"loss_changes":[4.1516833E-2,0E0,0E0],"parents":[2147483647,0,0],"right_children":[2,-1,-1],"split_conditions":[4.359294E-1,2.2842731E-2,-3.275329E-2],"split_indices":[28,0,0],"split_type":[0,0,0],"sum_hessian":[2.9733229E0,1.9003865E0,1.0729363E0],"tree_param":{"num_deleted":"0","num_feature":"197","num_nodes":"3","size_leaf_vector":"1"}},{"base_weights":[-3.484293E-3,-2.989616E-2,2.3090474E-2],"categories":[],"categories_nodes":[],"categories_segments":[],"categories_sizes":[],"default_left":[0,0,0],"id":89,"left_children":[1,-1,-1],"loss_changes":[3.8324177E-2,0E0,0E0],"parents":[2147483647,0,0],"right_children":[2,-1,-1],"split_conditions":[-3.7350494E-1,-2.989616E-2,2.3090474E-2],"split_indices":[120,0,0],"split_type":[0,0,0],"sum_hessian":[2.961956E0,1.2404765E0,1.7214797E0],"tree_param":{"num_deleted":"0","num_feature":"197","num_nodes":"3","size_leaf_vector":"1"}},{"base_weights":[-4.177415E-3,-2.4289483E-2,2.987328E-2],"categories":[],"categories_nodes":[],"categories_segments":[],"categories_sizes":[],"default_left":[0,0,0],"id":90,"left_children":[1,-1,-1],"loss_changes":[3.9547537E-2,0E0,0E0],"parents":[2147483647,0,0],"right_children":[2,-1,-1],"split_conditions":[-1.00344844E-1,-2.4289483E-2,2.987328E-2],"split_indices":[117,0,0],"split_type":[0,0,0],"sum_hessian":[2.9519117E0,1.8226494E0,1.1292624E0],"tree_param":{"num_deleted":"0","num_feature":"197","num_nodes":"3","size_leaf_vector":"1"}},{"base_weights":[-1.5092606E-3,-3.2563604E-2,2.154493E-2],"categories":[],"categories_nodes":[],"categories_segments":[],"categories_sizes":[],"default_left":[0,0,0],"id":91,"left_children":[1,-1,-1],"loss_changes":[3.8741533E-2,0E0,0E0],"parents":[2147483647,0,0],"right_children":[2,-1,-1],"split_conditions":[-3.1030178E-1,-3.2563604E-2,2.154493E-2],"split_indices":[85,0,0],"split_type":[0,0,0],"sum_hessian":[2.9429457E0,1.001176E0,1.9417697E0],"tree_param":{"num_deleted":"0","num_feature":"197","num_nodes":"3","size_leaf_vector":"1"}},{"base_weights":[-3.8776386E-3,2.9015671E-2,-2.6734151E-2],"categories":[],"categories_nodes":[],"categories_segments":[],"categories_sizes":[],"default_left":[0,0,0],"id":92,"left_children":[1,-1,-1],"loss_changes":[4.2337008E-2,0E0,0E0],"parents":[2147483647,0,0],"right_children":[2,-1,-1],"split_conditions":[-3.2498252E-1,2.9015671E-2,-2.6734151E-2],"split_indices":[145,0,0],"split_type":[0,0,0],"sum_hessian":[2.9323752E0,1.2832065E0,1.6491686E0],"tree_param":{"num_deleted":"0","num_feature":"197","num_nodes":"3","size_leaf_vector":"1"}},{"base_weights":[-2.1379476E-3,2.8528048E-2,-2.6860934E-2],"categories":[],"categories_nodes":[],"categories_segments":[],"categories_sizes":[],"default_left":[0,0,0],"id":93,"left_children":[1,-1,-1],"loss_changes":[4.1841175E-2,0E0,0E0],"parents":[2147483647,0,0],"right_children":[2,-1,-1],"split_conditions":[-3.4639382E-1,2.8528048E-2,-2.6860934E-2],"split_indices":[136,0,0],"split_type":[0,0,0],"sum_hessian":[2.9217827E0,1.3414099E0,1.5803728E0],"tree_param":{"num_deleted":"0","num_feature":"197","num_nodes":"3","size_leaf_vector":"1"}},{"base_weights":[-1.0727054E-3,-2.8309435E-2,2.5281364E-2],"categories":[],"categories_nodes":[],"categories_segments":[],"categories_sizes":[],"default_left":[0,0,0],"id":94,"left_children":[1,-1,-1],"loss_changes":[3.9099615E-2,0E0,0E0],"parents":[2147483647,0,0],"right_children":[2,-1,-1],"split_conditions":[1.8035413E-1,-2.8309435E-2,2.5281364E-2],"split_indices":[69,0,0],"split_type":[0,0,0],"sum_hessian":[2.9120486E0,1.340742E0,1.5713066E0],"tree_param":{"num_deleted":"0","num_feature":"197","num_nodes":"3","size_leaf_vector":"1"}},{"base_weights":[-1.5339172E-3,-2.7059093E-2,2.6601741E-2],"categories":[],"categories_nodes":[],"categories_segments":[],"categories_sizes":[],"default_left":[0,0,0],"id":95,"left_children":[1,-1,-1],"loss_changes":[3.9201647E-2,0E0,0E0],"parents":[2147483647,0,0],"right_children":[2,-1,-1],"split_conditions":[5.207702E-2,-2.7059093E-2,2.6601741E-2],"split_indices":[172,0,0],"split_type":[0,0,0],"sum_hessian":[2.9014456E0,1.4632926E0,1.438153E0],"tree_param":{"num_deleted":"0","num_feature":"197","num_nodes":"3","size_leaf_vector":"1"}},{"base_weights":[-1.1947055E-3,2.7089436E-2,-2.5369478E-2],"categories":[],"categories_nodes":[],"categories_segments":[],"categories_sizes":[],"default_left":[0,0,0],"id":96,"left_children":[1,-1,-1],"loss_changes":[3.732403E-2,0E0,0E0],"parents":[2147483647,0,0],"right_children":[2,-1,-1],"split_conditions":[-1.3978194E-1,2.7089436E-2,-2.5369478E-2],"split_indices":[170,0,0],"split_type":[0,0,0],"sum_hessian":[2.8920882E0,1.3392546E0,1.5528337E0],"tree_param":{"num_deleted":"0","num_feature":"197","num_nodes":"3","size_leaf_vector":"1"}},{"base_weights":[-3.9357226E-4,-2.8809926E-2,2.3132542E-2],"categories":[],"categories_nodes":[],"categories_segments":[],"categories_sizes":[],"default_left":[0,0,0],"id":97,"left_children":[1,-1,-1],"loss_changes":[3.618772E-2,0E0,0E0],"parents":[2147483647,0,0],"right_children":[2,-1,-1],"split_conditions":[-3.4565964E-1,-2.8809926E-2,2.3132542E-2],"split_indices":[54,0,0],"split_type":[0,0,0],"sum_hessian":[2.8831291E0,1.1835251E0,1.6996042E0],"tree_param":{"num_deleted":"0","num_feature":"197","num_nodes":"3","size_leaf_vector":"1"}},{"base_weights":[-1.7498482E-3,-2.8878128E-2,2.3033498E-2],"categories":[],"categories_nodes":[],"categories_segments":[],"categories_sizes":[],"default_left":[0,0,0],"id":98,"left_children":[1,-1,-1],"loss_changes":[3.613617E-2,0E0,0E0],"parents":[2147483647,0,0],"right_children":[2,-1,-1],"split_conditions":[-3.7350494E-1,-2.8878128E-2,2.3033498E-2],"split_indices":[120,0,0],"split_type":[0,0,0],"sum_hessian":[2.8731408E0,1.2014086E0,1.6717322E0],"tree_param":{"num_deleted":"0","num_feature":"197","num_nodes":"3","size_leaf_vector":"1"}},{"base_weights":[-2.7484002E-3,-2.3225807E-2,2.8427122E-2],"categories":[],"categories_nodes":[],"categories_segments":[],"categories_sizes":[],"default_left":[0,0,0],"id":99,"left_children":[1,-1,-1],"loss_changes":[3.5466537E-2,0E0,0E0],"parents":[2147483647,0,0],"right_children":[2,-1,-1],"split_conditions":[1.6399907E-1,-2.3225807E-2,2.8427122E-2],"split_indices":[193,0,0],"split_type":[0,0,0],"sum_hessian":[2.8636415E0,1.7383729E0,1.1252685E0],"tree_param":{"num_deleted":"0","num_feature":"197","num_nodes":"3","size_leaf_vector":"1"}}]},"name":"gbtree"},"learner_model_param":{"base_score":"4.5882353E-1","boost_from_average":"1","num_class":"0","num_feature":"197","num_target":"1"},"objective":{"name":"binary:logistic","reg_loss_param":{"scale_pos_weight":"1"}}},"version":[3,0,2]}